{"learner":{"attributes":{"scikit_learn":"{\"_estimator_type\": \"classifier\"}"},"feature_names":["ret_1d","ret_3d","ret_5d","ret_10d","ret_20d","dist_sma10","dist_sma20","dist_sma50","sma20_slope","rsi_14","rsi_7","macd_hist","macd_hist_slope","atr_pct","ret_std_10","ret_std_20","bb_position","bb_width","vol_ratio","vol_zscore","gap_pct","close_in_range","hl_range_pct","sector_ret_1d","sector_ret_5d","rel_strength_5d","dist_high_20","dist_low_20","up_days_10","dow","news_tone","news_tone_3d","news_active","sector_news_tone","sector_news_tone_3d","rel_news_tone"],"feature_types":["float","float","float","float","float","float","float","float","float","float","float","float","float","float","float","float","float","float","float","float","float","float","float","float","float","float","float","float","float","int","float","float","float","float","float","float"],"gradient_booster":{"model":{"cats":{"enc":[],"feature_segments":[],"sorted_idx":[]},"gbtree_model_param":{"num_parallel_tree":"1","num_trees":"180"},"iteration_indptr":[0,1,2,3,4,5,6,7,8,9,10,11,12,13,14,15,16,17,18,19,20,21,22,23,24,25,26,27,28,29,30,31,32,33,34,35,36,37,38,39,40,41,42,43,44,45,46,47,48,49,50,51,52,53,54,55,56,57,58,59,60,61,62,63,64,65,66,67,68,69,70,71,72,73,74,75,76,77,78,79,80,81,82,83,84,85,86,87,88,89,90,91,92,93,94,95,96,97,98,99,100,101,102,103,104,105,106,107,108,109,110,111,112,113,114,115,116,117,118,119,120,121,122,123,124,125,126,127,128,129,130,131,132,133,134,135,136,137,138,139,140,141,142,143,144,145,146,147,148,149,150,151,152,153,154,155,156,157,158,159,160,161,162,163,164,165,166,167,168,169,170,171,172,173,174,175,176,177,178,179,180],"tree_info":[0,0,0,0,0,0,0,0,0,0,0,0,0,0,0,0,0,0,0,0,0,0,0,0,0,0,0,0,0,0,0,0,0,0,0,0,0,0,0,0,0,0,0,0,0,0,0,0,0,0,0,0,0,0,0,0,0,0,0,0,0,0,0,0,0,0,0,0,0,0,0,0,0,0,0,0,0,0,0,0,0,0,0,0,0,0,0,0,0,0,0,0,0,0,0,0,0,0,0,0,0,0,0,0,0,0,0,0,0,0,0,0,0,0,0,0,0,0,0,0,0,0,0,0,0,0,0,0,0,0,0,0,0,0,0,0,0,0,0,0,0,0,0,0,0,0,0,0,0,0,0,0,0,0,0,0,0,0,0,0,0,0,0,0,0,0,0,0,0,0,0,0,0,0,0,0,0,0,0,0],"trees":[{"base_weights":[1.0112123E-2,-3.306802E-2,7.660999E-1,1.2946545E0,-5.7098944E-2,1.1757689E0,1.7385012E-1,7.529051E-2,3.5807095E-2,-5.3859977E-3,1.7639069E-2,1.23304445E-2,6.5894864E-2,3.650607E-2,-2.081161E-2],"categories":[],"categories_nodes":[],"categories_segments":[],"categories_sizes":[],"default_left":[0,0,0,0,0,0,0,0,0,0,0,0,0,0,0],"id":0,"left_children":[1,3,5,7,9,11,13,-1,-1,-1,-1,-1,-1,-1,-1],"loss_changes":[5.0270336E1,4.621072E1,1.9613274E1,1.0822525E0,2.9644491E1,5.634735E0,1.2330438E1,0E0,0E0,0E0,0E0,0E0,0E0,0E0,0E0],"parents":[2147483647,0,0,1,1,2,2,3,3,4,4,5,5,6,6],"right_children":[2,4,6,8,10,12,14,-1,-1,-1,-1,-1,-1,-1,-1],"split_conditions":[3.305564E-2,-4.3670762E-2,4.5461573E-2,-5.0511442E-2,5.9262604E-2,-6.7642845E-2,1.1553009E0,7.529051E-2,3.5807095E-2,-5.3859977E-3,1.7639069E-2,1.23304445E-2,6.5894864E-2,3.650607E-2,-2.081161E-2],"split_indices":[23,23,23,1,24,4,18,0,0,0,0,0,0,0,0],"split_type":[0,0,0,0,0,0,0,0,0,0,0,0,0,0,0],"sum_hessian":[1.5328173E3,1.4511038E3,8.171361E1,2.4239204E1,1.4268645E3,4.7228966E1,3.4484642E1,1.5742989E1,8.496216E0,1.2714337E3,1.5543077E2,6.996884E0,4.0232082E1,1.7742098E1,1.6742542E1],"tree_param":{"num_deleted":"0","num_feature":"36","num_nodes":"15","size_leaf_vector":"1"}},{"base_weights":[4.755017E-3,-7.955175E-2,3.908629E-1,1.14354E0,-1.044314E-1,9.293896E-1,1.8901826E-1,6.692875E-2,2.091356E-2,-8.28229E-3,1.1602032E-2,7.7840745E-2,2.2428105E-2,-4.569347E-2,1.706538E-2],"categories":[],"categories_nodes":[],"categories_segments":[],"categories_sizes":[],"default_left":[0,0,0,0,0,0,0,0,0,0,0,0,0,0,0],"id":1,"left_children":[1,3,5,7,9,11,13,-1,-1,-1,-1,-1,-1,-1,-1],"loss_changes":[5.036745E1,3.8559223E1,2.966431E1,2.379898E0,2.567392E1,2.1168518E1,3.4602734E1,0E0,0E0,0E0,0E0,0E0,0E0,0E0,0E0],"parents":[2147483647,0,0,1,1,2,2,3,3,4,4,5,5,6,6],"right_children":[2,4,6,8,10,12,14,-1,-1,-1,-1,-1,-1,-1,-1],"split_conditions":[1.803931E-2,-4.3670762E-2,2.2186846E-2,1.3909883E0,2.1194375E-1,2E0,2.4588289E-2,6.692875E-2,2.091356E-2,-8.28229E-3,1.1602032E-2,7.7840745E-2,2.2428105E-2,-4.569347E-2,1.706538E-2],"split_indices":[23,23,23,18,27,29,23,0,0,0,0,0,0,0,0],"split_type":[0,0,0,0,0,0,0,0,0,0,0,0,0,0,0],"sum_hessian":[1.5424697E3,1.2665837E3,2.7588596E2,2.3745872E1,1.2428379E3,7.3469604E1,2.0241637E2,1.7496595E1,6.2492776E0,1.0526797E3,1.9015819E2,3.0238792E1,4.3230812E1,2.34895E1,1.7892686E2],"tree_param":{"num_deleted":"0","num_feature":"36","num_nodes":"15","size_leaf_vector":"1"}},{"base_weights":[1.6994423E-3,-8.180899E-2,3.8676277E-1,5.2918404E-1,-1.3844915E-1,9.0164655E-1,1.9336273E-1,1.4270236E-2,6.2400647E-2,-6.291681E-2,-5.8967597E-3,2.1422837E-2,6.510493E-2,-4.56106E-2,1.738396E-2],"categories":[],"categories_nodes":[],"categories_segments":[],"categories_sizes":[],"default_left":[0,0,0,0,0,0,0,0,0,0,0,0,0,0,0],"id":2,"left_children":[1,3,5,7,9,11,13,-1,-1,-1,-1,-1,-1,-1,-1],"loss_changes":[4.9492657E1,4.373576E1,2.6843018E1,1.7935596E1,2.608743E1,1.288327E1,3.4767677E1,0E0,0E0,0E0,0E0,0E0,0E0,0E0,0E0],"parents":[2147483647,0,0,1,1,2,2,3,3,4,4,5,5,6,6],"right_children":[2,4,6,8,10,12,14,-1,-1,-1,-1,-1,-1,-1,-1],"split_conditions":[1.803931E-2,-2.8028816E-2,2.2186846E-2,-3.0287877E-2,-2.6760563E-2,3.6476254E-2,2.4588289E-2,1.4270236E-2,6.2400647E-2,-6.291681E-2,-5.8967597E-3,2.1422837E-2,6.510493E-2,-4.56106E-2,1.738396E-2],"split_indices":[23,23,23,23,23,22,23,0,0,0,0,0,0,0,0],"split_type":[0,0,0,0,0,0,0,0,0,0,0,0,0,0,0],"sum_hessian":[1.5342677E3,1.2613759E3,2.7289185E2,1.0565038E2,1.1557255E3,7.273204E1,2.0015982E2,8.066719E1,2.4983194E1,1.8986092E1,1.1367394E3,3.499038E1,3.774166E1,2.3455288E1,1.7670453E2],"tree_param":{"num_deleted":"0","num_feature":"36","num_nodes":"15","size_leaf_vector":"1"}},{"base_weights":[-3.922239E-3,-6.799528E-2,4.230176E-1,-2.7435448E-2,-8.435991E-1,-2.8906738E-2,4.809407E-1,-4.8002717E-3,2.3619916E-2,-6.787914E-2,-2.292647E-2,3.5316266E-2,1.4585095E-2],"categories":[],"categories_nodes":[],"categories_segments":[],"categories_sizes":[],"default_left":[0,0,0,0,0,0,0,0,0,0,0,0,0],"id":3,"left_children":[1,3,5,7,9,-1,11,-1,-1,-1,-1,-1,-1],"loss_changes":[4.2179802E1,4.2049076E1,1.2061775E1,4.3806023E1,1.1856922E1,0E0,7.6440964E0,0E0,0E0,0E0,0E0,0E0,0E0],"parents":[2147483647,0,0,1,1,2,2,3,3,4,4,6,6],"right_children":[2,4,6,8,10,-1,12,-1,-1,-1,-1,-1,-1],"split_conditions":[5.9262604E-2,4.2058922E-2,-2.9202355E-3,1.8243019E-2,1.1168335E-3,-2.8906738E-2,-4.3478105E-2,-4.8002717E-3,2.3619916E-2,-6.787914E-2,-2.292647E-2,3.5316266E-2,1.4585095E-2],"split_indices":[24,24,11,23,23,0,19,0,0,0,0,0,0],"split_type":[0,0,0,0,0,0,0,0,0,0,0,0,0],"sum_hessian":[1.5414409E3,1.3417997E3,1.9964117E2,1.276839E3,6.496076E1,9.993167E0,1.8964801E2,1.1242236E3,1.5261526E2,2.5978045E1,3.8982716E1,8.420443E1,1.0544357E2],"tree_param":{"num_deleted":"0","num_feature":"36","num_nodes":"13","size_leaf_vector":"1"}},{"base_weights":[1.4444118E-3,-7.169874E-2,3.182604E-1,4.1657817E-1,-1.2828667E-1,7.013055E-1,1.417953E-1,-2.596035E-2,3.5745785E-2,-8.419621E-3,3.4873422E-2,7.008617E-2,1.6867915E-2,-4.296598E-2,1.4188732E-2],"categories":[],"categories_nodes":[],"categories_segments":[],"categories_sizes":[],"default_left":[0,0,0,0,0,0,0,0,0,0,0,0,0,0,0],"id":4,"left_children":[1,3,5,7,9,11,13,-1,-1,-1,-1,-1,-1,-1,-1],"loss_changes":[3.587162E1,3.471071E1,1.9315899E1,3.6992844E1,3.7379143E1,2.2107658E1,2.8833391E1,0E0,0E0,0E0,0E0,0E0,0E0,0E0,0E0],"parents":[2147483647,0,0,1,1,2,2,3,3,4,4,5,5,6,6],"right_children":[2,4,6,8,10,12,14,-1,-1,-1,-1,-1,-1,-1,-1],"split_conditions":[1.6368704E-2,-5.6871198E-2,2.2186846E-2,-3.7189286E-2,8.397239E-2,2E0,2.4588289E-2,-2.596035E-2,3.5745785E-2,-8.419621E-3,3.4873422E-2,7.008617E-2,1.6867915E-2,-4.296598E-2,1.4188732E-2],"split_indices":[23,24,23,23,24,29,23,0,0,0,0,0,0,0,0],"split_type":[0,0,0,0,0,0,0,0,0,0,0,0,0,0,0],"sum_hessian":[1.5428923E3,1.2539279E3,2.8896445E2,1.2887086E2,1.125057E3,8.93726E1,1.9959186E2,3.0722801E1,9.8148056E1,1.0743153E3,5.074165E1,2.8909483E1,6.0463116E1,2.367426E1,1.759176E2],"tree_param":{"num_deleted":"0","num_feature":"36","num_nodes":"15","size_leaf_vector":"1"}},{"base_weights":[3.2075988E-3,-6.743179E-2,3.3534485E-1,4.8610836E-1,-1.1711599E-1,8.0935615E-1,1.6007276E-1,4.3527596E-2,-5.4973032E-2,-9.054358E-3,1.0043639E-2,6.769016E-2,1.9170234E-2,-7.3359287E-3,3.1082759E-2],"categories":[],"categories_nodes":[],"categories_segments":[],"categories_sizes":[],"default_left":[0,0,0,0,0,0,0,0,0,0,0,0,0,0,0],"id":5,"left_children":[1,3,5,7,9,11,13,-1,-1,-1,-1,-1,-1,-1,-1],"loss_changes":[3.623358E1,3.4971844E1,2.212206E1,6.5186424E1,2.381061E1,1.5678646E1,2.8551046E1,0E0,0E0,0E0,0E0,0E0,0E0,0E0,0E0],"parents":[2147483647,0,0,1,1,2,2,3,3,4,4,5,5,6,6],"right_children":[2,4,6,8,10,12,14,-1,-1,-1,-1,-1,-1,-1,-1],"split_conditions":[1.803931E-2,-2.8028816E-2,2.2186846E-2,4E0,2.6276815E-1,2E0,3.305564E-2,4.3527596E-2,-5.4973032E-2,-9.054358E-3,1.0043639E-2,6.769016E-2,1.9170234E-2,-7.3359287E-3,3.1082759E-2],"split_indices":[23,23,23,29,17,29,23,0,0,0,0,0,0,0,0],"split_type":[0,0,0,0,0,0,0,0,0,0,0,0,0,0,0],"sum_hessian":[1.539124E3,1.26968E3,2.6944394E2,1.0315962E2,1.1665204E3,7.0962654E1,1.984813E2,8.36742E1,1.948542E1,9.7221124E2,1.943092E2,2.950837E1,4.145429E1,1.1958734E2,7.889395E1],"tree_param":{"num_deleted":"0","num_feature":"36","num_nodes":"15","size_leaf_vector":"1"}},{"base_weights":[-5.9970873E-3,-4.0953632E-2,6.468701E-1,1.1012424E0,-6.1348554E-2,1.0508362E0,3.1153154E-2,6.3784E-2,1.852429E-2,4.7238022E-2,-4.0647713E-3,-5.528428E-3,6.45679E-2,3.1831477E-2,-3.1973314E-2],"categories":[],"categories_nodes":[],"categories_segments":[],"categories_sizes":[],"default_left":[0,0,0,0,0,0,0,0,0,0,0,0,0,0,0],"id":6,"left_children":[1,3,5,7,9,11,13,-1,-1,-1,-1,-1,-1,-1,-1],"loss_changes":[3.4835064E1,3.3761894E1,1.9024319E1,2.2011776E0,2.8640493E1,1.3464203E1,1.3792824E1,0E0,0E0,0E0,0E0,0E0,0E0,0E0,0E0],"parents":[2147483647,0,0,1,1,2,2,3,3,4,4,5,5,6,6],"right_children":[2,4,6,8,10,12,14,-1,-1,-1,-1,-1,-1,-1,-1],"split_conditions":[3.305564E-2,-4.3670762E-2,4.5461573E-2,-3.6300274E-3,-9.628108E-2,-2.155585E-2,1.1553009E0,6.3784E-2,1.852429E-2,4.7238022E-2,-4.0647713E-3,-5.528428E-3,6.45679E-2,3.1831477E-2,-3.1973314E-2],"split_indices":[23,23,23,20,16,8,18,0,0,0,0,0,0,0,0],"split_type":[0,0,0,0,0,0,0,0,0,0,0,0,0,0,0],"sum_hessian":[1.5284508E3,1.4523972E3,7.6053635E1,2.3912327E1,1.4284849E3,4.508737E1,3.0966263E1,1.8180304E1,5.732023E0,2.6223312E1,1.4022616E3,7.7318068E0,3.7355564E1,1.6470205E1,1.4496057E1],"tree_param":{"num_deleted":"0","num_feature":"36","num_nodes":"15","size_leaf_vector":"1"}},{"base_weights":[-9.3760595E-5,-1.3126177E-1,1.4473306E-1,4.4617558E-1,-2.2023246E-1,5.28039E-2,3.5694864E-1,3.9980557E-2,-5.0032623E-2,-1.3797683E-2,9.599391E-3,1.2744278E-2,-1.2797614E-3,-5.0560194E-3,2.2636058E-2],"categories":[],"categories_nodes":[],"categories_segments":[],"categories_sizes":[],"default_left":[0,0,0,0,0,0,0,0,0,0,0,0,0,0,0],"id":7,"left_children":[1,3,5,7,9,11,13,-1,-1,-1,-1,-1,-1,-1,-1],"loss_changes":[2.9465828E1,4.1959145E1,1.4258299E1,5.6882385E1,1.6341713E1,8.235682E0,9.864935E0,0E0,0E0,0E0,0E0,0E0,0E0,0E0,0E0],"parents":[2147483647,0,0,1,1,2,2,3,3,4,4,5,5,6,6],"right_children":[2,4,6,8,10,12,14,-1,-1,-1,-1,-1,-1,-1,-1],"split_conditions":[1.1168335E-3,-2.8028816E-2,4.6368744E-2,4E0,2.3081858E-1,1.1537883E-9,6.769936E-3,3.9980557E-2,-5.0032623E-2,-1.3797683E-2,9.599391E-3,1.2744278E-2,-1.2797614E-3,-5.0560194E-3,2.2636058E-2],"split_indices":[23,23,13,29,27,20,23,0,0,0,0,0,0,0,0],"split_type":[0,0,0,0,0,0,0,0,0,0,0,0,0,0,0],"sum_hessian":[1.5482485E3,8.132336E2,7.3501495E2,1.0746891E2,7.0576465E2,5.1481793E2,2.2019707E2,8.702051E1,2.04484E1,6.225884E2,8.317633E1,1.4366956E2,3.7114838E2,3.7701763E1,1.824953E2],"tree_param":{"num_deleted":"0","num_feature":"36","num_nodes":"15","size_leaf_vector":"1"}},{"base_weights":[2.851032E-3,-6.534596E-2,3.221511E-1,-1.0494116E-1,7.625211E-1,7.611998E-1,1.5692216E-1,1.6737077E-2,-9.545806E-3,-1.9948944E-2,5.1023353E-2,4.5025576E-2,-1.54016465E-2,-4.0605225E-2,1.4421664E-2],"categories":[],"categories_nodes":[],"categories_segments":[],"categories_sizes":[],"default_left":[0,0,0,0,0,0,0,0,0,0,0,0,0,0,0],"id":8,"left_children":[1,3,5,7,9,11,13,-1,-1,-1,-1,-1,-1,-1,-1],"loss_changes":[3.3646706E1,4.1645714E1,1.937195E1,4.597238E1,1.809938E1,1.150732E1,2.571838E1,0E0,0E0,0E0,0E0,0E0,0E0,0E0,0E0],"parents":[2147483647,0,0,1,1,2,2,3,3,4,4,5,5,6,6],"right_children":[2,4,6,8,10,12,14,-1,-1,-1,-1,-1,-1,-1,-1],"split_conditions":[1.803931E-2,8.397239E-2,2.2186846E-2,-4.6192057E-2,-5.3424835E-3,9.160449E1,2.4588289E-2,1.6737077E-2,-9.545806E-3,-1.9948944E-2,5.1023353E-2,4.5025576E-2,-1.54016465E-2,-4.0605225E-2,1.4421664E-2],"split_indices":[23,24,23,24,23,10,23,0,0,0,0,0,0,0,0],"split_type":[0,0,0,0,0,0,0,0,0,0,0,0,0,0,0],"sum_hessian":[1.5398685E3,1.2693285E3,2.7054004E2,1.2128707E3,5.6457695E1,7.2163994E1,1.9837604E2,1.9728311E2,1.01558765E3,9.969723E0,4.6487972E1,6.422038E1,7.943614E0,2.2596012E1,1.7578003E2],"tree_param":{"num_deleted":"0","num_feature":"36","num_nodes":"15","size_leaf_vector":"1"}},{"base_weights":[-9.687535E-6,-1.4093365E-1,1.3983889E-1,3.991138E-1,-2.9309374E-1,-3.8162816E-1,1.8347897E-1,4.0763084E-2,-1.4570235E-2,2.6847174E-2,-1.7397625E-2,-2.000269E-3,-7.3785365E-2,2.2274101E-2,2.864972E-3],"categories":[],"categories_nodes":[],"categories_segments":[],"categories_sizes":[],"default_left":[0,0,0,0,0,0,0,0,0,0,0,0,0,0,0],"id":9,"left_children":[1,3,5,7,9,11,13,-1,-1,-1,-1,-1,-1,-1,-1],"loss_changes":[3.0164438E1,6.2857628E1,1.7531216E1,4.8760456E1,2.7402977E1,2.1810755E1,2.3319923E1,0E0,0E0,0E0,0E0,0E0,0E0,0E0,0E0],"parents":[2147483647,0,0,1,1,2,2,3,3,4,4,5,5,6,6],"right_children":[2,4,6,8,10,12,14,-1,-1,-1,-1,-1,-1,-1,-1],"split_conditions":[3.2507992E-4,-4.6192057E-2,-3.9163243E-2,3E0,-2.8028816E-2,3E0,-2.8068005E-4,4.0763084E-2,-1.4570235E-2,2.6847174E-2,-1.7397625E-2,-2.000269E-3,-7.3785365E-2,2.2274101E-2,2.864972E-3],"split_indices":[23,24,24,29,23,29,24,0,0,0,0,0,0,0,0],"split_type":[0,0,0,0,0,0,0,0,0,0,0,0,0,0,0],"sum_hessian":[1.5275559E3,7.615592E2,7.6599677E2,1.665808E2,5.949784E2,5.7902596E1,7.080942E2,1.0395184E2,6.262896E1,3.584223E1,5.5913617E2,4.544895E1,1.2453643E1,2.2841837E2,4.796758E2],"tree_param":{"num_deleted":"0","num_feature":"36","num_nodes":"15","size_leaf_vector":"1"}},{"base_weights":[1.3865068E-3,-3.0152237E-2,5.717898E-1,2.831664E-1,-8.3043225E-2,1.1526899E0,2.1006949E-1,3.87407E-2,-1.2115757E-2,-1.6953932E-2,3.0521299E-3,2.755561E-2,7.2325766E-2,6.03062E-2,-2.1341124E-3],"categories":[],"categories_nodes":[],"categories_segments":[],"categories_sizes":[],"default_left":[0,0,0,0,0,0,0,0,0,0,0,0,0,0,0],"id":10,"left_children":[1,3,5,7,9,11,13,-1,-1,-1,-1,-1,-1,-1,-1],"loss_changes":[2.769044E1,2.4067444E1,1.6313726E1,5.453639E1,4.5998146E1,3.7795029E0,1.3339924E1,0E0,0E0,0E0,0E0,0E0,0E0,0E0,0E0],"parents":[2147483647,0,0,1,1,2,2,3,3,4,4,5,5,6,6],"right_children":[2,4,6,8,10,12,14,-1,-1,-1,-1,-1,-1,-1,-1],"split_conditions":[3.305564E-2,-4.6192057E-2,4.159526E-2,2E0,-4.17591E-3,5.89118E-3,7.766513E-2,3.87407E-2,-1.2115757E-2,-1.6953932E-2,3.0521299E-3,2.755561E-2,7.2325766E-2,6.03062E-2,-2.1341124E-3],"split_indices":[23,24,23,29,23,20,27,0,0,0,0,0,0,0,0],"split_type":[0,0,0,0,0,0,0,0,0,0,0,0,0,0,0],"sum_hessian":[1.5302706E3,1.4511061E3,7.916449E1,2.0809126E2,1.2430149E3,2.8907658E1,5.0256832E1,1.07335556E2,1.0075571E2,4.473852E2,7.9562964E2,1.1124833E1,1.7782825E1,9.186728E0,4.1070103E1],"tree_param":{"num_deleted":"0","num_feature":"36","num_nodes":"15","size_leaf_vector":"1"}},{"base_weights":[-6.358363E-3,-5.8440935E-2,3.445962E-1,-1.4501138E-2,-8.3237374E-1,4.9952912E-1,-2.8540295E-1,8.170633E-3,-6.674712E-3,-5.379028E-2,-1.19531E-2,-8.022066E-3,3.749617E-2,4.271983E-2,-3.0390698E-2],"categories":[],"categories_nodes":[],"categories_segments":[],"categories_sizes":[],"default_left":[0,0,0,0,0,0,0,0,0,0,0,0,0,0,0],"id":11,"left_children":[1,3,5,7,9,11,13,-1,-1,-1,-1,-1,-1,-1,-1],"loss_changes":[2.7952719E1,4.5201103E1,1.9537203E1,2.680257E1,9.668713E0,2.663005E1,1.5314808E1,0E0,0E0,0E0,0E0,0E0,0E0,0E0,0E0],"parents":[2147483647,0,0,1,1,2,2,3,3,4,4,5,5,6,6],"right_children":[2,4,6,8,10,12,14,-1,-1,-1,-1,-1,-1,-1,-1],"split_conditions":[5.9262604E-2,4.2058922E-2,4E0,2E0,2.6523703E-1,1E0,1.230344E-1,8.170633E-3,-6.674712E-3,-5.379028E-2,-1.19531E-2,-8.022066E-3,3.749617E-2,4.271983E-2,-3.0390698E-2],"split_indices":[24,24,29,29,17,29,17,0,0,0,0,0,0,0,0],"split_type":[0,0,0,0,0,0,0,0,0,0,0,0,0,0,0],"sum_hessian":[1.5292362E3,1.3332052E3,1.9603102E2,1.26327E3,6.993524E1,1.578418E2,3.818923E1,5.0539008E2,7.578799E2,4.8485172E1,2.1450066E1,4.3342632E1,1.1449916E2,7.7380447E0,3.0451187E1],"tree_param":{"num_deleted":"0","num_feature":"36","num_nodes":"15","size_leaf_vector":"1"}},{"base_weights":[-4.494908E-4,-5.6990273E-2,3.6494422E-1,-2.0871954E-2,-8.020799E-1,5.020043E-1,-2.0271236E-1,4.435341E-2,-2.161276E-3,-4.6367306E-2,1.30624315E-2,-4.8450967E-3,3.5651058E-2,-3.3331055E-2,4.5860138E-2],"categories":[],"categories_nodes":[],"categories_segments":[],"categories_sizes":[],"default_left":[0,0,0,0,0,0,0,0,0,0,0,0,0,0,0],"id":12,"left_children":[1,3,5,7,9,11,13,-1,-1,-1,-1,-1,-1,-1,-1],"loss_changes":[3.1838821E1,3.580811E1,1.6274199E1,2.5818413E1,8.694813E0,2.1332851E1,2.2134453E1,0E0,0E0,0E0,0E0,0E0,0E0,0E0,0E0],"parents":[2147483647,0,0,1,1,2,2,3,3,4,4,5,5,6,6],"right_children":[2,4,6,8,10,12,14,-1,-1,-1,-1,-1,-1,-1,-1],"split_conditions":[5.7838943E-2,4.2058922E-2,4E0,-9.628108E-2,4.572036E-2,1E0,9.636797E-2,4.435341E-2,-2.161276E-3,-4.6367306E-2,1.30624315E-2,-4.8450967E-3,3.5651058E-2,-3.3331055E-2,4.5860138E-2],"split_indices":[24,24,29,16,0,29,24,0,0,0,0,0,0,0,0],"split_type":[0,0,0,0,0,0,0,0,0,0,0,0,0,0,0],"sum_hessian":[1.5410828E3,1.3361423E3,2.0494038E2,1.276094E3,6.004838E1,1.6550514E2,3.943524E1,2.9053385E1,1.2470405E3,5.4059746E1,5.988635E0,4.3085007E1,1.22420135E2,2.8440071E1,1.099517E1],"tree_param":{"num_deleted":"0","num_feature":"36","num_nodes":"15","size_leaf_vector":"1"}},{"base_weights":[8.764196E-3,-5.1602565E-2,2.1954963E-1,7.5754684E-1,-7.0819326E-2,6.0651094E-1,1.3893141E-1,4.7271382E-2,-3.6745277E-4,-9.096914E-3,3.459792E-3,3.656256E-2,-7.560588E-3,-1.422696E-2,1.0686338E-2],"categories":[],"categories_nodes":[],"categories_segments":[],"categories_sizes":[],"default_left":[0,0,0,0,0,0,0,0,0,0,0,0,0,0,0],"id":13,"left_children":[1,3,5,7,9,11,13,-1,-1,-1,-1,-1,-1,-1,-1],"loss_changes":[1.9518597E1,1.8444063E1,1.0382404E1,4.148452E0,1.814886E1,5.7668705E0,9.107538E0,0E0,0E0,0E0,0E0,0E0,0E0,0E0,0E0],"parents":[2147483647,0,0,1,1,2,2,3,3,4,4,5,5,6,6],"right_children":[2,4,6,8,10,12,14,-1,-1,-1,-1,-1,-1,-1,-1],"split_conditions":[2.4151374E-1,-9.628108E-2,-6.0505214E0,1.4035071E-3,4.563855E-1,2.8553504E-1,-2.210859E-2,4.7271382E-2,-3.6745277E-4,-9.096914E-3,3.459792E-3,3.656256E-2,-7.560588E-3,-1.422696E-2,1.0686338E-2],"split_indices":[17,16,12,8,21,19,0,0,0,0,0,0,0,0,0],"split_type":[0,0,0,0,0,0,0,0,0,0,0,0,0,0,0],"sum_hessian":[1.528471E3,1.1883296E3,3.4014133E2,2.598893E1,1.1623407E3,5.653102E1,2.836103E2,2.0789791E1,5.19914E0,6.4858746E2,5.1375323E2,4.8811737E1,7.7192836E0,4.1540302E1,2.4206999E2],"tree_param":{"num_deleted":"0","num_feature":"36","num_nodes":"15","size_leaf_vector":"1"}},{"base_weights":[-1.3902431E-2,9.709153E-1,-3.1150576E-2,1.1691314E0,1.8058127E-2,-1.5319057E-1,9.9613816E-2,2.6772022E-2,6.642845E-2,2.3171198E-2,-1.2676345E-2,-2.3540637E-2,7.5982115E-3],"categories":[],"categories_nodes":[],"categories_segments":[],"categories_sizes":[],"default_left":[0,0,0,0,0,0,0,0,0,0,0,0,0],"id":14,"left_children":[1,3,5,7,-1,9,11,-1,-1,-1,-1,-1,-1],"loss_changes":[2.6122574E1,2.2588558E0,2.431117E1,4.8507118E-1,0E0,4.8904224E1,2.197769E1,0E0,0E0,0E0,0E0,0E0,0E0],"parents":[2147483647,0,0,1,1,2,2,3,3,5,5,6,6],"right_children":[2,4,6,8,-1,10,12,-1,-1,-1,-1,-1,-1],"split_conditions":[-4.3670762E-2,1.2770579E0,1.1168335E-3,6.8696773E-1,1.8058127E-2,-5.6871198E-2,-3.9163243E-2,2.6772022E-2,6.642845E-2,2.3171198E-2,-1.2676345E-2,-2.3540637E-2,7.5982115E-3],"split_indices":[23,18,23,18,0,24,24,0,0,0,0,0,0],"split_type":[0,0,0,0,0,0,0,0,0,0,0,0,0],"sum_hessian":[1.5447573E3,2.4962126E1,1.5197952E3,1.7552233E1,7.409893E0,7.867801E2,7.3301514E2,5.094765E0,1.2457468E1,1.0907023E2,6.7770984E2,6.0287964E1,6.727272E2],"tree_param":{"num_deleted":"0","num_feature":"36","num_nodes":"13","size_leaf_vector":"1"}},{"base_weights":[-2.1461477E-3,-5.288459E-2,2.2987907E-1,2.651106E-1,-1.03097804E-1,7.136388E-1,5.7512656E-2,2.472229E-2,-7.7999667E-3,-7.6692323E-3,9.58548E-3,6.168158E-2,1.4915265E-2,-3.7489947E-2,8.500496E-3],"categories":[],"categories_nodes":[],"categories_segments":[],"categories_sizes":[],"default_left":[0,0,0,0,0,0,0,0,0,0,0,0,0,0,0],"id":15,"left_children":[1,3,5,7,9,11,13,-1,-1,-1,-1,-1,-1,-1,-1],"loss_changes":[1.7991983E1,2.0082745E1,2.263709E1,1.6728773E1,1.615651E1,1.4596943E1,1.8603136E1,0E0,0E0,0E0,0E0,0E0,0E0,0E0,0E0],"parents":[2147483647,0,0,1,1,2,2,3,3,4,4,5,5,6,6],"right_children":[2,4,6,8,10,12,14,-1,-1,-1,-1,-1,-1,-1,-1],"split_conditions":[1.803931E-2,-4.7338914E-2,2.2186846E-2,3E0,1.0101844E-1,2E0,2.4588289E-2,2.472229E-2,-7.7999667E-3,-7.6692323E-3,9.58548E-3,6.168158E-2,1.4915265E-2,-3.7489947E-2,8.500496E-3],"split_indices":[23,5,23,29,3,29,23,0,0,0,0,0,0,0,0],"split_type":[0,0,0,0,0,0,0,0,0,0,0,0,0,0,0],"sum_hessian":[1.5282512E3,1.2556831E3,2.7256818E2,1.6982104E2,1.085862E3,7.006228E1,2.025059E2,1.1008358E2,5.973746E1,9.2882544E2,1.570366E2,2.9585144E1,4.047714E1,2.3510761E1,1.7899515E2],"tree_param":{"num_deleted":"0","num_feature":"36","num_nodes":"15","size_leaf_vector":"1"}},{"base_weights":[2.056778E-3,-1.1868197E-1,1.2230129E-1,2.8943706E-1,-2.0750341E-1,2.68314E-2,3.411439E-1,2.9588863E-2,-1.2411944E-2,-1.3290568E-2,2.2752305E-2,2.908007E-3,-3.273828E-2,9.781666E-4,2.4017027E-2],"categories":[],"categories_nodes":[],"categories_segments":[],"categories_sizes":[],"default_left":[0,0,0,0,0,0,0,0,0,0,0,0,0,0,0],"id":16,"left_children":[1,3,5,7,9,11,13,-1,-1,-1,-1,-1,-1,-1,-1],"loss_changes":[2.2449917E1,2.8012766E1,1.6116024E1,2.2719734E1,2.4646093E1,1.1516633E1,1.0396305E1,0E0,0E0,0E0,0E0,0E0,0E0,0E0,0E0],"parents":[2147483647,0,0,1,1,2,2,3,3,4,4,5,5,6,6],"right_children":[2,4,6,8,10,12,14,-1,-1,-1,-1,-1,-1,-1,-1],"split_conditions":[3.2507992E-4,-4.7338914E-2,4.6368744E-2,3E0,7.4865524E1,3.0946144E-1,-4.9909637E-3,2.9588863E-2,-1.2411944E-2,-1.3290568E-2,2.2752305E-2,2.908007E-3,-3.273828E-2,9.781666E-4,2.4017027E-2],"split_indices":[23,5,13,29,9,27,11,0,0,0,0,0,0,0,0],"split_type":[0,0,0,0,0,0,0,0,0,0,0,0,0,0,0],"sum_hessian":[1.543283E3,7.692387E2,7.7404425E2,1.3648308E2,6.327556E2,5.407433E2,2.3330095E2,8.750131E1,4.8981766E1,5.8267694E2,5.0078663E1,5.185732E2,2.2170124E1,7.1428986E1,1.6187196E2],"tree_param":{"num_deleted":"0","num_feature":"36","num_nodes":"15","size_leaf_vector":"1"}},{"base_weights":[-3.0340087E-3,-1.0937881E-1,1.2436367E-1,4.901547E-1,-1.5734813E-1,9.730574E-3,2.675236E-1,-1.902512E-2,3.722213E-2,-1.0533524E-2,1.617082E-2,8.667472E-3,-7.6066563E-3,-1.9471645E-2,1.5527929E-2],"categories":[],"categories_nodes":[],"categories_segments":[],"categories_sizes":[],"default_left":[0,0,0,0,0,0,0,0,0,0,0,0,0,0,0],"id":17,"left_children":[1,3,5,7,9,11,13,-1,-1,-1,-1,-1,-1,-1,-1],"loss_changes":[2.0824305E1,2.4169693E1,1.1404853E1,1.4266409E1,2.002452E1,1.037972E1,8.924431E0,0E0,0E0,0E0,0E0,0E0,0E0,0E0,0E0],"parents":[2147483647,0,0,1,1,2,2,3,3,4,4,5,5,6,6],"right_children":[2,4,6,8,10,12,14,-1,-1,-1,-1,-1,-1,-1,-1],"split_conditions":[4.4745597E-1,-2.4308681E-2,4.064428E-2,-3.7189286E-2,5.9262604E-2,8.0650106E-2,-6.256382E-2,-1.902512E-2,3.722213E-2,-1.0533524E-2,1.617082E-2,8.667472E-3,-7.6066563E-3,-1.9471645E-2,1.5527929E-2],"split_indices":[21,16,13,23,24,27,24,0,0,0,0,0,0,0,0],"split_type":[0,0,0,0,0,0,0,0,0,0,0,0,0,0,0],"sum_hessian":[1.5342819E3,8.372076E2,6.970743E2,6.069007E1,7.765175E2,3.8877097E2,3.0830334E2,1.3372588E1,4.7317486E1,7.001243E2,7.6393196E1,1.938988E2,1.9487216E2,1.792626E1,2.9037708E2],"tree_param":{"num_deleted":"0","num_feature":"36","num_nodes":"15","size_leaf_vector":"1"}},{"base_weights":[1.4538926E-2,-3.7770372E-2,2.8520003E-1,-7.112726E-2,6.5825224E-1,-4.8402645E-2,3.4192318E-1,2.0954458E-2,-6.387365E-3,5.3167637E-2,8.542188E-4,3.692747E-2,1.9885849E-3],"categories":[],"categories_nodes":[],"categories_segments":[],"categories_sizes":[],"default_left":[0,0,0,0,0,0,0,0,0,0,0,0,0],"id":18,"left_children":[1,3,5,7,9,-1,11,-1,-1,-1,-1,-1,-1],"loss_changes":[2.1952723E1,3.0047606E1,1.8226873E1,3.4400116E1,1.5120895E1,0E0,2.8749052E1,0E0,0E0,0E0,0E0,0E0,0E0],"parents":[2147483647,0,0,1,1,2,2,3,3,4,4,6,6],"right_children":[2,4,6,8,10,-1,12,-1,-1,-1,-1,-1,-1],"split_conditions":[1.9030774E-2,8.397239E-2,-4.9110945E-2,-5.6871198E-2,1.0784933E-1,-4.8402645E-2,2.1292325E-2,2.0954458E-2,-6.387365E-3,5.3167637E-2,8.542188E-4,3.692747E-2,1.9885849E-3],"split_indices":[23,24,24,24,24,0,24,0,0,0,0,0,0],"split_type":[0,0,0,0,0,0,0,0,0,0,0,0,0],"sum_hessian":[1.544406E3,1.2947316E3,2.4967444E2,1.2370786E3,5.7652943E1,9.614925E0,2.4005951E2,1.26728455E2,1.1103502E3,3.45341E1,2.3118843E1,1.0257875E2,1.3748076E2],"tree_param":{"num_deleted":"0","num_feature":"36","num_nodes":"13","size_leaf_vector":"1"}},{"base_weights":[2.9068298E-3,-2.567521E-2,5.253445E-1,8.580255E-1,-4.0928368E-2,1.0814952E0,1.9617322E-1,5.380513E-2,3.7993721E-3,-1.1946693E-3,-3.2055106E-2,2.3414653E-2,6.679018E-2,5.8014184E-2,-2.9790343E-3],"categories":[],"categories_nodes":[],"categories_segments":[],"categories_sizes":[],"default_left":[0,0,0,0,0,0,0,0,0,0,0,0,0,0,0],"id":19,"left_children":[1,3,5,7,9,11,13,-1,-1,-1,-1,-1,-1,-1,-1],"loss_changes":[2.274612E1,1.9268373E1,1.3894106E1,3.7809772E0,1.4310525E1,3.1960106E0,1.3072751E1,0E0,0E0,0E0,0E0,0E0,0E0,0E0,0E0],"parents":[2147483647,0,0,1,1,2,2,3,3,4,4,5,5,6,6],"right_children":[2,4,6,8,10,12,14,-1,-1,-1,-1,-1,-1,-1,-1],"split_conditions":[3.305564E-2,-4.3670762E-2,4.159526E-2,-3.6300274E-3,2.8760916E-2,5.373213E-3,7.498674E-2,5.380513E-2,3.7993721E-3,-1.1946693E-3,-3.2055106E-2,2.3414653E-2,6.679018E-2,5.8014184E-2,-2.9790343E-3],"split_indices":[23,23,23,20,23,20,27,0,0,0,0,0,0,0,0],"split_type":[0,0,0,0,0,0,0,0,0,0,0,0,0,0,0],"sum_hessian":[1.5137323E3,1.4362025E3,7.752973E1,2.2740286E1,1.4134623E3,2.7325737E1,5.0203995E1,1.7140696E1,5.599589E0,1.3762914E3,3.7170902E1,9.490451E0,1.7835287E1,9.577354E0,4.062664E1],"tree_param":{"num_deleted":"0","num_feature":"36","num_nodes":"15","size_leaf_vector":"1"}},{"base_weights":[-6.888478E-3,8.504998E-1,-2.1189205E-2,1.6386133E-2,1.048906E0,-1.3404557E-1,8.963363E-2,2.834676E-2,6.4991385E-2,2.178238E-2,-1.180268E-2,-2.128538E-2,6.636949E-3],"categories":[],"categories_nodes":[],"categories_segments":[],"categories_sizes":[],"default_left":[0,0,0,0,0,0,0,0,0,0,0,0,0],"id":20,"left_children":[1,3,5,-1,7,9,11,-1,-1,-1,-1,-1,-1],"loss_changes":[1.8386646E1,1.7600327E0,1.8634895E1,0E0,5.613823E-1,4.3038635E1,1.6701458E1,0E0,0E0,0E0,0E0,0E0,0E0],"parents":[2147483647,0,0,1,1,2,2,4,4,5,5,6,6],"right_children":[2,4,6,-1,8,10,12,-1,-1,-1,-1,-1,-1],"split_conditions":[-4.3670762E-2,5.3008985E-2,3.2507992E-4,1.6386133E-2,-5.8572195E-3,-5.6871198E-2,-3.9163243E-2,2.834676E-2,6.4991385E-2,2.178238E-2,-1.180268E-2,-2.128538E-2,6.636949E-3],"split_indices":[23,22,23,0,25,24,24,0,0,0,0,0,0],"split_type":[0,0,0,0,0,0,0,0,0,0,0,0,0],"sum_hessian":[1.5093931E3,2.3094381E1,1.4862987E3,7.7251654E0,1.5369216E1,7.3713153E2,7.491671E2,7.208773E0,8.160443E0,1.1090181E2,6.2622974E2,5.6440865E1,6.9272626E2],"tree_param":{"num_deleted":"0","num_feature":"36","num_nodes":"13","size_leaf_vector":"1"}},{"base_weights":[-3.460701E-3,-6.552615E-2,1.6582777E-1,4.282216E-1,-9.269158E-2,3.1137812E-1,-5.966617E-2,3.266054E-2,-1.0270802E-2,-1.0714505E-2,1.5257732E-3,2.8813738E-2,6.5444144E-3,-4.6875153E-2,1.3195166E-4],"categories":[],"categories_nodes":[],"categories_segments":[],"categories_sizes":[],"default_left":[0,0,0,0,0,0,0,0,0,0,0,0,0,0,0],"id":21,"left_children":[1,3,5,7,9,11,13,-1,-1,-1,-1,-1,-1,-1,-1],"loss_changes":[1.6061388E1,1.5024959E1,1.3526377E1,8.60643E0,1.5986057E1,1.1688379E1,9.021097E0,0E0,0E0,0E0,0E0,0E0,0E0,0E0,0E0],"parents":[2147483647,0,0,1,1,2,2,3,3,4,4,5,5,6,6],"right_children":[2,4,6,8,10,12,14,-1,-1,-1,-1,-1,-1,-1,-1],"split_conditions":[2.237603E-1,-2.4308681E-2,3E0,-1.0222283E-2,3.9364302E-1,-1.4366797E0,-2.7808402E-2,3.266054E-2,-1.0270802E-2,-1.0714505E-2,1.5257732E-3,2.8813738E-2,6.5444144E-3,-4.6875153E-2,1.3195166E-4],"split_indices":[17,16,29,23,21,12,23,0,0,0,0,0,0,0,0],"split_type":[0,0,0,0,0,0,0,0,0,0,0,0,0,0,0],"sum_hessian":[1.5275002E3,1.119254E3,4.082462E2,5.6829865E1,1.0624242E3,2.4829437E2,1.599518E2,4.2137257E1,1.4692606E1,5.3496136E2,5.274628E2,9.88376E1,1.4945677E2,9.4166975E0,1.5053511E2],"tree_param":{"num_deleted":"0","num_feature":"36","num_nodes":"15","size_leaf_vector":"1"}},{"base_weights":[4.818621E-3,-2.341193E-2,4.0925074E-1,7.0389885E-1,-3.9837323E-2,-7.1523213E-1,6.1519897E-1,-1.2170915E-2,5.014476E-2,-5.457472E-3,7.7012205E-3,-4.35889E-3,-6.9753245E-2,4.4070546E-2,-9.367363E-3],"categories":[],"categories_nodes":[],"categories_segments":[],"categories_sizes":[],"default_left":[0,0,0,0,0,0,0,0,0,0,0,0,0,0,0],"id":22,"left_children":[1,3,5,7,9,11,13,-1,-1,-1,-1,-1,-1,-1,-1],"loss_changes":[1.7552362E1,1.6998472E1,2.3874825E1,9.413052E0,1.8835945E1,6.384306E0,1.8707909E1,0E0,0E0,0E0,0E0,0E0,0E0,0E0,0E0],"parents":[2147483647,0,0,1,1,2,2,3,3,4,4,5,5,6,6],"right_children":[2,4,6,8,10,12,14,-1,-1,-1,-1,-1,-1,-1,-1],"split_conditions":[8.397239E-2,-9.628108E-2,1E0,-3.7651766E-2,2.237603E-1,1.9979045E-2,4E0,-1.2170915E-2,5.014476E-2,-5.457472E-3,7.7012205E-3,-4.35889E-3,-6.9753245E-2,4.4070546E-2,-9.367363E-3],"split_indices":[24,16,29,23,17,23,29,0,0,0,0,0,0,0,0],"split_type":[0,0,0,0,0,0,0,0,0,0,0,0,0,0,0],"sum_hessian":[1.5278247E3,1.4289952E3,9.882942E1,2.9903885E1,1.3990914E3,1.4574088E1,8.425533E1,7.080497E0,2.282339E1,1.0318553E3,3.6723602E2,8.608127E0,5.965961E0,6.3345016E1,2.0910315E1],"tree_param":{"num_deleted":"0","num_feature":"36","num_nodes":"15","size_leaf_vector":"1"}},{"base_weights":[1.199008E-2,6.08239E-2,-1.8130358E-1,5.876007E-1,2.2242874E-2,-1.1008805E0,-8.364118E-2,7.250166E-3,5.169813E-2,-1.3281949E-3,1.587397E-2,-4.204961E-3,-6.806166E-2,7.600876E-2,-7.93102E-3],"categories":[],"categories_nodes":[],"categories_segments":[],"categories_sizes":[],"default_left":[0,0,0,0,0,0,0,0,0,0,0,0,0,0,0],"id":23,"left_children":[1,3,5,7,9,11,13,-1,-1,-1,-1,-1,-1,-1,-1],"loss_changes":[1.4368409E1,2.4608034E1,2.7170769E1,1.58755455E1,1.6448532E1,7.2498283E0,3.36509E1,0E0,0E0,0E0,0E0,0E0,0E0,0E0,0E0],"parents":[2147483647,0,0,1,1,2,2,3,3,4,4,5,5,6,6],"right_children":[2,4,6,8,10,12,14,-1,-1,-1,-1,-1,-1,-1,-1],"split_conditions":[4E0,-2.8028816E-2,-2.7808402E-2,-3.7189286E-2,5.7838943E-2,-6.9194965E-2,-5.6871198E-2,7.250166E-3,5.169813E-2,-1.3281949E-3,1.587397E-2,-4.204961E-3,-6.806166E-2,7.600876E-2,-7.93102E-3],"split_indices":[29,23,23,23,24,5,24,0,0,0,0,0,0,0,0],"split_type":[0,0,0,0,0,0,0,0,0,0,0,0,0,0,0],"sum_hessian":[1.5214958E3,1.2162775E3,3.0521838E2,8.119054E1,1.135087E3,2.762725E1,2.7759113E2,4.1990013E1,3.9200523E1,9.74651E2,1.6043597E2,6.1931677E0,2.1434084E1,1.0987504E1,2.666036E2],"tree_param":{"num_deleted":"0","num_feature":"36","num_nodes":"15","size_leaf_vector":"1"}},{"base_weights":[-8.396301E-3,9.176802E-1,-2.3224188E-2,1.10873E0,1.1102388E-2,-1.2530886E-1,9.96259E-2,2.5617821E-2,6.656932E-2,1.5650768E-2,-8.897461E-3,3.512837E-3,3.1514414E-2],"categories":[],"categories_nodes":[],"categories_segments":[],"categories_sizes":[],"default_left":[0,0,0,0,0,0,0,0,0,0,0,0,0],"id":24,"left_children":[1,3,5,7,-1,9,11,-1,-1,-1,-1,-1,-1],"loss_changes":[2.0957855E1,2.5601826E0,1.9015957E1,1.0331306E0,0E0,1.917641E1,1.0504145E1,0E0,0E0,0E0,0E0,0E0,0E0],"parents":[2147483647,0,0,1,1,2,2,3,3,5,5,6,6],"right_children":[2,4,6,8,-1,10,12,-1,-1,-1,-1,-1,-1],"split_conditions":[-4.3670762E-2,-3.963842E-3,4.4745597E-1,-4.8214093E-2,1.1102388E-2,-5.6871198E-2,2.051652E-1,2.5617821E-2,6.656932E-2,1.5650768E-2,-8.897461E-3,3.512837E-3,3.1514414E-2],"split_indices":[23,20,21,23,0,24,3,0,0,0,0,0,0],"split_type":[0,0,0,0,0,0,0,0,0,0,0,0,0],"sum_hessian":[1.5354321E3,2.2545261E1,1.5128868E3,1.676313E1,5.782131E0,8.271491E2,6.8573773E2,6.14744E0,1.0615689E1,8.748262E1,7.396665E2,6.517429E2,3.399481E1],"tree_param":{"num_deleted":"0","num_feature":"36","num_nodes":"13","size_leaf_vector":"1"}},{"base_weights":[8.907565E-3,1.0243976E0,-2.1369099E-3,6.2299814E-2,1.9876024E-2,-8.525011E-2,1.5041576E-1,1.0493131E-2,-9.5795905E-3,-2.8192043E-2,1.0380955E-2],"categories":[],"categories_nodes":[],"categories_segments":[],"categories_sizes":[],"default_left":[0,0,0,0,0,0,0,0,0,0,0],"id":25,"left_children":[1,3,5,-1,-1,7,9,-1,-1,-1,-1],"loss_changes":[1.7331842E1,1.2377911E0,1.9173168E1,0E0,0E0,3.0823221E1,2.1874588E1,0E0,0E0,0E0,0E0],"parents":[2147483647,0,0,1,1,2,2,5,5,6,6],"right_children":[2,4,6,-1,-1,8,10,-1,-1,-1,-1],"split_conditions":[-4.790104E-2,-4.879103E-2,7.3708957E-3,6.2299814E-2,1.9876024E-2,-2.963616E-2,-4.2187355E-2,1.0493131E-2,-9.5795905E-3,-2.8192043E-2,1.0380955E-2],"split_indices":[23,1,23,0,0,24,24,0,0,0,0],"split_type":[0,0,0,0,0,0,0,0,0,0,0],"sum_hessian":[1.5253177E3,1.51249695E1,1.5101927E3,9.844499E0,5.2804713E0,9.7886426E2,5.313285E2,2.584074E2,7.2045685E2,3.815338E1,4.9317514E2],"tree_param":{"num_deleted":"0","num_feature":"36","num_nodes":"11","size_leaf_vector":"1"}},{"base_weights":[7.0468066E-3,6.8873036E-1,-6.3003376E-3,9.026637E-1,-3.3832924E-3,-9.842717E-2,1.0367445E-1,2.0412771E-2,6.510044E-2,1.4218788E-2,-7.188397E-3,2.530607E-4,1.2640439E-2],"categories":[],"categories_nodes":[],"categories_segments":[],"categories_sizes":[],"default_left":[0,0,0,0,0,0,0,0,0,0,0,0,0],"id":26,"left_children":[1,3,5,7,-1,9,11,-1,-1,-1,-1,-1,-1],"loss_changes":[1.3877638E1,4.998307E0,1.5026853E1,3.4299908E0,0E0,1.4058447E1,9.876276E0,0E0,0E0,0E0,0E0,0E0,0E0],"parents":[2147483647,0,0,1,1,2,2,3,3,5,5,6,6],"right_children":[2,4,6,8,-1,10,12,-1,-1,-1,-1,-1,-1],"split_conditions":[-2.1635883E1,2.8553504E-1,4.563855E-1,-3.0909397E-2,-3.3832924E-3,-5.6871198E-2,4.2180687E-2,2.0412771E-2,6.510044E-2,1.4218788E-2,-7.188397E-3,2.530607E-4,1.2640439E-2],"split_indices":[12,19,21,2,0,24,13,0,0,0,0,0,0],"split_type":[0,0,0,0,0,0,0,0,0,0,0,0,0],"sum_hessian":[1.5080455E3,2.7790176E1,1.4802554E3,2.1643145E1,6.147031E0,8.0656494E2,6.7369037E2,1.124973E1,1.03934145E1,8.41113E1,7.224537E2,4.072761E2,2.6641428E2],"tree_param":{"num_deleted":"0","num_feature":"36","num_nodes":"13","size_leaf_vector":"1"}},{"base_weights":[6.567747E-3,-1.5763544E-2,4.1652521E-1,6.9310063E-1,-2.8068721E-2,7.4137706E-1,-3.733181E-2,4.587231E-2,4.1605933E-3,-3.3631732E-3,8.36778E-3,-2.1071125E-2,4.866492E-2,3.373143E-2,-1.70667E-2],"categories":[],"categories_nodes":[],"categories_segments":[],"categories_sizes":[],"default_left":[0,0,0,0,0,0,0,0,0,0,0,0,0,0,0],"id":27,"left_children":[1,3,5,7,9,11,13,-1,-1,-1,-1,-1,-1,-1,-1],"loss_changes":[1.4107713E1,1.2570767E1,1.1920485E1,3.0477562E0,1.0949981E1,1.33279705E1,7.720758E0,0E0,0E0,0E0,0E0,0E0,0E0,0E0,0E0],"parents":[2147483647,0,0,1,1,2,2,3,3,4,4,5,5,6,6],"right_children":[2,4,6,8,10,12,14,-1,-1,-1,-1,-1,-1,-1,-1],"split_conditions":[3.305564E-2,-4.3670762E-2,4.5461573E-2,1.2770579E0,2.6790974E-1,-2.1806184E-2,1.01470746E-1,4.587231E-2,4.1605933E-3,-3.3631732E-3,8.36778E-3,-2.1071125E-2,4.866492E-2,3.373143E-2,-1.70667E-2],"split_indices":[23,23,23,18,17,8,27,0,0,0,0,0,0,0,0],"split_type":[0,0,0,0,0,0,0,0,0,0,0,0,0,0,0],"sum_hessian":[1.5296736E3,1.4515585E3,7.8115135E1,2.3074316E1,1.4284841E3,4.5231056E1,3.2884083E1,1.6076336E1,6.9979796E0,1.1915178E3,2.3696635E2,7.174047E0,3.8057007E1,9.095702E0,2.3788382E1],"tree_param":{"num_deleted":"0","num_feature":"36","num_nodes":"15","size_leaf_vector":"1"}},{"base_weights":[7.0517003E-3,-1.8725349E-2,4.4035956E-1,-1.9983107E-5,-7.062E-1,7.5486267E-1,-3.299499E-2,-2.3590414E-2,1.2295049E-3,1.8149128E-2,-4.55126E-2,7.971958E-3,4.508428E-2,4.1785195E-2,-1.2271517E-2],"categories":[],"categories_nodes":[],"categories_segments":[],"categories_sizes":[],"default_left":[0,0,0,0,0,0,0,0,0,0,0,0,0,0,0],"id":28,"left_children":[1,3,5,7,9,11,13,-1,-1,-1,-1,-1,-1,-1,-1],"loss_changes":[1.7145372E1,1.8397877E1,1.3014576E1,1.6423069E1,8.874517E0,4.127434E0,6.7581396E0,0E0,0E0,0E0,0E0,0E0,0E0,0E0,0E0],"parents":[2147483647,0,0,1,1,2,2,3,3,4,4,5,5,6,6],"right_children":[2,4,6,8,10,12,14,-1,-1,-1,-1,-1,-1,-1,-1],"split_conditions":[3.2589667E-2,2.835964E-2,4.5461573E-2,1.5212918E-2,1.8061882E-2,-2.1806184E-2,2.865355E-1,-2.3590414E-2,1.2295049E-3,1.8149128E-2,-4.55126E-2,7.971958E-3,4.508428E-2,4.1785195E-2,-1.2271517E-2],"split_indices":[23,23,23,22,14,8,16,0,0,0,0,0,0,0,0],"split_type":[0,0,0,0,0,0,0,0,0,0,0,0,0,0,0],"sum_hessian":[1.5248738E3,1.440173E3,8.470083E1,1.403769E3,3.6403915E1,5.060719E1,3.409364E1,6.864663E1,1.3351224E3,5.489874E0,3.0914043E1,1.0898926E1,3.9708263E1,5.649429E0,2.844421E1],"tree_param":{"num_deleted":"0","num_feature":"36","num_nodes":"15","size_leaf_vector":"1"}},{"base_weights":[-1.612463E-2,-5.3977236E-2,2.328579E-1,-1.7161155E-2,-7.179126E-1,3.6343598E-1,-2.9943532E-1,-4.4827545E-3,8.071062E-3,-5.4762114E-2,-1.4802538E-2,-6.5970556E-3,2.7797138E-2,-3.4371544E-2,2.5105089E-2],"categories":[],"categories_nodes":[],"categories_segments":[],"categories_sizes":[],"default_left":[0,0,0,0,0,0,0,0,0,0,0,0,0,0,0],"id":29,"left_children":[1,3,5,7,9,11,13,-1,-1,-1,-1,-1,-1,-1,-1],"loss_changes":[1.4271849E1,3.2049763E1,1.4053601E1,1.6196863E1,1.0206158E1,1.5577799E1,1.2948343E1,0E0,0E0,0E0,0E0,0E0,0E0,0E0,0E0],"parents":[2147483647,0,0,1,1,2,2,3,3,4,4,5,5,6,6],"right_children":[2,4,6,8,10,12,14,-1,-1,-1,-1,-1,-1,-1,-1],"split_conditions":[5.9262604E-2,4.2058922E-2,4E0,4.4595767E-2,4.1348193E-2,1E0,9.636797E-2,-4.4827545E-3,8.071062E-3,-5.4762114E-2,-1.4802538E-2,-6.5970556E-3,2.7797138E-2,-3.4371544E-2,2.5105089E-2],"split_indices":[24,24,29,22,13,29,24,0,0,0,0,0,0,0,0],"split_type":[0,0,0,0,0,0,0,0,0,0,0,0,0,0,0],"sum_hessian":[1.5146084E3,1.316448E3,1.981604E2,1.2490278E3,6.742021E1,1.5980888E2,3.835152E1,8.897206E2,3.5930722E2,3.4074368E1,3.3345844E1,4.4564415E1,1.1524447E2,2.6154243E1,1.2197277E1],"tree_param":{"num_deleted":"0","num_feature":"36","num_nodes":"15","size_leaf_vector":"1"}},{"base_weights":[7.685068E-3,8.122764E-1,-4.3981317E-3,-0E0,1.054088E0,-7.485589E-1,9.611701E-3,6.347146E-2,2.029792E-2,-6.7892782E-3,-7.7244245E-2,2.5516678E-2,-1.4523723E-3],"categories":[],"categories_nodes":[],"categories_segments":[],"categories_sizes":[],"default_left":[0,0,0,0,0,0,0,0,0,0,0,0,0],"id":30,"left_children":[1,3,5,-1,7,9,11,-1,-1,-1,-1,-1,-1],"loss_changes":[1.4898194E1,4.4761314E0,1.5735131E1,0E0,1.3332005E0,1.2959089E1,2.85291E1,0E0,0E0,0E0,0E0,0E0,0E0],"parents":[2147483647,0,0,1,1,2,2,4,4,5,5,6,6],"right_children":[2,4,6,-1,8,10,12,-1,-1,-1,-1,-1,-1],"split_conditions":[-4.3670762E-2,3.3971992E1,-3.7189286E-2,-0E0,4.5151827E-3,-3.8763143E-2,-5.6871198E-2,6.347146E-2,2.029792E-2,-6.7892782E-3,-7.7244245E-2,2.5516678E-2,-1.4523723E-3],"split_indices":[23,9,23,0,2,23,24,0,0,0,0,0,0],"split_type":[0,0,0,0,0,0,0,0,0,0,0,0,0],"sum_hessian":[1.513744E3,2.1171936E1,1.492572E3,5.1803613E0,1.5991574E1,2.6390976E1,1.466181E3,1.0692502E1,5.2990723E0,1.6048542E1,1.0342435E1,1.0414493E2,1.3620361E3],"tree_param":{"num_deleted":"0","num_feature":"36","num_nodes":"13","size_leaf_vector":"1"}},{"base_weights":[1.8096364E-3,-3.8160775E-2,2.262748E-1,1.9199888E-1,-8.18166E-2,7.8431755E-1,8.545752E-2,4.207916E-3,4.768152E-2,-1.490537E-2,2.005897E-3,5.3947516E-2,6.8816687E-3,-1.1705217E-2,1.0280892E-2],"categories":[],"categories_nodes":[],"categories_segments":[],"categories_sizes":[],"default_left":[0,0,0,0,0,0,0,0,0,0,0,0,0,0,0],"id":31,"left_children":[1,3,5,7,9,11,13,-1,-1,-1,-1,-1,-1,-1,-1],"loss_changes":[1.3702466E1,1.2984759E1,1.7875664E1,1.6569752E1,2.8761448E1,8.3118515E0,7.224044E0,0E0,0E0,0E0,0E0,0E0,0E0,0E0,0E0],"parents":[2147483647,0,0,1,1,2,2,3,3,4,4,5,5,6,6],"right_children":[2,4,6,8,10,12,14,-1,-1,-1,-1,-1,-1,-1,-1],"split_conditions":[2.2392096E-1,-4.6192057E-2,1.5933804E-2,-4.9110945E-2,-4.17591E-3,2.6253948E-1,3.0078262E-2,4.207916E-3,4.768152E-2,-1.490537E-2,2.005897E-3,5.3947516E-2,6.8816687E-3,-1.1705217E-2,1.0280892E-2],"split_indices":[27,24,5,24,23,4,15,0,0,0,0,0,0,0,0],"split_type":[0,0,0,0,0,0,0,0,0,0,0,0,0,0,0],"sum_hessian":[1.5201165E3,1.2906458E3,2.2947072E2,2.0423128E2,1.0864146E3,4.4570007E1,1.8490073E2,1.8058965E2,2.3641624E1,3.9147626E2,6.9493823E2,2.9718279E1,1.48517275E1,4.9683224E1,1.352175E2],"tree_param":{"num_deleted":"0","num_feature":"36","num_nodes":"15","size_leaf_vector":"1"}},{"base_weights":[8.291718E-3,5.7452444E-2,-1.8648843E-1,3.319685E-1,-1.0173943E-2,-7.393262E-1,-4.1801687E-2,3.9462183E-2,5.9344927E-3,-3.986135E-3,1.6127987E-2,2.0639356E-2,-6.7362815E-2,5.988994E-2,-5.2519953E-3],"categories":[],"categories_nodes":[],"categories_segments":[],"categories_sizes":[],"default_left":[0,0,0,0,0,0,0,0,0,0,0,0,0,0,0],"id":32,"left_children":[1,3,5,7,9,11,13,-1,-1,-1,-1,-1,-1,-1,-1],"loss_changes":[1.4390624E1,2.2398207E1,2.4002209E1,2.29247E1,2.2342178E1,4.4720882E1,1.8917997E1,0E0,0E0,0E0,0E0,0E0,0E0,0E0,0E0],"parents":[2147483647,0,0,1,1,2,2,3,3,4,4,5,5,6,6],"right_children":[2,4,6,8,10,12,14,-1,-1,-1,-1,-1,-1,-1,-1],"split_conditions":[4E0,-3.219018E-2,-3.2078467E-2,1E0,5.7838943E-2,-5.6871198E-2,-2.8854152E-2,3.9462183E-2,5.9344927E-3,-3.986135E-3,1.6127987E-2,2.0639356E-2,-6.7362815E-2,5.988994E-2,-5.2519953E-3],"split_indices":[29,24,24,29,24,24,24,0,0,0,0,0,0,0,0],"split_type":[0,0,0,0,0,0,0,0,0,0,0,0,0,0,0],"sum_hessian":[1.5023701E3,1.201266E3,3.0110416E2,2.3686266E2,9.644033E2,6.089223E1,2.4021193E2,7.375068E1,1.6311197E2,7.991126E2,1.652907E2,2.1085238E1,3.980699E1,1.0199831E1,2.300121E2],"tree_param":{"num_deleted":"0","num_feature":"36","num_nodes":"15","size_leaf_vector":"1"}},{"base_weights":[1.1547232E-3,-2.9492635E-2,3.17711E-1,9.251896E-2,-1.1160099E-1,5.075263E-1,-1.0484843E-1,2.7259026E-2,-1.3581923E-3,4.6104427E-2,-6.3948142E-3,7.5699054E-3,3.640455E-2,3.0046612E-2,-1.6679833E-2],"categories":[],"categories_nodes":[],"categories_segments":[],"categories_sizes":[],"default_left":[0,0,0,0,0,0,0,0,0,0,0,0,0,0,0],"id":33,"left_children":[1,3,5,7,9,11,13,-1,-1,-1,-1,-1,-1,-1,-1],"loss_changes":[1.4790435E1,1.3884682E1,1.0958016E1,3.0278498E1,1.3981152E1,7.001234E0,7.1319904E0,0E0,0E0,0E0,0E0,0E0,0E0,0E0,0E0],"parents":[2147483647,0,0,1,1,2,2,3,3,4,4,5,5,6,6],"right_children":[2,4,6,8,10,12,14,-1,-1,-1,-1,-1,-1,-1,-1],"split_conditions":[1.2150696E-2,2E0,7.842343E-3,-3.219018E-2,-9.628108E-2,-4.2933486E-3,-8.058478E-3,2.7259026E-2,-1.3581923E-3,4.6104427E-2,-6.3948142E-3,7.5699054E-3,3.640455E-2,3.0046612E-2,-1.6679833E-2],"split_indices":[20,29,11,24,16,11,25,0,0,0,0,0,0,0,0],"split_type":[0,0,0,0,0,0,0,0,0,0,0,0,0,0,0],"sum_hessian":[1.5156432E3,1.3825228E3,1.3312035E2,5.55071E2,8.274519E2,9.197604E1,4.1144295E1,1.1530507E2,4.397659E2,1.1357197E1,8.160947E2,3.6491894E1,5.548415E1,9.259647E0,3.1884647E1],"tree_param":{"num_deleted":"0","num_feature":"36","num_nodes":"15","size_leaf_vector":"1"}},{"base_weights":[1.2159438E-2,5.98205E-2,-1.7524037E-1,5.619102E-1,2.4303565E-2,-7.896612E-1,-2.2149831E-2,1.5524613E-2,6.1814513E-2,-3.5923795E-4,2.3830583E-2,-7.19646E-2,-2.7831687E-2,9.048843E-3,-1.5507594E-2],"categories":[],"categories_nodes":[],"categories_segments":[],"categories_sizes":[],"default_left":[0,0,0,0,0,0,0,0,0,0,0,0,0,0,0],"id":34,"left_children":[1,3,5,7,9,11,13,-1,-1,-1,-1,-1,-1,-1,-1],"loss_changes":[1.3563843E1,2.149924E1,2.8746258E1,1.2631287E1,1.6265781E1,7.641548E0,1.46218E1,0E0,0E0,0E0,0E0,0E0,0E0,0E0,0E0],"parents":[2147483647,0,0,1,1,2,2,3,3,4,4,5,5,6,6],"right_children":[2,4,6,8,10,12,14,-1,-1,-1,-1,-1,-1,-1,-1],"split_conditions":[4E0,-2.8028816E-2,-1.9734731E-2,-3.0287877E-2,8.397239E-2,-3.2547206E-2,5.6276646E1,1.5524613E-2,6.1814513E-2,-3.5923795E-4,2.3830583E-2,-7.19646E-2,-2.7831687E-2,9.048843E-3,-1.5507594E-2],"split_indices":[29,23,23,23,24,23,10,0,0,0,0,0,0,0,0],"split_type":[0,0,0,0,0,0,0,0,0,0,0,0,0,0,0],"sum_hessian":[1.5179467E3,1.211832E3,3.0611465E2,7.821884E1,1.1336132E3,5.9554035E1,2.4656064E2,5.8788776E1,1.9430063E1,1.0607976E3,7.281554E1,1.3446123E1,4.6107914E1,1.445049E2,1.0205574E2],"tree_param":{"num_deleted":"0","num_feature":"36","num_nodes":"15","size_leaf_vector":"1"}},{"base_weights":[1.2194979E-2,-3.844208E-1,3.2128185E-2,-7.097917E-1,5.8167176E-3,-9.1796685E-3,1.7293696E-1,1.3997006E-2,-4.465596E-2,-1.947326E-2,2.2378616E-2,-2.406872E-3,1.4012816E-2,1.3489112E-2,-4.909528E-3],"categories":[],"categories_nodes":[],"categories_segments":[],"categories_sizes":[],"default_left":[0,0,0,0,0,0,0,0,0,0,0,0,0,0,0],"id":35,"left_children":[1,3,5,7,9,11,13,-1,-1,-1,-1,-1,-1,-1,-1],"loss_changes":[1.1953307E1,9.3273325E0,8.45586E0,7.7046013E0,6.2245045E0,1.2599079E1,8.727157E0,0E0,0E0,0E0,0E0,0E0,0E0,0E0,0E0],"parents":[2147483647,0,0,1,1,2,2,3,3,4,4,5,5,6,6],"right_children":[2,4,6,8,10,12,14,-1,-1,-1,-1,-1,-1,-1,-1],"split_conditions":[1.5212918E-2,8.0320185E-1,2.4151374E-1,-2.9788323E-2,1.6370296E-2,5.9262604E-2,4.2058922E-2,1.3997006E-2,-4.465596E-2,-1.947326E-2,2.2378616E-2,-2.406872E-3,1.4012816E-2,1.3489112E-2,-4.909528E-3],"split_indices":[22,18,17,25,15,24,24,0,0,0,0,0,0,0,0],"split_type":[0,0,0,0,0,0,0,0,0,0,0,0,0,0,0],"sum_hessian":[1.517031E3,7.080214E1,1.4462289E3,3.8219673E1,3.2582462E1,1.1181799E3,3.2804892E2,5.678993E0,3.254068E1,1.7050516E1,1.5531948E1,9.8724E2,1.3093991E2,2.4226006E2,8.578887E1],"tree_param":{"num_deleted":"0","num_feature":"36","num_nodes":"15","size_leaf_vector":"1"}},{"base_weights":[1.4553086E-3,7.153011E-1,-1.2456734E-2,1.9897866E-1,6.14367E-2,-3.3827055E-2,2.8337035E-1,4.0483348E-2,-1.871278E-2,3.8883046E-3,-5.6637884E-3,-3.815019E-2,2.4560323E-2],"categories":[],"categories_nodes":[],"categories_segments":[],"categories_sizes":[],"default_left":[0,0,0,0,0,0,0,0,0,0,0,0,0],"id":36,"left_children":[1,3,5,7,-1,9,11,-1,-1,-1,-1,-1,-1],"loss_changes":[1.5218004E1,7.114357E0,9.378238E0,6.349808E0,0E0,1.2350313E1,2.2222939E1,0E0,0E0,0E0,0E0,0E0,0E0],"parents":[2147483647,0,0,1,1,2,2,3,3,5,5,6,6],"right_children":[2,4,6,8,-1,10,12,-1,-1,-1,-1,-1,-1],"split_conditions":[-9.628108E-2,2E0,8.397239E-2,-1.180009E-2,6.14367E-2,2E0,1E0,4.0483348E-2,-1.871278E-2,3.8883046E-3,-5.6637884E-3,-3.815019E-2,2.4560323E-2],"split_indices":[16,29,24,8,0,29,29,0,0,0,0,0,0],"split_type":[0,0,0,0,0,0,0,0,0,0,0,0,0],"sum_hessian":[1.5153654E3,2.7797356E1,1.487568E3,1.5091638E1,1.2705719E1,1.3892166E3,9.835139E1,7.1764784E0,7.9151587E0,5.767008E2,8.125158E2,1.5474449E1,8.287694E1],"tree_param":{"num_deleted":"0","num_feature":"36","num_nodes":"13","size_leaf_vector":"1"}},{"base_weights":[5.3061447E-3,6.7842776E-1,-8.369977E-3,2.2939247E-1,6.054572E-2,-9.744624E-2,9.9422015E-2,4.634025E-2,-1.1101246E-2,-6.428414E-3,1.9538289E-2,1.30786095E-2,-6.0349674E-4],"categories":[],"categories_nodes":[],"categories_segments":[],"categories_sizes":[],"default_left":[0,0,0,0,0,0,0,0,0,0,0,0,0],"id":37,"left_children":[1,3,5,7,-1,9,11,-1,-1,-1,-1,-1,-1],"loss_changes":[1.3969898E1,6.5209265E0,1.4160583E1,6.2577343E0,0E0,1.2306919E1,1.2101328E1,0E0,0E0,0E0,0E0,0E0,0E0],"parents":[2147483647,0,0,1,1,2,2,3,3,5,5,6,6],"right_children":[2,4,6,8,-1,10,12,-1,-1,-1,-1,-1,-1],"split_conditions":[-2.1635883E1,1.3127919E-1,4.563855E-1,-4.597036E-2,6.054572E-2,5.8653526E-2,2E0,4.634025E-2,-1.1101246E-2,-6.428414E-3,1.9538289E-2,1.30786095E-2,-6.0349674E-4],"split_indices":[12,27,21,4,0,1,29,0,0,0,0,0,0],"split_type":[0,0,0,0,0,0,0,0,0,0,0,0,0],"sum_hessian":[1.5005455E3,2.8719538E1,1.4718259E3,1.6948769E1,1.1770769E1,8.0696893E2,6.64857E2,6.2131805E0,1.0735588E1,7.600337E2,4.6935204E1,2.7079562E2,3.940614E2],"tree_param":{"num_deleted":"0","num_feature":"36","num_nodes":"13","size_leaf_vector":"1"}},{"base_weights":[-6.251961E-3,5.4421353E-1,-1.76636E-2,1.3432342E-1,5.5258602E-2,1.1903032E-1,-5.5402875E-2,4.982586E-2,-1.562167E-2,1.759601E-2,-1.1523541E-2,-2.1047551E-2,-1.484983E-3],"categories":[],"categories_nodes":[],"categories_segments":[],"categories_sizes":[],"default_left":[0,0,0,0,0,0,0,0,0,0,0,0,0],"id":38,"left_children":[1,3,5,7,-1,9,11,-1,-1,-1,-1,-1,-1],"loss_changes":[9.478372E0,6.572283E0,7.7054543E0,8.158112E0,0E0,2.6404917E1,1.0913397E1,0E0,0E0,0E0,0E0,0E0,0E0],"parents":[2147483647,0,0,1,1,2,2,3,3,5,5,6,6],"right_children":[2,4,6,8,-1,10,12,-1,-1,-1,-1,-1,-1],"split_conditions":[-2.1635883E1,1.4661805E-1,-2.963616E-2,-4.8615724E-2,5.5258602E-2,3E0,-2.2653138E-2,4.982586E-2,-1.562167E-2,1.759601E-2,-1.1523541E-2,-2.1047551E-2,-1.484983E-3],"split_indices":[12,27,24,4,0,29,24,0,0,0,0,0,0],"split_type":[0,0,0,0,0,0,0,0,0,0,0,0,0],"sum_hessian":[1.5218524E3,2.9130259E1,1.4927222E3,1.8111773E1,1.1018486E1,3.211104E2,1.1716117E3,5.7045064E0,1.2407266E1,1.9304012E2,1.280703E2,7.4942406E1,1.0966693E3],"tree_param":{"num_deleted":"0","num_feature":"36","num_nodes":"13","size_leaf_vector":"1"}},{"base_weights":[-1.2625589E-2,-5.3529877E-2,2.0915218E-1,-1.6704846E-2,-3.1986836E-1,7.169155E-1,8.124064E-2,-6.1439495E-3,5.2877055E-3,-9.986167E-3,-5.5759396E-2,4.916648E-2,4.8394897E-3,8.283916E-3,-1.8762944E-2],"categories":[],"categories_nodes":[],"categories_segments":[],"categories_sizes":[],"default_left":[0,0,0,0,0,0,0,0,0,0,0,0,0,0,0],"id":39,"left_children":[1,3,5,7,9,11,13,-1,-1,-1,-1,-1,-1,-1,-1],"loss_changes":[1.3807094E1,1.2560111E1,1.5132443E1,1.4767729E1,1.4284944E1,7.4294834E0,7.419427E0,0E0,0E0,0E0,0E0,0E0,0E0,0E0,0E0],"parents":[2147483647,0,0,1,1,2,2,3,3,4,4,5,5,6,6],"right_children":[2,4,6,8,10,12,14,-1,-1,-1,-1,-1,-1,-1,-1],"split_conditions":[2.2392096E-1,6.317931E1,1.5933804E-2,3.2507992E-4,4.3467294E-2,2.6253948E-1,3.544721E-1,-6.1439495E-3,5.2877055E-3,-9.986167E-3,-5.5759396E-2,4.916648E-2,4.8394897E-3,8.283916E-3,-1.8762944E-2],"split_indices":[27,9,5,23,13,4,7,0,0,0,0,0,0,0,0],"split_type":[0,0,0,0,0,0,0,0,0,0,0,0,0,0,0],"sum_hessian":[1.5220824E3,1.2867892E3,2.3529329E2,1.1325441E3,1.5424509E2,4.564161E1,1.8965169E2,6.0747784E2,5.250662E2,1.358509E2,1.8394178E1,3.1085724E1,1.4555885E1,1.6122414E2,2.8427544E1],"tree_param":{"num_deleted":"0","num_feature":"36","num_nodes":"15","size_leaf_vector":"1"}},{"base_weights":[-1.0265978E-2,6.601646E-1,-2.0695062E-2,-9.777489E-4,8.6294144E-1,-1.3510309E-1,5.0030615E-2,5.7055067E-2,1.3244758E-2,-1.8779766E-3,-5.201713E-2,2.9582486E-2,1.1415909E-3],"categories":[],"categories_nodes":[],"categories_segments":[],"categories_sizes":[],"default_left":[0,0,0,0,0,0,0,0,0,0,0,0,0],"id":40,"left_children":[1,3,5,-1,7,9,11,-1,-1,-1,-1,-1,-1],"loss_changes":[1.0582406E1,3.3875856E0,1.222277E1,0E0,2.2774029E0,5.0699135E1,1.3578022E1,0E0,0E0,0E0,0E0,0E0,0E0],"parents":[2147483647,0,0,1,1,2,2,4,4,5,5,6,6],"right_children":[2,4,6,-1,8,10,12,-1,-1,-1,-1,-1,-1],"split_conditions":[-4.3670762E-2,3.3971992E1,-4.17591E-3,-9.777489E-4,2.2423856E-3,-5.5690934E-3,-2.7763643E-3,5.7055067E-2,1.3244758E-2,-1.8779766E-3,-5.201713E-2,2.9582486E-2,1.1415909E-3],"split_indices":[23,9,23,0,11,23,23,0,0,0,0,0,0],"split_type":[0,0,0,0,0,0,0,0,0,0,0,0,0],"sum_hessian":[1.5273677E3,2.1670313E1,1.5056974E3,5.064123E0,1.660619E1,5.757725E2,9.2992487E2,1.0176471E1,6.429719E0,5.213752E2,5.4397316E1,4.2625526E1,8.872994E2],"tree_param":{"num_deleted":"0","num_feature":"36","num_nodes":"13","size_leaf_vector":"1"}},{"base_weights":[2.7396074E-3,-8.438662E-2,1.0012963E-1,1.855672E-1,-1.7979722E-1,-3.8340852E-1,1.4264823E-1,1.576771E-2,-2.2613512E-2,-2.0716479E-2,8.715528E-4,7.599659E-3,-3.6811717E-2,2.0263378E-2,7.339941E-4],"categories":[],"categories_nodes":[],"categories_segments":[],"categories_sizes":[],"default_left":[0,0,0,0,0,0,0,0,0,0,0,0,0,0,0],"id":41,"left_children":[1,3,5,7,9,11,13,-1,-1,-1,-1,-1,-1,-1,-1],"loss_changes":[1.2806636E1,2.0534716E1,1.4704136E1,1.7396425E1,2.7334085E1,1.1184394E1,2.1998806E1,0E0,0E0,0E0,0E0,0E0,0E0,0E0,0E0],"parents":[2147483647,0,0,1,1,2,2,3,3,4,4,5,5,6,6],"right_children":[2,4,6,8,10,12,14,-1,-1,-1,-1,-1,-1,-1,-1],"split_conditions":[1.1168335E-3,-3.376009E-2,-3.9163243E-2,-4.396719E-3,-6.330829E-4,8.189296E-3,-2.8068005E-4,1.576771E-2,-2.2613512E-2,-2.0716479E-2,8.715528E-4,7.599659E-3,-3.6811717E-2,2.0263378E-2,7.339941E-4],"split_indices":[23,24,24,1,24,23,24,0,0,0,0,0,0,0,0],"split_type":[0,0,0,0,0,0,0,0,0,0,0,0,0,0,0],"sum_hessian":[1.5059219E3,7.938665E2,7.1205536E2,2.0639133E2,5.8747516E2,5.619977E1,6.558556E2,1.7238617E2,3.4005157E1,2.680677E2,3.194075E2,2.2437922E1,3.3761852E1,2.133012E2,4.4255438E2],"tree_param":{"num_deleted":"0","num_feature":"36","num_nodes":"15","size_leaf_vector":"1"}},{"base_weights":[-1.91719E-2,3.692325E-1,-3.58472E-2,5.497399E-1,-1.2841673E-1,-1.1412844E-1,5.297542E-2,3.4404416E-2,-1.3622249E-2,-3.113164E-2,7.5127534E-3,-7.512362E-3,2.2684634E-2,2.0796863E-2,2.0990975E-4],"categories":[],"categories_nodes":[],"categories_segments":[],"categories_sizes":[],"default_left":[0,0,0,0,0,0,0,0,0,0,0,0,0,0,0],"id":42,"left_children":[1,3,5,7,9,11,13,-1,-1,-1,-1,-1,-1,-1,-1],"loss_changes":[9.823422E0,5.793092E0,1.0194273E1,5.6365404E0,2.6481602E0,1.6025417E1,1.2044634E1,0E0,0E0,0E0,0E0,0E0,0E0,0E0,0E0],"parents":[2147483647,0,0,1,1,2,2,3,3,4,4,5,5,6,6],"right_children":[2,4,6,8,10,12,14,-1,-1,-1,-1,-1,-1,-1,-1],"split_conditions":[-2.4308681E-2,1.1436515E0,4.4745597E-1,2.6680645E1,1.2689056E0,5.8653526E-2,-3.782364E-3,3.4404416E-2,-1.3622249E-2,-3.113164E-2,7.5127534E-3,-7.512362E-3,2.2684634E-2,2.0796863E-2,2.0990975E-4],"split_indices":[16,18,21,10,18,1,0,0,0,0,0,0,0,0,0],"split_type":[0,0,0,0,0,0,0,0,0,0,0,0,0,0,0],"sum_hessian":[1.5224481E3,6.087307E1,1.4615751E3,4.4849964E1,1.6023106E1,7.7785736E2,6.837177E2,3.880772E1,6.042244E0,5.368497E0,1.065461E1,7.327056E2,4.515171E1,7.91742E1,6.045435E2],"tree_param":{"num_deleted":"0","num_feature":"36","num_nodes":"15","size_leaf_vector":"1"}},{"base_weights":[1.3200609E-3,-1.4578812E-1,4.5304872E-2,-2.5120208E-1,1.3110545E-1,1.2517333E-1,-7.361349E-2,2.3680756E-2,-1.4955901E-2,-9.235785E-3,1.9022664E-2,4.2377453E-2,5.41095E-3,-5.4704137E-3,1.7591504E-2],"categories":[],"categories_nodes":[],"categories_segments":[],"categories_sizes":[],"default_left":[0,0,0,0,0,0,0,0,0,0,0,0,0,0,0],"id":43,"left_children":[1,3,5,7,9,11,13,-1,-1,-1,-1,-1,-1,-1,-1],"loss_changes":[9.802828E0,1.0242264E1,1.113361E1,8.97696E0,7.745694E0,8.260261E0,7.165117E0,0E0,0E0,0E0,0E0,0E0,0E0,0E0,0E0],"parents":[2147483647,0,0,1,1,2,2,3,3,4,4,5,5,6,6],"right_children":[2,4,6,8,10,12,14,-1,-1,-1,-1,-1,-1,-1,-1],"split_conditions":[6.6191375E-1,5.479914E1,1.1108588E0,-6.0969945E-2,3.8468003E-2,-9.628108E-2,8E0,2.3680756E-2,-1.4955901E-2,-9.235785E-3,1.9022664E-2,4.2377453E-2,5.41095E-3,-5.4704137E-3,1.7591504E-2],"split_indices":[18,9,18,24,13,16,28,0,0,0,0,0,0,0,0],"split_type":[0,0,0,0,0,0,0,0,0,0,0,0,0,0,0],"sum_hessian":[1.5150721E3,3.4688586E2,1.1681863E3,2.5186267E2,9.502318E1,6.9979193E2,4.6839432E2,1.4532424E1,2.3733025E2,4.1741093E1,5.328209E1,1.4091954E1,6.8569995E2,4.3350558E2,3.4888733E1],"tree_param":{"num_deleted":"0","num_feature":"36","num_nodes":"15","size_leaf_vector":"1"}},{"base_weights":[5.840188E-3,4.0979433E-1,-1.2049474E-2,-4.16192E-1,6.1623037E-1,-9.373705E-2,8.352192E-2,1.846942E-2,-6.313482E-2,4.8644375E-2,1.0351999E-2,-6.1651934E-3,1.7732905E-2,1.1945355E-2,-1.1654523E-3],"categories":[],"categories_nodes":[],"categories_segments":[],"categories_sizes":[],"default_left":[0,0,0,0,0,0,0,0,0,0,0,0,0,0,0],"id":44,"left_children":[1,3,5,7,9,11,13,-1,-1,-1,-1,-1,-1,-1,-1],"loss_changes":[1.1059268E1,1.1492114E1,1.1372308E1,9.975347E0,7.1568184E0,1.0443408E1,1.1175839E1,0E0,0E0,0E0,0E0,0E0,0E0,0E0,0E0],"parents":[2147483647,0,0,1,1,2,2,3,3,4,4,5,5,6,6],"right_children":[2,4,6,8,10,12,14,-1,-1,-1,-1,-1,-1,-1,-1],"split_conditions":[-2.4308681E-2,-3.7189286E-2,4.6084285E-1,-4.0635098E-2,-1.4402747E-2,5.9924692E-2,2E0,1.846942E-2,-6.313482E-2,4.8644375E-2,1.0351999E-2,-6.1651934E-3,1.7732905E-2,1.1945355E-2,-1.1654523E-3],"split_indices":[16,23,21,23,23,1,29,0,0,0,0,0,0,0,0],"split_type":[0,0,0,0,0,0,0,0,0,0,0,0,0,0,0],"sum_hessian":[1.5168223E3,6.340636E1,1.4534159E3,1.2179825E1,5.1226536E1,7.847712E2,6.686447E2,6.633203E0,5.546622E0,2.6004995E1,2.522154E1,7.3766376E2,4.710741E1,2.7242352E2,3.962212E2],"tree_param":{"num_deleted":"0","num_feature":"36","num_nodes":"15","size_leaf_vector":"1"}},{"base_weights":[4.2411867E-3,3.9101392E-1,-1.1340439E-2,-0E0,7.090049E-1,-4.981874E-2,1.6473016E-1,1.7063124E-2,-2.5602827E-2,4.501307E-2,-8.936561E-3,-1.1780978E-3,-2.1490611E-2,3.0000383E-2,1.0277777E-3],"categories":[],"categories_nodes":[],"categories_segments":[],"categories_sizes":[],"default_left":[0,0,0,0,0,0,0,0,0,0,0,0,0,0,0],"id":45,"left_children":[1,3,5,7,9,11,13,-1,-1,-1,-1,-1,-1,-1,-1],"loss_changes":[9.255527E0,7.461051E0,9.908487E0,5.1793075E0,5.977421E0,1.1903027E1,1.6299212E1,0E0,0E0,0E0,0E0,0E0,0E0,0E0,0E0],"parents":[2147483647,0,0,1,1,2,2,3,3,4,4,5,5,6,6],"right_children":[2,4,6,8,10,12,14,-1,-1,-1,-1,-1,-1,-1,-1],"split_conditions":[-1.464931E1,-2.9201163E-2,1.803931E-2,-4.6621636E-2,5.897194E-1,1.3556261E-2,2.2186846E-2,1.7063124E-2,-2.5602827E-2,4.501307E-2,-8.936561E-3,-1.1780978E-3,-2.1490611E-2,3.0000383E-2,1.0277777E-3],"split_indices":[12,5,23,5,21,23,23,0,0,0,0,0,0,0,0],"split_type":[0,0,0,0,0,0,0,0,0,0,0,0,0,0,0],"sum_hessian":[1.5205887E3,5.7983955E1,1.4626047E3,2.6549677E1,3.1434278E1,1.2021086E3,2.6049615E2,1.612482E1,1.0424855E1,2.603035E1,5.4039283E0,1.1263962E3,7.571237E1,6.3289413E1,1.9720676E2],"tree_param":{"num_deleted":"0","num_feature":"36","num_nodes":"15","size_leaf_vector":"1"}},{"base_weights":[1.2975593E-2,-5.332519E-2,1.4046438E-1,1.8752359E-1,-1.4259405E-1,7.951308E-1,7.531308E-2,1.913106E-2,-2.0287968E-2,-5.686435E-2,-5.839811E-3,5.83371E-2,-5.875807E-3,-3.317629E-2,6.619477E-3],"categories":[],"categories_nodes":[],"categories_segments":[],"categories_sizes":[],"default_left":[0,0,0,0,0,0,0,0,0,0,0,0,0,0,0],"id":46,"left_children":[1,3,5,7,9,11,13,-1,-1,-1,-1,-1,-1,-1,-1],"loss_changes":[1.2827373E1,2.1449453E1,2.1893368E1,3.1413849E1,1.8237797E1,1.621456E1,2.0031181E1,0E0,0E0,0E0,0E0,0E0,0E0,0E0,0E0],"parents":[2147483647,0,0,1,1,2,2,3,3,4,4,5,5,6,6],"right_children":[2,4,6,8,10,12,14,-1,-1,-1,-1,-1,-1,-1,-1],"split_conditions":[7.3708957E-3,-2.963616E-2,8.359322E-3,4E0,-2.7750531E-2,2E0,-4.2187355E-2,1.913106E-2,-2.0287968E-2,-5.686435E-2,-5.839811E-3,5.83371E-2,-5.875807E-3,-3.317629E-2,6.619477E-3],"split_indices":[23,24,23,29,24,29,24,0,0,0,0,0,0,0,0],"split_type":[0,0,0,0,0,0,0,0,0,0,0,0,0,0,0],"sum_hessian":[1.512673E3,9.946877E2,5.1798535E2,2.6792648E2,7.267612E2,4.5084267E1,4.729011E2,2.022782E2,6.564827E1,1.654266E1,7.1021857E2,3.1897696E1,1.3186571E1,3.251834E1,4.4038275E2],"tree_param":{"num_deleted":"0","num_feature":"36","num_nodes":"15","size_leaf_vector":"1"}},{"base_weights":[4.4258726E-3,2.5660634E-1,-2.0575391E-2,8.292045E-1,1.1731121E-1,-4.443969E-2,2.7217212E-1,7.6378207E-3,5.128295E-2,-2.3532231E-4,2.9451087E-2,-4.369387E-3,8.7355375E-3,2.769866E-2,-5.833782E-3],"categories":[],"categories_nodes":[],"categories_segments":[],"categories_sizes":[],"default_left":[0,0,0,0,0,0,0,0,0,0,0,0,0,0,0],"id":47,"left_children":[1,3,5,7,9,11,13,-1,-1,-1,-1,-1,-1,-1,-1],"loss_changes":[9.492711E0,1.05001E1,9.491543E0,2.9915485E0,6.5268626E0,1.1881178E1,1.1391848E1,0E0,0E0,0E0,0E0,0E0,0E0,0E0,0E0],"parents":[2147483647,0,0,1,1,2,2,3,3,4,4,5,5,6,6],"right_children":[2,4,6,8,10,12,14,-1,-1,-1,-1,-1,-1,-1,-1],"split_conditions":[-7.192405E0,-1.4053985E-1,8.397239E-2,-3.7189286E-2,2.0064507E-1,1.823506E-2,1.9877402E-2,7.6378207E-3,5.128295E-2,-2.3532231E-4,2.9451087E-2,-4.369387E-3,8.7355375E-3,2.769866E-2,-5.833782E-3],"split_indices":[12,26,24,23,4,23,23,0,0,0,0,0,0,0,0],"split_type":[0,0,0,0,0,0,0,0,0,0,0,0,0,0,0],"sum_hessian":[1.4953817E3,1.3434877E2,1.361033E3,2.455321E1,1.09795555E2,1.2602545E3,1.0077841E2,6.355125E0,1.8198084E1,8.8074356E1,2.1721203E1,1.0552635E3,2.0499101E2,5.8361046E1,4.2417362E1],"tree_param":{"num_deleted":"0","num_feature":"36","num_nodes":"15","size_leaf_vector":"1"}},{"base_weights":[7.042294E-3,-1.0962907E-2,3.548349E-1,8.043713E-3,-5.765016E-1,5.394041E-1,-2.979834E-1,-1.1324624E-3,1.4109685E-2,-6.3971677E-3,-5.238962E-2,3.6178704E-2,-0E0,2.0419754E-2,-3.626659E-2],"categories":[],"categories_nodes":[],"categories_segments":[],"categories_sizes":[],"default_left":[0,0,0,0,0,0,0,0,0,0,0,0,0,0,0],"id":48,"left_children":[1,3,5,7,9,11,13,-1,-1,-1,-1,-1,-1,-1,-1],"loss_changes":[9.478771E0,1.5478286E1,9.267246E0,1.1702368E1,9.461371E0,5.713665E0,5.6849213E0,0E0,0E0,0E0,0E0,0E0,0E0,0E0,0E0],"parents":[2147483647,0,0,1,1,2,2,3,3,4,4,5,5,6,6],"right_children":[2,4,6,8,10,12,14,-1,-1,-1,-1,-1,-1,-1,-1],"split_conditions":[3.305564E-2,2.835964E-2,2.4543598E0,1.823506E-2,6.118642E1,7.1084246E-2,4.5337673E-2,-1.1324624E-3,1.4109685E-2,-6.3971677E-3,-5.238962E-2,3.6178704E-2,-0E0,2.0419754E-2,-3.626659E-2],"split_indices":[23,23,19,23,10,1,23,0,0,0,0,0,0,0,0],"split_type":[0,0,0,0,0,0,0,0,0,0,0,0,0,0,0],"sum_hessian":[1.5002644E3,1.4272532E3,7.301115E1,1.3819342E3,4.5319016E1,5.73607E1,1.5650445E1,1.2433763E3,1.385579E2,2.4414099E1,2.0904915E1,4.212368E1,1.523702E1,5.7479653E0,9.902479E0],"tree_param":{"num_deleted":"0","num_feature":"36","num_nodes":"15","size_leaf_vector":"1"}},{"base_weights":[-4.8008114E-3,3.482674E-2,-1.6673063E-1,4.626043E-1,4.480397E-3,-6.7290866E-1,-1.951793E-2,6.604669E-4,4.5957454E-2,-4.804805E-3,4.8712394E-3,-1.3210146E-3,-4.390106E-2,7.23202E-2,-3.5501686E-3],"categories":[],"categories_nodes":[],"categories_segments":[],"categories_sizes":[],"default_left":[0,0,0,0,0,0,0,0,0,0,0,0,0,0,0],"id":49,"left_children":[1,3,5,7,9,11,13,-1,-1,-1,-1,-1,-1,-1,-1],"loss_changes":[9.781221E0,1.57469015E1,2.2186363E1,1.628943E1,1.0685733E1,8.696548E0,1.7551353E1,0E0,0E0,0E0,0E0,0E0,0E0,0E0,0E0],"parents":[2147483647,0,0,1,1,2,2,3,3,4,4,5,5,6,6],"right_children":[2,4,6,8,10,12,14,-1,-1,-1,-1,-1,-1,-1,-1],"split_conditions":[4E0,-2.8028816E-2,-1.9154377E-2,-3.7189286E-2,3.76853E-2,1.8401781E-2,-1.8404894E-2,6.604669E-4,4.5957454E-2,-4.804805E-3,4.8712394E-3,-1.3210146E-3,-4.390106E-2,7.23202E-2,-3.5501686E-3],"split_indices":[29,23,23,23,13,14,23,0,0,0,0,0,0,0,0],"split_type":[0,0,0,0,0,0,0,0,0,0,0,0,0,0,0],"sum_hessian":[1.5173264E3,1.2189634E3,2.9836307E2,7.889284E1,1.1400704E3,6.570998E1,2.326531E2,4.0756287E1,3.8136547E1,5.4649615E2,5.9357434E2,1.6469261E1,4.9240715E1,6.3831697E0,2.2626993E2],"tree_param":{"num_deleted":"0","num_feature":"36","num_nodes":"15","size_leaf_vector":"1"}},{"base_weights":[-7.8697745E-3,2.0049131E-1,-3.8843688E-2,4.059952E-1,-1.9270009E-1,-1.2251624E-1,4.8390146E-2,9.659883E-3,3.1577684E-2,4.19692E-2,-2.1763146E-2,-2.3658441E-2,-3.9542234E-3,-3.0953507E-4,1.6644645E-2],"categories":[],"categories_nodes":[],"categories_segments":[],"categories_sizes":[],"default_left":[0,0,0,0,0,0,0,0,0,0,0,0,0,0,0],"id":50,"left_children":[1,3,5,7,9,11,13,-1,-1,-1,-1,-1,-1,-1,-1],"loss_changes":[9.65139E0,1.5783971E1,9.562204E0,5.78648E0,1.7253998E1,1.0016049E1,1.0001846E1,0E0,0E0,0E0,0E0,0E0,0E0,0E0,0E0],"parents":[2147483647,0,0,1,1,2,2,3,3,4,4,5,5,6,6],"right_children":[2,4,6,8,10,12,14,-1,-1,-1,-1,-1,-1,-1,-1],"split_conditions":[-4.493275E-2,3E0,4.4745597E-1,-2.9788323E-2,2.0051604E-2,-6.719853E-2,8.65447E-3,9.659883E-3,3.1577684E-2,4.19692E-2,-2.1763146E-2,-2.3658441E-2,-3.9542234E-3,-3.0953507E-4,1.6644645E-2],"split_indices":[5,29,21,25,15,3,20,0,0,0,0,0,0,0,0],"split_type":[0,0,0,0,0,0,0,0,0,0,0,0,0,0,0],"sum_hessian":[1.4971674E3,1.918602E2,1.3053073E3,1.2630562E2,6.555458E1,6.6711395E2,6.381933E2,6.6880424E1,5.942519E1,1.1615666E1,5.393891E1,7.137897E1,5.95735E2,5.3610736E2,1.0208592E2],"tree_param":{"num_deleted":"0","num_feature":"36","num_nodes":"15","size_leaf_vector":"1"}},{"base_weights":[-0E0,8.042853E-1,-8.499455E-3,2.4565745E-3,5.6470044E-2,-4.133819E-2,1.740673E-1,-1.7045898E-3,-4.7501013E-2,1.2406505E-2,-2.3725955E-2],"categories":[],"categories_nodes":[],"categories_segments":[],"categories_sizes":[],"default_left":[0,0,0,0,0,0,0,0,0,0,0],"id":51,"left_children":[1,3,5,-1,-1,7,9,-1,-1,-1,-1],"loss_changes":[1.0309645E1,3.5534134E0,8.845711E0,0E0,0E0,8.017591E0,1.0924738E1,0E0,0E0,0E0,0E0],"parents":[2147483647,0,0,1,1,2,2,5,5,6,6],"right_children":[2,4,6,-1,-1,8,10,-1,-1,-1,-1],"split_conditions":[-4.790104E-2,5.2045677E-2,2.2392096E-1,2.4565745E-3,5.6470044E-2,8.353423E-2,3.7715578E-1,-1.7045898E-3,-4.7501013E-2,1.2406505E-2,-2.3725955E-2],"split_indices":[23,22,27,0,0,0,7,0,0,0,0],"split_type":[0,0,0,0,0,0,0,0,0,0,0],"sum_hessian":[1.4908503E3,1.42725525E1,1.4765778E3,5.000234E0,9.272319E0,1.2533843E3,2.231935E2,1.2452305E3,8.153863E0,2.0142685E2,2.1766642E1],"tree_param":{"num_deleted":"0","num_feature":"36","num_nodes":"11","size_leaf_vector":"1"}},{"base_weights":[7.4902846E-4,5.0162435E-1,-9.956221E-3,-7.7729425E-3,7.282005E-1,-8.196978E-2,6.721679E-2,-0E0,4.6630424E-2,-5.1297022E-5,-1.1665996E-2,1.8087333E-2,1.0180459E-3],"categories":[],"categories_nodes":[],"categories_segments":[],"categories_sizes":[],"default_left":[0,0,0,0,0,0,0,0,0,0,0,0,0],"id":52,"left_children":[1,3,5,-1,7,9,11,-1,-1,-1,-1,-1,-1],"loss_changes":[8.160621E0,5.0269012E0,8.191007E0,0E0,3.6268864E0,9.304966E0,9.710241E0,0E0,0E0,0E0,0E0,0E0,0E0],"parents":[2147483647,0,0,1,1,2,2,4,4,5,5,6,6],"right_children":[2,4,6,-1,8,10,12,-1,-1,-1,-1,-1,-1],"split_conditions":[-2.1635883E1,1.8880377E-2,4.2368355E-1,-7.7729425E-3,-4.3577938E1,-6.5336702E-3,-3.782364E-3,-0E0,4.6630424E-2,-5.1297022E-5,-1.1665996E-2,1.8087333E-2,1.0180459E-3],"split_indices":[12,15,21,0,12,0,0,0,0,0,0,0,0],"split_type":[0,0,0,0,0,0,0,0,0,0,0,0,0],"sum_hessian":[1.5007013E3,3.035495E1,1.4703463E3,7.6776004E0,2.267735E1,7.618907E2,7.084556E2,5.2668667E0,1.7410482E1,4.982515E2,2.6363916E2,9.526751E1,6.131881E2],"tree_param":{"num_deleted":"0","num_feature":"36","num_nodes":"13","size_leaf_vector":"1"}},{"base_weights":[-3.1873519E-3,-2.0934697E-2,2.501962E-1,8.073825E-3,-2.4236941E-1,-7.021473E-1,4.2166054E-1,-2.66227E-3,8.18134E-3,-3.9631143E-2,1.3551684E-3,-5.84E-2,7.876272E-3,3.2239277E-2,-5.173595E-3],"categories":[],"categories_nodes":[],"categories_segments":[],"categories_sizes":[],"default_left":[0,0,0,0,0,0,0,0,0,0,0,0,0,0,0],"id":53,"left_children":[1,3,5,7,9,11,13,-1,-1,-1,-1,-1,-1,-1,-1],"loss_changes":[6.7891164E0,9.177149E0,1.6513794E1,1.2024909E1,2.4715282E1,6.6663647E0,1.0144559E1,0E0,0E0,0E0,0E0,0E0,0E0,0E0,0E0],"parents":[2147483647,0,0,1,1,2,2,3,3,4,4,5,5,6,6],"right_children":[2,4,6,8,10,12,14,-1,-1,-1,-1,-1,-1,-1,-1],"split_conditions":[8.397239E-2,4.2058922E-2,1E0,4.4595767E-2,5.580277E-2,7.397079E-1,4E0,-2.66227E-3,8.18134E-3,-3.9631143E-2,1.3551684E-3,-5.84E-2,7.876272E-3,3.2239277E-2,-5.173595E-3],"split_indices":[24,24,29,22,24,21,29,0,0,0,0,0,0,0,0],"split_type":[0,0,0,0,0,0,0,0,0,0,0,0,0,0,0],"sum_hessian":[1.5166868E3,1.4194331E3,9.725374E1,1.2555012E3,1.6393182E2,1.3952139E1,8.33016E1,9.003017E2,3.5519955E2,5.3176826E1,1.10755E2,8.850666E0,5.101474E0,5.8489082E1,2.4812515E1],"tree_param":{"num_deleted":"0","num_feature":"36","num_nodes":"15","size_leaf_vector":"1"}},{"base_weights":[-1.44215105E-2,3.7388373E-2,-1.2350566E-1,-2.9034037E-3,3.6854166E-1,-1.8325365E-1,2.2898567E-1,-1.9192046E-3,1.6283186E-2,-6.1233602E-3,2.788513E-2,-6.6529736E-3,-2.344891E-2,2.893146E-2,-7.4513885E-3],"categories":[],"categories_nodes":[],"categories_segments":[],"categories_sizes":[],"default_left":[0,0,0,0,0,0,0,0,0,0,0,0,0,0,0],"id":54,"left_children":[1,3,5,7,9,11,13,-1,-1,-1,-1,-1,-1,-1,-1],"loss_changes":[8.487443E0,1.3620175E1,1.0243011E1,1.052348E1,1.0468587E1,5.7378206E0,9.507052E0,0E0,0E0,0E0,0E0,0E0,0E0,0E0,0E0],"parents":[2147483647,0,0,1,1,2,2,3,3,4,4,5,5,6,6],"right_children":[2,4,6,8,10,12,14,-1,-1,-1,-1,-1,-1,-1,-1],"split_conditions":[1.0913686E0,9.49651E-3,2.3482254E0,3.120559E-1,2.4861827E-1,1.179269E0,7.13225E-2,-1.9192046E-3,1.6283186E-2,-6.1233602E-3,2.788513E-2,-6.6529736E-3,-2.344891E-2,2.893146E-2,-7.4513885E-3],"split_indices":[18,20,19,17,21,19,22,0,0,0,0,0,0,0,0],"split_type":[0,0,0,0,0,0,0,0,0,0,0,0,0,0,0],"sum_hessian":[1.4959941E3,1.0136908E3,4.823034E2,9.045198E2,1.0917099E2,4.1350162E2,6.8801796E1,8.181089E2,8.641093E1,3.0214407E1,7.895658E1,3.5418015E2,5.9321484E1,3.5603424E1,3.3198368E1],"tree_param":{"num_deleted":"0","num_feature":"36","num_nodes":"15","size_leaf_vector":"1"}},{"base_weights":[-1.7044785E-2,7.472383E-1,-2.4931986E-2,1.3873219E-2,4.9118146E-2,-5.462388E-1,-1.2380558E-2,-3.7207005E-3,-7.230394E-2,1.561514E-2,-1.617887E-3],"categories":[],"categories_nodes":[],"categories_segments":[],"categories_sizes":[],"default_left":[0,0,0,0,0,0,0,0,0,0,0],"id":55,"left_children":[1,3,5,-1,-1,7,9,-1,-1,-1,-1],"loss_changes":[8.947096E0,1.012291E0,9.626923E0,0E0,0E0,1.4232939E1,9.4083805E0,0E0,0E0,0E0,0E0],"parents":[2147483647,0,0,1,1,2,2,5,5,6,6],"right_children":[2,4,6,-1,-1,8,10,-1,-1,-1,-1],"split_conditions":[-4.790104E-2,-5.808252E-2,-3.7189286E-2,1.3873219E-2,4.9118146E-2,-3.8763143E-2,1.2455909E1,-3.7207005E-3,-7.230394E-2,1.561514E-2,-1.617887E-3],"split_indices":[23,2,23,0,0,23,10,0,0,0,0],"split_type":[0,0,0,0,0,0,0,0,0,0,0],"sum_hessian":[1.5020718E3,1.3647398E1,1.4884244E3,5.9267006E0,7.720697E0,3.3119877E1,1.4553046E3,2.2938528E1,1.0181349E1,8.24997E1,1.3728048E3],"tree_param":{"num_deleted":"0","num_feature":"36","num_nodes":"11","size_leaf_vector":"1"}},{"base_weights":[4.5383796E-3,-6.4951904E-2,7.372036E-2,7.938311E-2,-1.8094097E-1,3.8601834E-1,3.005619E-2,5.7505025E-3,-3.3605542E-2,-1.3777214E-2,3.6313664E-3,8.65743E-3,4.803719E-2,-2.9269233E-2,2.96569E-3],"categories":[],"categories_nodes":[],"categories_segments":[],"categories_sizes":[],"default_left":[0,0,0,0,0,0,0,0,0,0,0,0,0,0,0],"id":56,"left_children":[1,3,5,7,9,11,13,-1,-1,-1,-1,-1,-1,-1,-1],"loss_changes":[7.2006383E0,1.2525213E1,1.0150808E1,8.906943E0,1.0017485E1,1.072145E1,1.1862557E1,0E0,0E0,0E0,0E0,0E0,0E0,0E0,0E0],"parents":[2147483647,0,0,1,1,2,2,3,3,4,4,5,5,6,6],"right_children":[2,4,6,8,10,12,14,-1,-1,-1,-1,-1,-1,-1,-1],"split_conditions":[3.2507992E-4,-1.4776165E0,2.6016708E-3,-4.7830385E-4,-5.0775573E-2,1.624415E-3,3.3618738E-3,5.7505025E-3,-3.3605542E-2,-1.3777214E-2,3.6313664E-3,8.65743E-3,4.803719E-2,-2.9269233E-2,2.96569E-3],"split_indices":[23,12,23,23,26,23,23,0,0,0,0,0,0,0,0],"split_type":[0,0,0,0,0,0,0,0,0,0,0,0,0,0,0],"sum_hessian":[1.4944417E3,7.441631E2,7.5027856E2,3.310093E2,4.1315378E2,9.002856E1,6.6025E2,3.1749405E2,1.351523E1,3.013736E2,1.11780174E2,6.73741E1,2.265446E1,2.8359224E1,6.318908E2],"tree_param":{"num_deleted":"0","num_feature":"36","num_nodes":"15","size_leaf_vector":"1"}},{"base_weights":[1.47814555E-2,1.811227E-1,-2.8321987E-2,-4.5674658E-1,2.4963696E-1,-4.0258998E-1,-6.268777E-3,-7.508748E-4,-7.623483E-2,2.740072E-2,7.9449E-3,-3.3043183E-2,1.2401724E-3,9.542388E-3,-2.7463208E-3],"categories":[],"categories_nodes":[],"categories_segments":[],"categories_sizes":[],"default_left":[0,0,0,0,0,0,0,0,0,0,0,0,0,0,0],"id":57,"left_children":[1,3,5,7,9,11,13,-1,-1,-1,-1,-1,-1,-1,-1],"loss_changes":[1.0812454E1,1.3695593E1,9.767766E0,1.3977407E1,7.3510113E0,7.4261227E0,1.0820784E1,0E0,0E0,0E0,0E0,0E0,0E0,0E0,0E0],"parents":[2147483647,0,0,1,1,2,2,3,3,4,4,5,5,6,6],"right_children":[2,4,6,8,10,12,14,-1,-1,-1,-1,-1,-1,-1,-1],"split_conditions":[-4.3095775E-2,-3.7189286E-2,1.5212918E-2,-3.8763143E-2,1.2455909E1,8.4997666E-1,-6.7524916E-1,-7.508748E-4,-7.623483E-2,2.740072E-2,7.9449E-3,-3.3043183E-2,1.2401724E-3,9.542388E-3,-2.7463208E-3],"split_indices":[2,23,22,23,10,18,19,0,0,0,0,0,0,0,0],"split_type":[0,0,0,0,0,0,0,0,0,0,0,0,0,0,0],"sum_hessian":[1.5012029E3,3.0891205E2,1.1922909E3,2.8854769E1,2.8005728E2,6.439988E1,1.127891E3,2.1620424E1,7.234345E0,6.3030487E1,2.1702678E2,3.992299E1,2.4476889E1,2.2161493E2,9.0627606E2],"tree_param":{"num_deleted":"0","num_feature":"36","num_nodes":"15","size_leaf_vector":"1"}},{"base_weights":[4.3870904E-3,-1.04430495E-2,2.9098356E-1,5.2186325E-2,-8.14416E-2,-4.8187917E-1,4.4468567E-1,9.606853E-4,2.4780616E-2,1.1119269E-3,-9.013553E-3,1.1595621E-2,-5.5829164E-2,2.784397E-2,-2.8336404E-2],"categories":[],"categories_nodes":[],"categories_segments":[],"categories_sizes":[],"default_left":[0,0,0,0,0,0,0,0,0,0,0,0,0,0,0],"id":58,"left_children":[1,3,5,7,9,11,13,-1,-1,-1,-1,-1,-1,-1,-1],"loss_changes":[6.3771305E0,6.298826E0,9.0846615E0,1.0857086E1,6.8486667E0,6.342493E0,7.572793E0,0E0,0E0,0E0,0E0,0E0,0E0,0E0,0E0],"parents":[2147483647,0,0,1,1,2,2,3,3,4,4,5,5,6,6],"right_children":[2,4,6,8,10,12,14,-1,-1,-1,-1,-1,-1,-1,-1],"split_conditions":[8E0,-1.477817E-3,1.5279292E-2,4.682911E-2,4.1125566E-3,1.4690581E-2,9.024679E1,9.606853E-4,2.4780616E-2,1.1119269E-3,-9.013553E-3,1.1595621E-2,-5.5829164E-2,2.784397E-2,-2.8336404E-2],"split_indices":[28,25,14,1,4,1,9,0,0,0,0,0,0,0,0],"split_type":[0,0,0,0,0,0,0,0,0,0,0,0,0,0,0],"sum_hessian":[1.484634E3,1.412301E3,7.233303E1,7.4909155E2,6.632095E2,1.1251749E1,6.1081284E1,6.991217E2,4.9969814E1,3.2324152E2,3.3996793E2,5.595657E0,5.6560926E0,5.576703E1,5.314253E0],"tree_param":{"num_deleted":"0","num_feature":"36","num_nodes":"15","size_leaf_vector":"1"}},{"base_weights":[-4.1060606E-3,-3.573062E-2,1.8858008E-1,1.8569598E-2,-1.9353698E-1,2.838826E-1,-4.4127437E-1,-1.2879623E-3,1.4293089E-2,2.6604612E-3,-1.856172E-2,4.8887733E-2,1.0461372E-2,-3.3000376E-2,6.7900987E-3],"categories":[],"categories_nodes":[],"categories_segments":[],"categories_sizes":[],"default_left":[0,0,0,0,0,0,0,0,0,0,0,0,0,0,0],"id":59,"left_children":[1,3,5,7,9,11,13,-1,-1,-1,-1,-1,-1,-1,-1],"loss_changes":[9.075513E0,1.104638E1,1.2749864E1,1.1390714E1,1.4557585E1,8.95677E0,3.7589216E0,0E0,0E0,0E0,0E0,0E0,0E0,0E0,0E0],"parents":[2147483647,0,0,1,1,2,2,3,3,4,4,5,5,6,6],"right_children":[2,4,6,8,10,12,14,-1,-1,-1,-1,-1,-1,-1,-1],"split_conditions":[1.0101844E-1,5.971746E1,8.1353456E-2,1.803931E-2,2E0,-6.0505214E0,1.52011905E-2,-1.2879623E-3,1.4293089E-2,2.6604612E-3,-1.856172E-2,4.8887733E-2,1.0461372E-2,-3.3000376E-2,6.7900987E-3],"split_indices":[3,10,8,23,29,12,23,0,0,0,0,0,0,0,0],"split_type":[0,0,0,0,0,0,0,0,0,0,0,0,0,0,0],"sum_hessian":[1.4912062E3,1.2829089E3,2.0829724E2,9.545203E2,3.2838858E2,1.8191359E2,2.6383652E1,8.192583E2,1.3526201E2,1.374518E2,1.9093678E2,1.5648288E1,1.662653E2,1.9226944E1,7.1567082E0],"tree_param":{"num_deleted":"0","num_feature":"36","num_nodes":"15","size_leaf_vector":"1"}},{"base_weights":[-9.958379E-3,2.1909618E-1,-3.2056488E-2,7.0770496E-1,1.2472045E-1,-1.0638246E-1,4.891056E-2,5.7590913E-2,1.9743862E-3,-4.0960056E-3,1.8260898E-2,-4.457885E-3,-4.1876715E-2,2.0180456E-2,-8.63731E-6],"categories":[],"categories_nodes":[],"categories_segments":[],"categories_sizes":[],"default_left":[0,0,0,0,0,0,0,0,0,0,0,0,0,0,0],"id":60,"left_children":[1,3,5,7,9,11,13,-1,-1,-1,-1,-1,-1,-1,-1],"loss_changes":[7.648959E0,5.8259892E0,8.354996E0,5.877495E0,5.74138E0,8.819975E0,1.1618096E1,0E0,0E0,0E0,0E0,0E0,0E0,0E0,0E0],"parents":[2147483647,0,0,1,1,2,2,3,3,4,4,5,5,6,6],"right_children":[2,4,6,8,10,12,14,-1,-1,-1,-1,-1,-1,-1,-1],"split_conditions":[-7.192405E0,-7.0869915E-2,4.4745597E-1,3.0620196E-1,1.9442053E-1,1.6126353E-1,-1.6338129E0,5.7590913E-2,1.9743862E-3,-4.0960056E-3,1.8260898E-2,-4.457885E-3,-4.1876715E-2,2.0180456E-2,-8.63731E-6],"split_indices":[12,6,21,19,17,6,12,0,0,0,0,0,0,0,0],"split_type":[0,0,0,0,0,0,0,0,0,0,0,0,0,0,0],"sum_hessian":[1.5149615E3,1.3132365E2,1.383638E3,1.9338034E1,1.1198562E2,7.2244684E2,6.611911E2,1.0785109E1,8.552925E0,6.031723E1,5.166839E1,7.077303E2,1.4716532E1,7.9551994E1,5.816391E2],"tree_param":{"num_deleted":"0","num_feature":"36","num_nodes":"15","size_leaf_vector":"1"}},{"base_weights":[3.396495E-2,6.8979675E-1,2.475751E-2,3.1634897E-3,8.8816184E-1,-6.4546114E-1,3.7944518E-2,2.155248E-2,5.597928E-2,-8.232727E-3,-6.505862E-2,4.1389547E-2,1.2721118E-3],"categories":[],"categories_nodes":[],"categories_segments":[],"categories_sizes":[],"default_left":[0,0,0,0,0,0,0,0,0,0,0,0,0],"id":61,"left_children":[1,3,5,-1,7,9,11,-1,-1,-1,-1,-1,-1],"loss_changes":[8.931685E0,2.2741938E0,1.30665865E1,0E0,5.759363E-1,8.371751E0,1.4225094E1,0E0,0E0,0E0,0E0,0E0,0E0],"parents":[2147483647,0,0,1,1,2,2,4,4,5,5,6,6],"right_children":[2,4,6,-1,8,10,12,-1,-1,-1,-1,-1,-1],"split_conditions":[-4.3670762E-2,3.5224476E1,-3.7189286E-2,3.1634897E-3,-3.8979795E-2,-3.8763143E-2,-9.628108E-2,2.155248E-2,5.597928E-2,-8.232727E-3,-6.505862E-2,4.1389547E-2,1.2721118E-3],"split_indices":[23,9,23,0,7,23,16,0,0,0,0,0,0],"split_type":[0,0,0,0,0,0,0,0,0,0,0,0,0],"sum_hessian":[1.5055242E3,1.900811E1,1.486516E3,5.2891736E0,1.3718936E1,2.7003418E1,1.4595126E3,6.3447638E0,7.3741727E0,1.6838268E1,1.0165149E1,2.0968824E1,1.4385437E3],"tree_param":{"num_deleted":"0","num_feature":"36","num_nodes":"13","size_leaf_vector":"1"}},{"base_weights":[-6.5410337E-3,-3.5898972E-2,1.3807784E-1,-6.4247034E-2,1.5224545E-1,2.9374784E-1,-4.356472E-2,-1.028003E-3,-1.4644961E-2,-3.4234256E-2,1.551864E-2,2.681963E-3,2.9461412E-2,3.8355734E-2,-5.1057707E-3],"categories":[],"categories_nodes":[],"categories_segments":[],"categories_sizes":[],"default_left":[0,0,0,0,0,0,0,0,0,0,0,0,0,0,0],"id":62,"left_children":[1,3,5,7,9,11,13,-1,-1,-1,-1,-1,-1,-1,-1],"loss_changes":[6.3270483E0,6.630047E0,7.1707063E0,1.07442045E1,2.1731712E1,9.474883E0,5.519841E0,0E0,0E0,0E0,0E0,0E0,0E0,0E0,0E0],"parents":[2147483647,0,0,1,1,2,2,3,3,4,4,5,5,6,6],"right_children":[2,4,6,8,10,12,14,-1,-1,-1,-1,-1,-1,-1,-1],"split_conditions":[2.6790974E-1,4.856395E-2,1.0019548E0,1.2612314E0,-2.7626785E-3,-4.3680198E-3,2.3892106E-2,-1.028003E-3,-1.4644961E-2,-3.4234256E-2,1.551864E-2,2.681963E-3,2.9461412E-2,3.8355734E-2,-5.1057707E-3],"split_indices":[17,1,18,18,23,25,15,0,0,0,0,0,0,0,0],"split_type":[0,0,0,0,0,0,0,0,0,0,0,0,0,0,0],"sum_hessian":[1.4917828E3,1.242137E3,2.4964584E2,1.0812708E3,1.6086624E2,1.345285E2,1.1511734E2,9.0992694E2,1.7134381E2,2.456894E1,1.362973E2,7.556954E1,5.895896E1,6.301385E0,1.08815956E2],"tree_param":{"num_deleted":"0","num_feature":"36","num_nodes":"15","size_leaf_vector":"1"}},{"base_weights":[1.2858347E-2,-4.3817926E-3,2.5878003E-1,1.449037E-1,-4.3504078E-2,-7.016945E-1,4.389883E-1,3.8340233E-2,-1.3849554E-3,-1.3951011E-2,-5.291646E-4,6.5376023E-3,-5.8092114E-2,3.4149535E-2,-7.459207E-3],"categories":[],"categories_nodes":[],"categories_segments":[],"categories_sizes":[],"default_left":[0,0,0,0,0,0,0,0,0,0,0,0,0,0,0],"id":63,"left_children":[1,3,5,7,9,11,13,-1,-1,-1,-1,-1,-1,-1,-1],"loss_changes":[6.363116E0,8.116875E0,1.7422836E1,3.1121367E1,8.504219E0,6.5363393E0,1.2295326E1,0E0,0E0,0E0,0E0,0E0,0E0,0E0,0E0],"parents":[2147483647,0,0,1,1,2,2,3,3,4,4,5,5,6,6],"right_children":[2,4,6,8,10,12,14,-1,-1,-1,-1,-1,-1,-1,-1],"split_conditions":[8.397239E-2,1E0,1E0,-4.6192057E-2,-2.6311498E-2,3.0526782E-3,4E0,3.8340233E-2,-1.3849554E-3,-1.3951011E-2,-5.291646E-4,6.5376023E-3,-5.8092114E-2,3.4149535E-2,-7.459207E-3],"split_indices":[24,29,29,24,0,20,29,0,0,0,0,0,0,0,0],"split_type":[0,0,0,0,0,0,0,0,0,0,0,0,0,0,0],"sum_hessian":[1.4869305E3,1.3901362E3,9.679436E1,2.8675372E2,1.1033824E3,1.4430757E1,8.23636E1,6.1426014E1,2.253277E2,1.331973E2,9.701852E2,5.364695E0,9.066061E0,5.8283154E1,2.4080448E1],"tree_param":{"num_deleted":"0","num_feature":"36","num_nodes":"15","size_leaf_vector":"1"}},{"base_weights":[-6.909049E-3,-3.2473904E-1,8.933034E-3,-6.548009E-1,-0E0,-8.588053E-3,2.6782793E-1,1.4249166E-2,-4.3918323E-2,1.840533E-2,-2.1336019E-2,1.2735742E-3,-9.597387E-3,2.1645775E-2,-1.3153315E-2],"categories":[],"categories_nodes":[],"categories_segments":[],"categories_sizes":[],"default_left":[0,0,0,0,0,0,0,0,0,0,0,0,0,0,0],"id":64,"left_children":[1,3,5,7,9,11,13,-1,-1,-1,-1,-1,-1,-1,-1],"loss_changes":[7.710201E0,7.8618803E0,6.6176105E0,8.103734E0,6.196458E0,8.507233E0,8.309271E0,0E0,0E0,0E0,0E0,0E0,0E0,0E0,0E0],"parents":[2147483647,0,0,1,1,2,2,3,3,4,4,5,5,6,6],"right_children":[2,4,6,8,10,12,14,-1,-1,-1,-1,-1,-1,-1,-1],"split_conditions":[1.5212918E-2,7.904955E-1,1.6106741E-1,-1.2251132E-2,2.6078338E-3,4.1900452E-2,3.544721E-1,1.4249166E-2,-4.3918323E-2,1.840533E-2,-2.1336019E-2,1.2735742E-3,-9.597387E-3,2.1645775E-2,-1.3153315E-2],"split_indices":[22,18,3,1,20,24,7,0,0,0,0,0,0,0,0],"split_type":[0,0,0,0,0,0,0,0,0,0,0,0,0,0,0],"sum_hessian":[1.5163854E3,7.120571E1,1.4451797E3,3.4718258E1,3.6487457E1,1.3542094E3,9.0970345E1,6.420838E0,2.8297419E1,1.9832275E1,1.6655182E1,1.1422368E3,2.1197256E2,6.9890625E1,2.1079721E1],"tree_param":{"num_deleted":"0","num_feature":"36","num_nodes":"15","size_leaf_vector":"1"}},{"base_weights":[5.510119E-3,-2.0589422E-2,1.335207E-1,1.5499075E-2,-2.509958E-1,1.9999114E-1,-4.472429E-1,1.2150236E-3,-3.9929174E-2,1.3957863E-2,-1.6212871E-2,2.6170177E-2,3.923105E-3,-4.0875703E-2,5.9246747E-3],"categories":[],"categories_nodes":[],"categories_segments":[],"categories_sizes":[],"default_left":[0,0,0,0,0,0,0,0,0,0,0,0,0,0,0],"id":65,"left_children":[1,3,5,7,9,11,13,-1,-1,-1,-1,-1,-1,-1,-1],"loss_changes":[5.037603E0,1.041187E1,9.947969E0,7.5965095E0,6.729869E0,8.881784E0,5.8140607E0,0E0,0E0,0E0,0E0,0E0,0E0,0E0,0E0],"parents":[2147483647,0,0,1,1,2,2,3,3,4,4,5,5,6,6],"right_children":[2,4,6,8,10,12,14,-1,-1,-1,-1,-1,-1,-1,-1],"split_conditions":[2.1194375E-1,1.771151E-2,3.7715578E-1,7.6952584E-2,-4.3179967E-2,6.1439106E1,2.7896658E-2,1.2150236E-3,-3.9929174E-2,1.3957863E-2,-1.6212871E-2,2.6170177E-2,3.923105E-3,-4.0875703E-2,5.9246747E-3],"split_indices":[27,8,7,0,24,10,0,0,0,0,0,0,0,0,0],"split_type":[0,0,0,0,0,0,0,0,0,0,0,0,0,0,0],"sum_hessian":[1.4983104E3,1.2443097E3,2.5400073E2,1.0762656E3,1.6804414E2,2.2910652E2,2.4894217E1,1.0664368E3,9.828805E0,1.9559248E1,1.484849E2,6.0772682E1,1.6833385E2,1.4856607E1,1.0037608E1],"tree_param":{"num_deleted":"0","num_feature":"36","num_nodes":"15","size_leaf_vector":"1"}},{"base_weights":[4.3276744E-3,8.918714E-2,-5.4572485E-2,1.1481722E-1,-6.3314885E-2,-7.5008824E-2,9.713508E-1,2.4827665E-2,1.8404182E-3,-4.2608712E-2,-2.8348449E-3,6.481464E-2,1.4794553E-2],"categories":[],"categories_nodes":[],"categories_segments":[],"categories_sizes":[],"default_left":[0,0,0,0,0,0,0,0,0,0,0,0,0],"id":66,"left_children":[1,3,5,7,-1,9,11,-1,-1,-1,-1,-1,-1],"loss_changes":[7.481948E0,2.1322395E1,1.8411045E1,1.7859003E1,0E0,1.2067846E1,2.8665085E0,0E0,0E0,0E0,0E0,0E0,0E0],"parents":[2147483647,0,0,1,1,2,2,3,3,5,5,6,6],"right_children":[2,4,6,8,-1,10,12,-1,-1,-1,-1,-1,-1],"split_conditions":[2E0,1.0878557E-1,1.1978023E-1,-4.6192057E-2,-6.3314885E-2,-3.2547206E-2,3.6440402E-2,2.4827665E-2,1.8404182E-3,-4.2608712E-2,-2.8348449E-3,6.481464E-2,1.4794553E-2],"split_indices":[29,24,24,24,0,23,23,0,0,0,0,0,0],"split_type":[0,0,0,0,0,0,0,0,0,0,0,0,0],"sum_hessian":[1.492572E3,6.1260114E2,8.7997095E2,6.0272504E2,9.87609E0,8.643386E2,1.5632306E1,1.0046891E2,5.022561E2,1.8073318E1,8.462653E2,9.423959E0,6.208348E0],"tree_param":{"num_deleted":"0","num_feature":"36","num_nodes":"13","size_leaf_vector":"1"}},{"base_weights":[2.014872E-3,2.4172345E-1,-2.3385063E-2,-1.319451E-2,4.7355568E-1,-3.66515E-1,-5.5075805E-3,4.8434953E-3,-2.6900092E-2,3.7084065E-2,1.3903755E-2,6.063771E-5,-5.1948834E-2,3.9870404E-2,-1.2972037E-3],"categories":[],"categories_nodes":[],"categories_segments":[],"categories_sizes":[],"default_left":[0,0,0,0,0,0,0,0,0,0,0,0,0,0,0],"id":67,"left_children":[1,3,5,7,9,11,13,-1,-1,-1,-1,-1,-1,-1,-1],"loss_changes":[9.177931E0,8.640515E0,8.239734E0,4.202088E0,3.4765358E0,1.6670094E1,2.1056864E1,0E0,0E0,0E0,0E0,0E0,0E0,0E0,0E0],"parents":[2147483647,0,0,1,1,2,2,3,3,4,4,5,5,6,6],"right_children":[2,4,6,8,10,12,14,-1,-1,-1,-1,-1,-1,-1,-1],"split_conditions":[-6.735875E0,1.7909656E-1,-6.256382E-2,3.394546E-2,2.9192967E-2,-9.735418E-3,-5.6871198E-2,4.8434953E-3,-2.6900092E-2,3.7084065E-2,1.3903755E-2,6.063771E-5,-5.1948834E-2,3.9870404E-2,-1.2972037E-3],"split_indices":[12,17,24,3,15,23,24,0,0,0,0,0,0,0,0],"split_type":[0,0,0,0,0,0,0,0,0,0,0,0,0,0,0],"sum_hessian":[1.4973356E3,1.4298953E2,1.3543461E3,6.8366776E1,7.462276E1,6.5066086E1,1.28928E3,5.7210438E1,1.1156336E1,2.9266216E1,4.535654E1,4.2839622E1,2.2226463E1,3.034292E1,1.2589371E3],"tree_param":{"num_deleted":"0","num_feature":"36","num_nodes":"15","size_leaf_vector":"1"}},{"base_weights":[-1.2022468E-3,-7.4553445E-2,6.9927864E-2,7.304284E-2,-2.0081212E-1,-4.1530833E-1,1.0921036E-1,4.7837836E-3,-4.7595635E-2,-2.0687087E-2,-5.2319746E-3,3.9096526E-3,-4.914404E-2,1.7592488E-2,-2.3321532E-4],"categories":[],"categories_nodes":[],"categories_segments":[],"categories_sizes":[],"default_left":[0,0,0,0,0,0,0,0,0,0,0,0,0,0,0],"id":68,"left_children":[1,3,5,7,9,11,13,-1,-1,-1,-1,-1,-1,-1,-1],"loss_changes":[7.864442E0,1.3900343E1,1.4565595E1,7.9242654E0,8.058857E0,1.6299034E1,1.963856E1,0E0,0E0,0E0,0E0,0E0,0E0,0E0,0E0],"parents":[2147483647,0,0,1,1,2,2,3,3,4,4,5,5,6,6],"right_children":[2,4,6,8,10,12,14,-1,-1,-1,-1,-1,-1,-1,-1],"split_conditions":[3.2507992E-4,-1.3441248E0,-3.9163243E-2,4.3160018E-1,-4.751879E-5,2E0,-2.8068005E-4,4.7837836E-3,-4.7595635E-2,-2.0687087E-2,-5.2319746E-3,3.9096526E-3,-4.914404E-2,1.7592488E-2,-2.3321532E-4],"split_indices":[23,12,24,4,20,29,24,0,0,0,0,0,0,0,0],"split_type":[0,0,0,0,0,0,0,0,0,0,0,0,0,0,0],"sum_hessian":[1.5041501E3,7.4186224E2,7.6228784E2,3.415909E2,4.0027133E2,5.5632965E1,7.066549E2,3.3573245E2,5.858454E0,1.2235044E2,2.7792087E2,3.0261616E1,2.5371351E1,2.2527338E2,4.8138153E2],"tree_param":{"num_deleted":"0","num_feature":"36","num_nodes":"15","size_leaf_vector":"1"}},{"base_weights":[1.3550081E-4,-5.4550014E-2,1.0411478E-1,-3.0434884E-2,-6.12962E-1,-4.890305E-1,1.5707983E-1,4.3572704E-3,-6.315972E-3,-4.7529773E-3,-4.1776765E-2,3.234556E-2,-3.479238E-2,2.4197989E-3,1.8606953E-2],"categories":[],"categories_nodes":[],"categories_segments":[],"categories_sizes":[],"default_left":[0,0,0,0,0,0,0,0,0,0,0,0,0,0,0],"id":69,"left_children":[1,3,5,7,9,11,13,-1,-1,-1,-1,-1,-1,-1,-1],"loss_changes":[8.569356E0,1.3110644E1,1.6387705E1,1.0693821E1,4.3475943E0,1.0714021E1,1.1082259E1,0E0,0E0,0E0,0E0,0E0,0E0,0E0,0E0],"parents":[2147483647,0,0,1,1,2,2,3,3,4,4,5,5,6,6],"right_children":[2,4,6,8,10,12,14,-1,-1,-1,-1,-1,-1,-1,-1],"split_conditions":[7.3708957E-3,6.3606096E-3,-3.9268967E-2,-1.4624266E-2,2.0854218E-2,8.359322E-3,4.5559555E-2,4.3572704E-3,-6.315972E-3,-4.7529773E-3,-4.1776765E-2,3.234556E-2,-3.479238E-2,2.4197989E-3,1.8606953E-2],"split_indices":[23,23,1,1,22,23,13,0,0,0,0,0,0,0,0],"split_type":[0,0,0,0,0,0,0,0,0,0,0,0,0,0,0],"sum_hessian":[1.5023135E3,9.837319E2,5.185816E2,9.448675E2,3.886437E1,4.1188946E1,4.7739264E2,4.2354187E2,5.213256E2,1.2595443E1,2.6268927E1,5.7035074E0,3.548544E1,3.189655E2,1.5842714E2],"tree_param":{"num_deleted":"0","num_feature":"36","num_nodes":"15","size_leaf_vector":"1"}},{"base_weights":[-4.885151E-3,4.6410665E-1,-1.438565E-2,-1.1533037E-2,7.672497E-1,1.1335772E-1,-4.4877592E-2,5.4257806E-2,2.0760935E-2,-2.9041395E-2,8.615906E-3,-5.540988E-2,-1.9210881E-3],"categories":[],"categories_nodes":[],"categories_segments":[],"categories_sizes":[],"default_left":[0,0,0,0,0,0,0,0,0,0,0,0,0],"id":70,"left_children":[1,3,5,-1,7,9,11,-1,-1,-1,-1,-1,-1],"loss_changes":[6.5741434E0,6.5392747E0,5.702737E0,0E0,1.3665752E0,1.1593612E1,7.8450413E0,0E0,0E0,0E0,0E0,0E0,0E0],"parents":[2147483647,0,0,1,1,2,2,4,4,5,5,6,6],"right_children":[2,4,6,-1,8,10,12,-1,-1,-1,-1,-1,-1],"split_conditions":[-2.1635883E1,1.16168104E-1,4E0,-1.1533037E-2,-3.3241254E-1,4.3010426E-1,3.2813316E-3,5.4257806E-2,2.0760935E-2,-2.9041395E-2,8.615906E-3,-5.540988E-2,-1.9210881E-3],"split_indices":[12,21,28,0,19,18,27,0,0,0,0,0,0],"split_type":[0,0,0,0,0,0,0,0,0,0,0,0,0],"sum_hessian":[1.491899E3,2.7778666E1,1.4641205E3,8.347075E0,1.943159E1,2.800865E2,1.1840339E3,8.270676E0,1.1160913E1,2.0621777E1,2.5946472E2,5.413574E0,1.1786204E3],"tree_param":{"num_deleted":"0","num_feature":"36","num_nodes":"13","size_leaf_vector":"1"}},{"base_weights":[-1.151201E-2,2.7929947E-2,-1.7050438E-1,-3.4175274E-1,5.822537E-2,-6.558902E-1,-4.6950977E-2,5.9109624E-3,-2.8633012E-2,1.312335E-2,3.968609E-4,-9.60938E-4,-4.479749E-2,6.373649E-3,-1.7055852E-2],"categories":[],"categories_nodes":[],"categories_segments":[],"categories_sizes":[],"default_left":[0,0,0,0,0,0,0,0,0,0,0,0,0,0,0],"id":71,"left_children":[1,3,5,7,9,11,13,-1,-1,-1,-1,-1,-1,-1,-1],"loss_changes":[9.400295E0,1.3376815E1,1.7687153E1,9.790338E0,1.1322197E1,8.9658375E0,1.239731E1,0E0,0E0,0E0,0E0,0E0,0E0,0E0,0E0],"parents":[2147483647,0,0,1,1,2,2,3,3,4,4,5,5,6,6],"right_children":[2,4,6,8,10,12,14,-1,-1,-1,-1,-1,-1,-1,-1],"split_conditions":[4E0,1.4330664E-2,-1.9734731E-2,-1.5769402E-2,-3.219018E-2,-5.5160023E-2,6.095983E1,5.9109624E-3,-2.8633012E-2,1.312335E-2,3.968609E-4,-9.60938E-4,-4.479749E-2,6.373649E-3,-1.7055852E-2],"split_indices":[29,15,23,1,24,24,10,0,0,0,0,0,0,0,0],"split_type":[0,0,0,0,0,0,0,0,0,0,0,0,0,0,0],"sum_hessian":[1.4918314E3,1.1952892E3,2.9654224E2,8.886638E1,1.1064229E3,5.8528492E1,2.3801373E2,2.965632E1,5.9210056E1,2.1656285E2,8.8986E2,1.6697529E1,4.1830963E1,1.4952432E2,8.848941E1],"tree_param":{"num_deleted":"0","num_feature":"36","num_nodes":"15","size_leaf_vector":"1"}},{"base_weights":[4.4710906E-3,-2.97568E-1,1.8764544E-2,-5.799651E-1,1.3221073E-1,9.959563E-2,-4.4403102E-2,6.102052E-3,-4.348528E-2,2.3227958E-2,-2.2788199E-2,1.3003068E-3,1.8586524E-2,-3.5676882E-3,1.479778E-2],"categories":[],"categories_nodes":[],"categories_segments":[],"categories_sizes":[],"default_left":[0,0,0,0,0,0,0,0,0,0,0,0,0,0,0],"id":72,"left_children":[1,3,5,7,9,11,13,-1,-1,-1,-1,-1,-1,-1,-1],"loss_changes":[6.361968E0,8.280281E0,7.2658997E0,8.589898E0,5.6590376E0,1.2413841E1,7.292984E0,0E0,0E0,0E0,0E0,0E0,0E0,0E0,0E0],"parents":[2147483647,0,0,1,1,2,2,3,3,4,4,5,5,6,6],"right_children":[2,4,6,8,10,12,14,-1,-1,-1,-1,-1,-1,-1,-1],"split_conditions":[4.3010426E-1,4.4509342E-1,-3.566377E-3,1.6717054E-1,6.471302E1,3.601376E-1,1.74732E-2,6.102052E-3,-4.348528E-2,2.3227958E-2,-2.2788199E-2,1.3003068E-3,1.8586524E-2,-3.5676882E-3,1.479778E-2],"split_indices":[18,16,0,16,9,21,20,0,0,0,0,0,0,0,0],"split_type":[0,0,0,0,0,0,0,0,0,0,0,0,0,0,0],"sum_hessian":[1.4831151E3,6.503891E1,1.4180762E3,3.921372E1,2.5825197E1,6.230742E2,7.95002E2,1.1508333E1,2.7705383E1,1.691763E1,8.907568E0,4.9232117E2,1.3075302E2,7.3831323E2,5.668879E1],"tree_param":{"num_deleted":"0","num_feature":"36","num_nodes":"15","size_leaf_vector":"1"}},{"base_weights":[-3.8760042E-4,6.8061966E-1,-1.02610625E-2,9.001173E-1,7.712685E-4,-6.864731E-1,2.7940597E-3,2.0016233E-2,5.351761E-2,-5.7311904E-2,-1.5935996E-4,2.011624E-2,-1.3208475E-3],"categories":[],"categories_nodes":[],"categories_segments":[],"categories_sizes":[],"default_left":[0,0,0,0,0,0,0,0,0,0,0,0,0],"id":73,"left_children":[1,3,5,7,-1,9,11,-1,-1,-1,-1,-1,-1],"loss_changes":[9.8672085E0,2.8574953E0,1.3085013E1,3.8301945E-1,0E0,8.583058E0,1.6894903E1,0E0,0E0,0E0,0E0,0E0,0E0],"parents":[2147483647,0,0,1,1,2,2,3,3,5,5,6,6],"right_children":[2,4,6,8,-1,10,12,-1,-1,-1,-1,-1,-1],"split_conditions":[-4.3670762E-2,-3.6300274E-3,-3.7189286E-2,3.0984442E1,7.712685E-4,-8.7802224E-2,-5.6871198E-2,2.0016233E-2,5.351761E-2,-5.7311904E-2,-1.5935996E-4,2.011624E-2,-1.3208475E-3],"split_indices":[23,20,23,10,0,7,24,0,0,0,0,0,0],"split_type":[0,0,0,0,0,0,0,0,0,0,0,0,0],"sum_hessian":[1.4843647E3,1.946747E1,1.4648972E3,1.4013088E1,5.4543824E0,2.6570663E1,1.4383265E3,5.1361427E0,8.8769455E0,1.5100755E1,1.146991E1,9.715709E1,1.3411696E3],"tree_param":{"num_deleted":"0","num_feature":"36","num_nodes":"13","size_leaf_vector":"1"}},{"base_weights":[-1.4100018E-2,-2.9311497E-2,2.7445105E-1,-1.4084328E-2,-4.8159125E-1,8.6613125E-1,-4.597518E-2,-2.1525775E-3,1.1280259E-2,6.9616954E-3,-4.2348932E-2,1.3977982E-2,5.7146084E-2,3.087746E-2,-1.723512E-2],"categories":[],"categories_nodes":[],"categories_segments":[],"categories_sizes":[],"default_left":[0,0,0,0,0,0,0,0,0,0,0,0,0,0,0],"id":74,"left_children":[1,3,5,7,9,11,13,-1,-1,-1,-1,-1,-1,-1,-1],"loss_changes":[6.4678593E0,9.599741E0,1.4196358E1,9.46122E0,1.0627229E1,3.4876595E0,9.979827E0,0E0,0E0,0E0,0E0,0E0,0E0,0E0,0E0],"parents":[2147483647,0,0,1,1,2,2,3,3,4,4,5,5,6,6],"right_children":[2,4,6,8,10,12,14,-1,-1,-1,-1,-1,-1,-1,-1],"split_conditions":[3.305564E-2,2.835964E-2,4.159526E-2,1.803931E-2,8.085465E-3,5.0565447E-3,1.1537883E-9,-2.1525775E-3,1.1280259E-2,6.9616954E-3,-4.2348932E-2,1.3977982E-2,5.7146084E-2,3.087746E-2,-1.723512E-2],"split_indices":[23,23,23,23,5,20,20,0,0,0,0,0,0,0,0],"split_type":[0,0,0,0,0,0,0,0,0,0,0,0,0,0,0],"sum_hessian":[1.4804761E3,1.408277E3,7.219906E1,1.3643322E3,4.394486E1,2.4685621E1,4.751344E1,1.2190688E3,1.4526326E2,1.6422554E1,2.7522306E1,9.112363E0,1.5573258E1,1.4045522E1,3.346792E1],"tree_param":{"num_deleted":"0","num_feature":"36","num_nodes":"15","size_leaf_vector":"1"}},{"base_weights":[1.7308038E-2,2.552551E-1,5.7321595E-4,-6.798347E-2,1.0778474E0,-9.595042E-1,1.5886508E-2,2.6643846E-2,-1.5446198E-2,6.436118E-2,1.174423E-2,-2.5055606E-2,-5.722488E-2,6.935494E-2,3.5781146E-4],"categories":[],"categories_nodes":[],"categories_segments":[],"categories_sizes":[],"default_left":[0,0,0,0,0,0,0,0,0,0,0,0,0,0,0],"id":75,"left_children":[1,3,5,7,9,11,13,-1,-1,-1,-1,-1,-1,-1,-1],"loss_changes":[5.91521E0,2.6281363E1,2.0449535E1,1.0532001E1,4.1514473E0,6.620903E-1,1.6248934E1,0E0,0E0,0E0,0E0,0E0,0E0,0E0,0E0],"parents":[2147483647,0,0,1,1,2,2,3,3,4,4,5,5,6,6],"right_children":[2,4,6,8,10,12,14,-1,-1,-1,-1,-1,-1,-1,-1],"split_conditions":[-2.8028816E-2,-3.0287877E-2,-2.6760563E-2,-4.3670762E-2,2.5222316E-1,-3.5558697E-2,-2.5514254E-2,2.6643846E-2,-1.5446198E-2,6.436118E-2,1.174423E-2,-2.5055606E-2,-5.722488E-2,6.935494E-2,3.5781146E-4],"split_indices":[23,23,23,23,17,2,23,0,0,0,0,0,0,0,0],"split_type":[0,0,0,0,0,0,0,0,0,0,0,0,0,0,0],"sum_hessian":[1.4968907E3,9.616868E1,1.4007222E3,6.985283E1,2.6315851E1,2.033378E1,1.3803883E3,1.9235512E1,5.0617317E1,2.0256681E1,6.059169E0,7.757051E0,1.257673E1,7.089878E0,1.3732985E3],"tree_param":{"num_deleted":"0","num_feature":"36","num_nodes":"15","size_leaf_vector":"1"}},{"base_weights":[1.7286776E-2,-2.5699413E-1,3.496619E-2,7.65651E-3,-7.944888E-1,7.975916E-1,1.32083865E-2,6.0741287E-3,-3.5775222E-2,-6.447567E-2,-0E0,1.0565891E-2,5.4175045E-2,-2.6318908E-2,1.2530969E-3],"categories":[],"categories_nodes":[],"categories_segments":[],"categories_sizes":[],"default_left":[0,0,0,0,0,0,0,0,0,0,0,0,0,0,0],"id":76,"left_children":[1,3,5,7,9,11,13,-1,-1,-1,-1,-1,-1,-1,-1],"loss_changes":[7.227513E0,1.2988107E1,2.318871E1,5.0849156E0,1.1599335E1,5.8982735E0,8.688066E0,0E0,0E0,0E0,0E0,0E0,0E0,0E0,0E0],"parents":[2147483647,0,0,1,1,2,2,3,3,4,4,5,5,6,6],"right_children":[2,4,6,8,10,12,14,-1,-1,-1,-1,-1,-1,-1,-1],"split_conditions":[-6.256382E-2,3E0,-5.6871198E-2,-6.392108E-2,4E0,1.9360188E1,-5.028906E-2,6.0741287E-3,-3.5775222E-2,-6.447567E-2,-0E0,1.0565891E-2,5.4175045E-2,-2.6318908E-2,1.2530969E-3],"split_indices":[24,29,24,24,29,10,24,0,0,0,0,0,0,0,0],"split_type":[0,0,0,0,0,0,0,0,0,0,0,0,0,0,0],"sum_hessian":[1.4953553E3,8.863546E1,1.40672E3,6.013355E1,2.850191E1,3.728201E1,1.3694379E3,5.327293E1,6.860617E0,1.6864262E1,1.1637648E1,1.33058195E1,2.397619E1,2.7674656E1,1.3417633E3],"tree_param":{"num_deleted":"0","num_feature":"36","num_nodes":"15","size_leaf_vector":"1"}},{"base_weights":[-1.1199884E-2,-9.627983E-2,4.2462166E-2,-1.3548203E-2,-8.770462E-1,-7.2124904E-1,6.828716E-2,-2.878702E-3,2.7962172E-2,-7.139033E-3,-5.2158147E-2,1.1430506E-2,-5.045193E-2,4.2036176E-2,2.324025E-3],"categories":[],"categories_nodes":[],"categories_segments":[],"categories_sizes":[],"default_left":[0,0,0,0,0,0,0,0,0,0,0,0,0,0,0],"id":77,"left_children":[1,3,5,7,9,11,13,-1,-1,-1,-1,-1,-1,-1,-1],"loss_changes":[6.8867803E0,3.751982E1,1.8134218E1,1.3305786E1,6.331772E0,8.715165E0,1.481906E1,0E0,0E0,0E0,0E0,0E0,0E0,0E0,0E0],"parents":[2147483647,0,0,1,1,2,2,3,3,4,4,5,5,6,6],"right_children":[2,4,6,8,10,12,14,-1,-1,-1,-1,-1,-1,-1,-1],"split_conditions":[-4.17591E-3,-5.5690934E-3,-5.5160023E-2,-6.7688306E-3,-2.2097593E-2,-1.4346719E-1,-3.7544048E-3,-2.878702E-3,2.7962172E-2,-7.139033E-3,-5.2158147E-2,1.1430506E-2,-5.045193E-2,4.2036176E-2,2.324025E-3],"split_indices":[23,23,24,23,8,7,23,0,0,0,0,0,0,0,0],"split_type":[0,0,0,0,0,0,0,0,0,0,0,0,0,0,0],"sum_hessian":[1.5032174E3,5.823889E2,9.208285E2,5.282018E2,5.418717E1,2.8544922E1,8.9228357E2,4.920781E2,3.612365E1,1.0734043E1,4.3453125E1,6.547656E0,2.1997267E1,2.2700035E1,8.6958356E2],"tree_param":{"num_deleted":"0","num_feature":"36","num_nodes":"15","size_leaf_vector":"1"}},{"base_weights":[-1.4308269E-2,2.7674943E-1,-2.6845451E-2,-0E0,5.1792014E-1,-1.04693495E-1,3.5228763E-2,2.3673026E-2,-1.2844214E-2,3.8838957E-2,1.0855116E-3,-6.3554496E-3,2.6791712E-2,1.6806612E-2,-1.195893E-3],"categories":[],"categories_nodes":[],"categories_segments":[],"categories_sizes":[],"default_left":[0,0,0,0,0,0,0,0,0,0,0,0,0,0,0],"id":78,"left_children":[1,3,5,7,9,11,13,-1,-1,-1,-1,-1,-1,-1,-1],"loss_changes":[5.4653897E0,4.0861425E0,7.017344E0,3.8944926E0,4.0369177E0,9.270391E0,1.4408339E1,0E0,0E0,0E0,0E0,0E0,0E0,0E0,0E0],"parents":[2147483647,0,0,1,1,2,2,3,3,4,4,5,5,6,6],"right_children":[2,4,6,8,10,12,14,-1,-1,-1,-1,-1,-1,-1,-1],"split_conditions":[-2.4308681E-2,1.437312E-1,3.4953716E-1,-1.7950545E-1,-1.6485611E-2,8E0,-3.782364E-3,2.3673026E-2,-1.2844214E-2,3.8838957E-2,1.0855116E-3,-6.3554496E-3,2.6791712E-2,1.6806612E-2,-1.195893E-3],"split_indices":[16,21,21,19,25,28,0,0,0,0,0,0,0,0,0],"split_type":[0,0,0,0,0,0,0,0,0,0,0,0,0,0,0],"sum_hessian":[1.5069025E3,6.0264496E1,1.446638E3,2.8895947E1,3.136855E1,6.427497E2,8.038883E2,9.814619E0,1.9081327E1,1.9792274E1,1.1576276E1,6.2248035E2,2.026934E1,1.3145894E2,6.724294E2],"tree_param":{"num_deleted":"0","num_feature":"36","num_nodes":"15","size_leaf_vector":"1"}},{"base_weights":[-2.000262E-2,-3.5805214E-2,2.7385864E-1,-2.8787237E-2,-4.1263618E-2,1.646268E-1,5.3811003E-2,-3.0711398E-3,8.310042E-3,2.5839418E-2,-9.809165E-3],"categories":[],"categories_nodes":[],"categories_segments":[],"categories_sizes":[],"default_left":[0,0,0,0,0,0,0,0,0,0,0],"id":79,"left_children":[1,3,5,7,-1,9,-1,-1,-1,-1,-1],"loss_changes":[6.9331937E0,7.6915665E0,6.153943E0,8.997248E0,0E0,8.977684E0,0E0,0E0,0E0,0E0,0E0],"parents":[2147483647,0,0,1,1,2,2,3,3,5,5],"right_children":[2,4,6,8,-1,10,-1,-1,-1,-1,-1],"split_conditions":[1.7707501E-1,8.353423E-2,8.9661646E-1,4.5217305E-2,-4.1263618E-2,4.682911E-2,5.3811003E-2,-3.0711398E-3,8.310042E-3,2.5839418E-2,-9.809165E-3],"split_indices":[3,0,21,1,0,1,0,0,0,0,0],"split_type":[0,0,0,0,0,0,0,0,0,0,0],"sum_hessian":[1.4985952E3,1.4240156E3,7.45796E1,1.4132604E3,1.0755161E1,6.745363E1,7.125967E0,1.212393E3,2.0086751E2,3.4088287E1,3.336534E1],"tree_param":{"num_deleted":"0","num_feature":"36","num_nodes":"11","size_leaf_vector":"1"}},{"base_weights":[-5.6052553E-3,5.769677E-1,-1.3586241E-2,2.9019187E-5,7.6174396E-1,-7.094879E-1,-0E0,4.9299326E-2,1.240728E-2,-5.85613E-3,-7.483756E-2,2.3742914E-2,-8.503911E-4],"categories":[],"categories_nodes":[],"categories_segments":[],"categories_sizes":[],"default_left":[0,0,0,0,0,0,0,0,0,0,0,0,0],"id":80,"left_children":[1,3,5,-1,7,9,11,-1,-1,-1,-1,-1,-1],"loss_changes":[6.8350654E0,1.9616094E0,1.3857598E1,0E0,1.0874834E0,1.2504537E1,1.1650109E1,0E0,0E0,0E0,0E0,0E0,0E0],"parents":[2147483647,0,0,1,1,2,2,4,4,5,5,6,6],"right_children":[2,4,6,-1,8,10,12,-1,-1,-1,-1,-1,-1],"split_conditions":[-4.3670762E-2,3.5224476E1,-3.7189286E-2,2.9019187E-5,3.7890766E-2,-3.8763143E-2,-2.8028816E-2,4.9299326E-2,1.240728E-2,-5.85613E-3,-7.483756E-2,2.3742914E-2,-8.503911E-4],"split_indices":[23,9,23,0,14,23,23,0,0,0,0,0,0],"split_type":[0,0,0,0,0,0,0,0,0,0,0,0,0],"sum_hessian":[1.4902675E3,1.8356194E1,1.4719113E3,5.0840893E0,1.3272104E1,2.6569775E1,1.4453414E3,8.007077E0,5.265027E0,1.628988E1,1.0279894E1,4.837166E1,1.3969698E3],"tree_param":{"num_deleted":"0","num_feature":"36","num_nodes":"13","size_leaf_vector":"1"}},{"base_weights":[3.9552907E-3,-1.375605E-1,4.6823572E-2,-2.0317405E-1,2.5140738E-1,-2.9073784E-1,7.173774E-2,2.8655736E-2,