{"learner":{"attributes":{"scikit_learn":"{\"_estimator_type\": \"classifier\"}"},"feature_names":["ret_1d","ret_3d","ret_5d","ret_10d","ret_20d","dist_sma10","dist_sma20","dist_sma50","sma20_slope","rsi_14","rsi_7","macd_hist","macd_hist_slope","atr_pct","ret_std_10","ret_std_20","bb_position","bb_width","vol_ratio","vol_zscore","gap_pct","close_in_range","hl_range_pct","sector_ret_1d","sector_ret_5d","rel_strength_5d","dist_high_20","dist_low_20","up_days_10","dow"],"feature_types":["float","float","float","float","float","float","float","float","float","float","float","float","float","float","float","float","float","float","float","float","float","float","float","float","float","float","float","float","float","int"],"gradient_booster":{"model":{"cats":{"enc":[],"feature_segments":[],"sorted_idx":[]},"gbtree_model_param":{"num_parallel_tree":"1","num_trees":"180"},"iteration_indptr":[0,1,2,3,4,5,6,7,8,9,10,11,12,13,14,15,16,17,18,19,20,21,22,23,24,25,26,27,28,29,30,31,32,33,34,35,36,37,38,39,40,41,42,43,44,45,46,47,48,49,50,51,52,53,54,55,56,57,58,59,60,61,62,63,64,65,66,67,68,69,70,71,72,73,74,75,76,77,78,79,80,81,82,83,84,85,86,87,88,89,90,91,92,93,94,95,96,97,98,99,100,101,102,103,104,105,106,107,108,109,110,111,112,113,114,115,116,117,118,119,120,121,122,123,124,125,126,127,128,129,130,131,132,133,134,135,136,137,138,139,140,141,142,143,144,145,146,147,148,149,150,151,152,153,154,155,156,157,158,159,160,161,162,163,164,165,166,167,168,169,170,171,172,173,174,175,176,177,178,179,180],"tree_info":[0,0,0,0,0,0,0,0,0,0,0,0,0,0,0,0,0,0,0,0,0,0,0,0,0,0,0,0,0,0,0,0,0,0,0,0,0,0,0,0,0,0,0,0,0,0,0,0,0,0,0,0,0,0,0,0,0,0,0,0,0,0,0,0,0,0,0,0,0,0,0,0,0,0,0,0,0,0,0,0,0,0,0,0,0,0,0,0,0,0,0,0,0,0,0,0,0,0,0,0,0,0,0,0,0,0,0,0,0,0,0,0,0,0,0,0,0,0,0,0,0,0,0,0,0,0,0,0,0,0,0,0,0,0,0,0,0,0,0,0,0,0,0,0,0,0,0,0,0,0,0,0,0,0,0,0,0,0,0,0,0,0,0,0,0,0,0,0,0,0,0,0,0,0,0,0,0,0,0,0],"trees":[{"base_weights":[-2.965373E-3,-6.783707E-2,4.3017986E-1,3.7013313E-1,-1.4691614E-1,5.780257E-1,-2.0924607E-1,3.2700952E-2,-9.780032E-3,-4.8680184E-3,-3.9043445E-2,-3.7548968E-3,4.201361E-2,-3.1361945E-2,3.465076E-2],"categories":[],"categories_nodes":[],"categories_segments":[],"categories_sizes":[],"default_left":[0,0,0,0,0,0,0,0,0,0,0,0,0,0,0],"id":0,"left_children":[1,3,5,7,9,11,13,-1,-1,-1,-1,-1,-1,-1,-1],"loss_changes":[4.3240486E1,4.6481552E1,1.919923E1,3.322924E1,3.544181E1,2.8236393E1,1.5150927E1,0E0,0E0,0E0,0E0,0E0,0E0,0E0,0E0],"parents":[2147483647,0,0,1,1,2,2,3,3,4,4,5,5,6,6],"right_children":[2,4,6,8,10,12,14,-1,-1,-1,-1,-1,-1,-1,-1],"split_conditions":[5.9262604E-2,-4.4924885E-2,4E0,3E0,4.190047E-2,1E0,9.636801E-2,3.2700952E-2,-9.780032E-3,-4.8680184E-3,-3.9043445E-2,-3.7548968E-3,4.201361E-2,-3.1361945E-2,3.465076E-2],"split_indices":[24,5,29,29,24,29,24,0,0,0,0,0,0,0,0],"split_type":[0,0,0,0,0,0,0,0,0,0,0,0,0,0,0],"sum_hessian":[1.5383907E3,1.3395018E3,1.9888892E2,2.0363626E2,1.1358656E3,1.6190958E2,3.6979347E1,1.3567422E2,6.796204E1,1.0554105E3,8.045506E1,4.6474045E1,1.1543553E2,2.5735626E1,1.124372E1],"tree_param":{"num_deleted":"0","num_feature":"30","num_nodes":"15","size_leaf_vector":"1"}},{"base_weights":[-4.0791733E-3,-9.0253666E-2,3.6801803E-1,1.175575E0,-1.15625344E-1,-7.9537153E-1,4.2078418E-1,7.229139E-2,2.0527212E-2,-7.5141005E-3,3.3936378E-2,-7.454529E-2,-4.925544E-4,3.7587702E-2,9.611781E-3],"categories":[],"categories_nodes":[],"categories_segments":[],"categories_sizes":[],"default_left":[0,0,0,0,0,0,0,0,0,0,0,0,0,0,0],"id":1,"left_children":[1,3,5,7,9,11,13,-1,-1,-1,-1,-1,-1,-1,-1],"loss_changes":[4.969524E1,4.0463753E1,1.8310726E1,3.8536758E0,3.409948E1,6.777375E0,2.0761436E1,0E0,0E0,0E0,0E0,0E0,0E0,0E0,0E0],"parents":[2147483647,0,0,1,1,2,2,3,3,4,4,5,5,6,6],"right_children":[2,4,6,8,10,12,14,-1,-1,-1,-1,-1,-1,-1,-1],"split_conditions":[1.7121429E-2,-4.3670774E-2,-4.9022492E-2,1.2835219E0,8.397239E-2,2.7621126E-2,2.1292321E-2,7.229139E-2,2.0527212E-2,-7.5141005E-3,3.3936378E-2,-7.454529E-2,-4.925544E-4,3.7587702E-2,9.611781E-3],"split_indices":[23,23,24,18,24,15,24,0,0,0,0,0,0,0,0],"split_type":[0,0,0,0,0,0,0,0,0,0,0,0,0,0,0],"sum_hessian":[1.5484927E3,1.2586694E3,2.8982327E2,2.3241356E1,1.2354281E3,1.1494371E1,2.7832892E2,1.5994805E1,7.24655E0,1.1851877E3,5.0240337E1,5.246927E0,6.247444E0,1.1192994E2,1.6639897E2],"tree_param":{"num_deleted":"0","num_feature":"30","num_nodes":"15","size_leaf_vector":"1"}},{"base_weights":[6.8394444E-3,-5.5715684E-2,4.2355922E-1,-1.0189833E-2,-7.633754E-1,5.877927E-1,-2.6440835E-1,-4.903896E-3,1.5557288E-2,-6.3846596E-2,-1.1178217E-2,-5.939766E-3,4.222019E-2,-6.1925586E-2,3.1939452E-3],"categories":[],"categories_nodes":[],"categories_segments":[],"categories_sizes":[],"default_left":[0,0,0,0,0,0,0,0,0,0,0,0,0,0,0],"id":2,"left_children":[1,3,5,7,9,11,13,-1,-1,-1,-1,-1,-1,-1,-1],"loss_changes":[4.0321106E1,4.307366E1,2.3113434E1,3.5667114E1,2.168245E1,2.9980213E1,1.3054017E1,0E0,0E0,0E0,0E0,0E0,0E0,0E0,0E0],"parents":[2147483647,0,0,1,1,2,2,3,3,4,4,5,5,6,6],"right_children":[2,4,6,8,10,12,14,-1,-1,-1,-1,-1,-1,-1,-1],"split_conditions":[5.9262604E-2,4.190047E-2,4E0,5.047715E-2,7.2258726E-2,1E0,-1.3353389E-2,-4.903896E-3,1.5557288E-2,-6.3846596E-2,-1.1178217E-2,-5.939766E-3,4.222019E-2,-6.1925586E-2,3.1939452E-3],"split_indices":[24,24,29,22,7,29,8,0,0,0,0,0,0,0,0],"split_type":[0,0,0,0,0,0,0,0,0,0,0,0,0,0,0],"sum_hessian":[1.5410886E3,1.3406578E3,2.004309E2,1.2613177E3,7.9340096E1,1.6221548E2,3.8215397E1,9.917343E2,2.695834E2,3.941927E1,3.9920822E1,4.322369E1,1.189918E2,8.738002E0,2.9477396E1],"tree_param":{"num_deleted":"0","num_feature":"30","num_nodes":"15","size_leaf_vector":"1"}},{"base_weights":[-1.0840135E-2,-1.00594215E-1,3.7328312E-1,1.1866388E0,-1.2616757E-1,7.1170366E-1,2.2747001E-1,6.912831E-2,1.8594313E-2,1.5704174E-2,-8.109457E-3,7.433238E-2,1.6679347E-2,-2.6362678E-3,3.473597E-2],"categories":[],"categories_nodes":[],"categories_segments":[],"categories_sizes":[],"default_left":[0,0,0,0,0,0,0,0,0,0,0,0,0,0,0],"id":3,"left_children":[1,3,5,7,9,11,13,-1,-1,-1,-1,-1,-1,-1,-1],"loss_changes":[5.3414024E1,4.140479E1,1.40438385E1,2.7866173E0,1.9622084E1,2.4446014E1,2.7364798E1,0E0,0E0,0E0,0E0,0E0,0E0,0E0,0E0],"parents":[2147483647,0,0,1,1,2,2,3,3,4,4,5,5,6,6],"right_children":[2,4,6,8,10,12,14,-1,-1,-1,-1,-1,-1,-1,-1],"split_conditions":[1.7121429E-2,-4.3670774E-2,2.2074811E-2,-3.551697E-3,2.6065487E-2,2E0,3.305564E-2,6.912831E-2,1.8594313E-2,1.5704174E-2,-8.109457E-3,7.433238E-2,1.6679347E-2,-2.6362678E-3,3.473597E-2],"split_indices":[23,23,23,20,16,29,23,0,0,0,0,0,0,0,0],"split_type":[0,0,0,0,0,0,0,0,0,0,0,0,0,0,0],"sum_hessian":[1.5477302E3,1.255904E3,2.9182617E2,2.2985928E1,1.2329181E3,8.570913E1,2.0611707E2,1.7489338E1,5.496591E0,9.195268E1,1.1409655E3,2.6490595E1,5.9218533E1,1.2941405E2,7.670301E1],"tree_param":{"num_deleted":"0","num_feature":"30","num_nodes":"15","size_leaf_vector":"1"}},{"base_weights":[-1.6871614E-3,-1.12990655E-1,1.3629681E-1,4.2997327E-1,-1.7910519E-1,4.028331E-3,3.497569E-1,2.6133483E-2,-3.9938275E-2,-1.3672586E-2,5.6782854E-3,3.300886E-2,-1.0389661E-3,2.4678491E-2,3.4381896E-3],"categories":[],"categories_nodes":[],"categories_segments":[],"categories_sizes":[],"default_left":[0,0,0,0,0,0,0,0,0,0,0,0,0,0,0],"id":4,"left_children":[1,3,5,7,9,11,13,-1,-1,-1,-1,-1,-1,-1,-1],"loss_changes":[2.3832815E1,3.0934029E1,1.9470812E1,1.1215395E1,2.1283566E1,7.139266E0,1.0514122E1,0E0,0E0,0E0,0E0,0E0,0E0,0E0,0E0],"parents":[2147483647,0,0,1,1,2,2,3,3,4,4,5,5,6,6],"right_children":[2,4,6,8,10,12,14,-1,-1,-1,-1,-1,-1,-1,-1],"split_conditions":[4.626121E-1,2.6065487E-2,4.25071E-2,-3.5926376E-2,2.2357349E-1,-8.873198E-2,3E0,2.6133483E-2,-3.9938275E-2,-1.3672586E-2,5.6782854E-3,3.300886E-2,-1.0389661E-3,2.4678491E-2,3.4381896E-3],"split_indices":[21,16,13,3,17,3,29,0,0,0,0,0,0,0,0],"split_type":[0,0,0,0,0,0,0,0,0,0,0,0,0,0,0],"sum_hessian":[1.5491072E3,8.5840436E2,6.9070276E2,9.195403E1,7.664503E2,4.279765E2,2.6272626E2,8.645644E1,5.4975843E0,5.801975E2,1.8625284E2,1.4485563E1,4.1349094E2,1.7256206E2,9.0164215E1],"tree_param":{"num_deleted":"0","num_feature":"30","num_nodes":"15","size_leaf_vector":"1"}},{"base_weights":[7.6547605E-3,-6.8992026E-2,3.3626482E-1,4.3227902E-1,-1.296261E-1,7.89036E-2,5.932468E-1,-2.3223713E-2,3.5761334E-2,-8.388666E-3,3.423624E-2,2.5917744E-2,-4.827268E-3,3.6309592E-2,-2.7933405E-3],"categories":[],"categories_nodes":[],"categories_segments":[],"categories_sizes":[],"default_left":[0,0,0,0,0,0,0,0,0,0,0,0,0,0,0],"id":5,"left_children":[1,3,5,7,9,11,13,-1,-1,-1,-1,-1,-1,-1,-1],"loss_changes":[3.903665E1,3.8157722E1,1.9187897E1,3.4898422E1,3.4886215E1,1.1618167E1,1.2802616E1,0E0,0E0,0E0,0E0,0E0,0E0,0E0,0E0],"parents":[2147483647,0,0,1,1,2,2,3,3,4,4,5,5,6,6],"right_children":[2,4,6,8,10,12,14,-1,-1,-1,-1,-1,-1,-1,-1],"split_conditions":[1.7121429E-2,-5.6119997E-2,4.1990537E-2,-3.718927E-2,8.397239E-2,2.2074811E-2,4.728977E-2,-2.3223713E-2,3.5761334E-2,-8.388666E-3,3.423624E-2,2.5917744E-2,-4.827268E-3,3.6309592E-2,-2.7933405E-3],"split_indices":[23,24,13,23,24,23,25,0,0,0,0,0,0,0,0],"split_type":[0,0,0,0,0,0,0,0,0,0,0,0,0,0,0],"sum_hessian":[1.5448748E3,1.2531578E3,2.917169E2,1.3387775E2,1.1192802E3,1.4711932E2,1.4459758E2,3.170982E1,1.0216793E2,1.0705674E3,4.8712788E1,4.1466194E1,1.0565313E2,1.201248E2,2.4472769E1],"tree_param":{"num_deleted":"0","num_feature":"30","num_nodes":"15","size_leaf_vector":"1"}},{"base_weights":[-7.326623E-3,-1.310746E-1,2.2963448E-1,1.0951347E0,-1.626876E-1,7.966057E-2,4.9804065E-1,6.729784E-2,2.7254356E-2,4.2092226E-2,-9.555145E-3,1.5276799E-4,2.6588053E-2,-5.0425036E-3,2.9431844E-2],"categories":[],"categories_nodes":[],"categories_segments":[],"categories_sizes":[],"default_left":[0,0,0,0,0,0,0,0,0,0,0,0,0,0,0],"id":6,"left_children":[1,3,5,7,9,11,13,-1,-1,-1,-1,-1,-1,-1,-1],"loss_changes":[4.5086494E1,3.9271667E1,2.104604E1,2.031767E0,2.8286E1,1.1682161E1,1.0398426E1,0E0,0E0,0E0,0E0,0E0,0E0,0E0,0E0],"parents":[2147483647,0,0,1,1,2,2,3,3,4,4,5,5,6,6],"right_children":[2,4,6,8,10,12,14,-1,-1,-1,-1,-1,-1,-1,-1],"split_conditions":[7.3708748E-3,-4.3670774E-2,4.5256484E-2,-5.1460955E-2,-9.482626E-2,3.2589663E-2,-3.8075943E-2,6.729784E-2,2.7254356E-2,4.2092226E-2,-9.555145E-3,1.5276799E-4,2.6588053E-2,-5.0425036E-3,2.9431844E-2],"split_indices":[23,23,13,1,16,23,1,0,0,0,0,0,0,0,0],"split_type":[0,0,0,0,0,0,0,0,0,0,0,0,0,0,0],"sum_hessian":[1.5351897E3,1.00950903E3,5.2568066E2,2.3944815E1,9.855642E2,3.389694E2,1.8671129E2,1.470517E1,9.239645E0,2.573698E1,9.598272E2,2.9152505E2,4.7444332E1,2.4220839E1,1.6249045E2],"tree_param":{"num_deleted":"0","num_feature":"30","num_nodes":"15","size_leaf_vector":"1"}},{"base_weights":[-3.1925745E-3,-7.0463315E-2,2.8396413E-1,3.4609485E-1,-1.5048514E-1,6.0772604E-1,1.4748012E-1,4.813142E-2,-1.3282785E-2,-1.8510124E-2,5.741788E-4,6.675591E-2,1.2844703E-2,-3.6288407E-2,1.4509809E-2],"categories":[],"categories_nodes":[],"categories_segments":[],"categories_sizes":[],"default_left":[0,0,0,0,0,0,0,0,0,0,0,0,0,0,0],"id":7,"left_children":[1,3,5,7,9,11,13,-1,-1,-1,-1,-1,-1,-1,-1],"loss_changes":[3.0037708E1,4.2110596E1,1.2749786E1,7.7253105E1,3.7807556E1,2.1257574E1,2.6391611E1,0E0,0E0,0E0,0E0,0E0,0E0,0E0,0E0],"parents":[2147483647,0,0,1,1,2,2,3,3,4,4,5,5,6,6],"right_children":[2,4,6,8,10,12,14,-1,-1,-1,-1,-1,-1,-1,-1],"split_conditions":[1.7121429E-2,-4.554944E-2,2.2074811E-2,2E0,-4.175913E-3,2E0,2.4882281E-2,4.813142E-2,-1.3282785E-2,-1.8510124E-2,5.741788E-4,6.675591E-2,1.2844703E-2,-3.6288407E-2,1.4509809E-2],"split_indices":[23,24,23,29,23,29,23,0,0,0,0,0,0,0,0],"split_type":[0,0,0,0,0,0,0,0,0,0,0,0,0,0,0],"sum_hessian":[1.5541256E3,1.2606322E3,2.9349347E2,2.0193925E2,1.0586929E3,8.5063866E1,2.084296E2,1.00310776E2,1.0162848E2,4.489627E2,6.097302E2,2.6123228E1,5.894064E1,2.8221144E1,1.8020845E2],"tree_param":{"num_deleted":"0","num_feature":"30","num_nodes":"15","size_leaf_vector":"1"}},{"base_weights":[2.5622442E-3,-6.8716235E-2,3.0016685E-1,1.0372039E0,-9.0739E-2,2.0702872E-1,8.7345886E-1,9.592271E-3,6.2062223E-2,1.800726E-2,-7.138309E-3,2.337837E-2,3.2311524E-5,5.2334737E-2,-8.463887E-3],"categories":[],"categories_nodes":[],"categories_segments":[],"categories_sizes":[],"default_left":[0,0,0,0,0,0,0,0,0,0,0,0,0,0,0],"id":8,"left_children":[1,3,5,7,9,11,13,-1,-1,-1,-1,-1,-1,-1,-1],"loss_changes":[3.289248E1,3.0364937E1,1.5517185E1,3.551815E0,2.8790964E1,1.3892302E1,7.8698864E0,0E0,0E0,0E0,0E0,0E0,0E0,0E0,0E0],"parents":[2147483647,0,0,1,1,2,2,3,3,4,4,5,5,6,6],"right_children":[2,4,6,8,10,12,14,-1,-1,-1,-1,-1,-1,-1,-1],"split_conditions":[1.7121429E-2,-4.3670774E-2,1.7232122E-2,3.3327885E1,-5.6119997E-2,2.1292321E-2,1.6827744E0,9.592271E-3,6.2062223E-2,1.800726E-2,-7.138309E-3,2.337837E-2,3.2311524E-5,5.2334737E-2,-8.463887E-3],"split_indices":[23,23,20,9,24,24,18,0,0,0,0,0,0,0,0],"split_type":[0,0,0,0,0,0,0,0,0,0,0,0,0,0,0],"sum_hessian":[1.5454548E3,1.2472185E3,2.9823636E2,2.2824228E1,1.2243943E3,2.5861224E2,3.9624096E1,5.194305E0,1.7629923E1,1.25349335E2,1.0990449E3,1.1304105E2,1.455712E2,3.4138565E1,5.4855304E0],"tree_param":{"num_deleted":"0","num_feature":"30","num_nodes":"15","size_leaf_vector":"1"}},{"base_weights":[1.2353334E-3,-6.751517E-2,2.9150847E-1,1.0494757E0,-9.024583E-2,6.246495E-1,1.4865392E-1,6.4114355E-2,1.889701E-2,-6.218572E-3,3.3622973E-2,6.621593E-2,1.5357259E-2,2.6154166E-2,-7.955157E-3],"categories":[],"categories_nodes":[],"categories_segments":[],"categories_sizes":[],"default_left":[0,0,0,0,0,0,0,0,0,0,0,0,0,0,0],"id":9,"left_children":[1,3,5,7,9,11,13,-1,-1,-1,-1,-1,-1,-1,-1],"loss_changes":[3.0714645E1,3.1484798E1,1.3738174E1,2.8048306E0,3.1738426E1,1.852396E1,2.4252472E1,0E0,0E0,0E0,0E0,0E0,0E0,0E0,0E0],"parents":[2147483647,0,0,1,1,2,2,3,3,4,4,5,5,6,6],"right_children":[2,4,6,8,10,12,14,-1,-1,-1,-1,-1,-1,-1,-1],"split_conditions":[1.7121429E-2,-4.3670774E-2,2.2074811E-2,1.2835219E0,8.397239E-2,2E0,2.1292321E-2,6.4114355E-2,1.889701E-2,-6.218572E-3,3.3622973E-2,6.621593E-2,1.5357259E-2,2.6154166E-2,-7.955157E-3],"split_indices":[23,23,23,18,24,29,24,0,0,0,0,0,0,0,0],"split_type":[0,0,0,0,0,0,0,0,0,0,0,0,0,0,0],"sum_hessian":[1.5338613E3,1.2405112E3,2.9335004E2,2.3214016E1,1.2172972E3,8.6101006E1,2.0724905E2,1.6003712E1,7.210305E0,1.1666171E3,5.0680157E1,2.5194544E1,6.090646E1,9.331667E1,1.1393238E2],"tree_param":{"num_deleted":"0","num_feature":"30","num_nodes":"15","size_leaf_vector":"1"}},{"base_weights":[1.3232017E-2,-3.6932435E-2,3.4928653E-1,6.357647E-3,-7.098053E-1,4.9861413E-1,-2.943408E-1,5.3755857E-2,-5.40434E-4,-5.2422937E-2,-0E0,-3.235415E-3,3.52974E-2,-3.539643E-2,2.7936518E-2],"categories":[],"categories_nodes":[],"categories_segments":[],"categories_sizes":[],"default_left":[0,0,0,0,0,0,0,0,0,0,0,0,0,0,0],"id":10,"left_children":[1,3,5,7,9,11,13,-1,-1,-1,-1,-1,-1,-1,-1],"loss_changes":[2.601014E1,3.915407E1,1.9524748E1,2.333561E1,1.9350643E1,1.9292389E1,1.4184081E1,0E0,0E0,0E0,0E0,0E0,0E0,0E0,0E0],"parents":[2147483647,0,0,1,1,2,2,3,3,4,4,5,5,6,6],"right_children":[2,4,6,8,10,12,14,-1,-1,-1,-1,-1,-1,-1,-1],"split_conditions":[5.9262604E-2,4.190047E-2,4E0,-4.3670774E-2,2.6407263E-1,1E0,9.636801E-2,5.3755857E-2,-5.40434E-4,-5.2422937E-2,-0E0,-3.235415E-3,3.52974E-2,-3.539643E-2,2.7936518E-2],"split_indices":[24,24,29,23,17,29,24,0,0,0,0,0,0,0,0],"split_type":[0,0,0,0,0,0,0,0,0,0,0,0,0,0,0],"sum_hessian":[1.5365433E3,1.3376117E3,1.9893164E2,1.2578735E3,7.97382E1,1.6199579E2,3.693585E1,1.8607294E1,1.2392662E3,5.3336937E1,2.640126E1,4.3600697E1,1.18395096E2,2.520538E1,1.1730469E1],"tree_param":{"num_deleted":"0","num_feature":"30","num_nodes":"15","size_leaf_vector":"1"}},{"base_weights":[4.413009E-3,-5.763846E-2,2.7278718E-1,1.145592E-1,-1.7120263E-1,6.103703E-1,1.3226515E-1,2.4723744E-2,-4.02446E-4,-7.6553295E-3,-6.5202884E-2,6.3845545E-2,1.4103884E-2,-3.386012E-2,1.3480722E-2],"categories":[],"categories_nodes":[],"categories_segments":[],"categories_sizes":[],"default_left":[0,0,0,0,0,0,0,0,0,0,0,0,0,0,0],"id":11,"left_children":[1,3,5,7,9,11,13,-1,-1,-1,-1,-1,-1,-1,-1],"loss_changes":[2.5665071E1,2.4468115E1,1.3465315E1,2.3235916E1,1.4866575E1,1.7586897E1,2.3181004E1,0E0,0E0,0E0,0E0,0E0,0E0,0E0,0E0],"parents":[2147483647,0,0,1,1,2,2,3,3,4,4,5,5,6,6],"right_children":[2,4,6,8,10,12,14,-1,-1,-1,-1,-1,-1,-1,-1],"split_conditions":[1.7121429E-2,-1.178302E0,2.2074811E-2,1E0,1.6108196E-2,2E0,2.4882281E-2,2.4723744E-2,-4.02446E-4,-7.6553295E-3,-6.5202884E-2,6.3845545E-2,1.4103884E-2,-3.386012E-2,1.3480722E-2],"split_indices":[23,12,23,29,23,29,23,0,0,0,0,0,0,0,0],"split_type":[0,0,0,0,0,0,0,0,0,0,0,0,0,0,0],"sum_hessian":[1.5356667E3,1.2476313E3,2.8803537E2,4.9511417E2,7.525173E2,8.2765366E1,2.0527002E2,1.2008828E2,3.7502588E2,7.425354E2,9.981865E0,2.5681015E1,5.7084347E1,2.8710842E1,1.7655917E2],"tree_param":{"num_deleted":"0","num_feature":"30","num_nodes":"15","size_leaf_vector":"1"}},{"base_weights":[1.3715575E-3,8.3629173E-1,-1.5972463E-2,1.0099216E0,2.1403614E-3,-4.4142533E-2,4.8165533E-1,2.4545763E-2,6.451692E-2,-4.3080333E-3,1.0247571E-2,2.8640522E-2,-3.1137044E-2],"categories":[],"categories_nodes":[],"categories_segments":[],"categories_sizes":[],"default_left":[0,0,0,0,0,0,0,0,0,0,0,0,0],"id":12,"left_children":[1,3,5,7,-1,9,11,-1,-1,-1,-1,-1,-1],"loss_changes":[2.2616568E1,4.1041183E0,2.1235558E1,2.4495907E0,0E0,1.5066105E1,8.691313E0,0E0,0E0,0E0,0E0,0E0,0E0],"parents":[2147483647,0,0,1,1,2,2,3,3,5,5,6,6],"right_children":[2,4,6,8,-1,10,12,-1,-1,-1,-1,-1,-1],"split_conditions":[-9.482626E-2,1.145801E0,1.7707501E-1,1.6495457E-2,2.1403614E-3,4.6648636E-2,5.3240263E-1,2.4545763E-2,6.451692E-2,-4.3080333E-3,1.0247571E-2,2.8640522E-2,-3.1137044E-2],"split_indices":[16,18,3,14,0,1,7,0,0,0,0,0,0],"split_type":[0,0,0,0,0,0,0,0,0,0,0,0,0],"sum_hessian":[1.5476101E3,3.028798E1,1.5173221E3,2.4307764E1,5.980214E0,1.4377043E3,7.9617744E1,1.0224001E1,1.4083763E1,1.2317177E3,2.059868E2,7.4381516E1,5.23623E0],"tree_param":{"num_deleted":"0","num_feature":"30","num_nodes":"13","size_leaf_vector":"1"}},{"base_weights":[-1.488071E-2,-1.0972517E-1,1.645775E-1,1.6131616E-1,-2.0514502E-1,-1.8400952E-2,3.7280178E-1,1.5344246E-2,-1.5503558E-2,-1.359829E-2,9.799913E-3,3.140435E-2,-3.8841832E-3,-5.5482923E-3,2.2149315E-2],"categories":[],"categories_nodes":[],"categories_segments":[],"categories_sizes":[],"default_left":[0,0,0,0,0,0,0,0,0,0,0,0,0,0,0],"id":13,"left_children":[1,3,5,7,9,11,13,-1,-1,-1,-1,-1,-1,-1,-1],"loss_changes":[2.6161942E1,2.6092236E1,2.0312984E1,1.814769E1,2.0083887E1,1.0830618E1,8.592842E0,0E0,0E0,0E0,0E0,0E0,0E0,0E0,0E0],"parents":[2147483647,0,0,1,1,2,2,3,3,4,4,5,5,6,6],"right_children":[2,4,6,8,10,12,14,-1,-1,-1,-1,-1,-1,-1,-1],"split_conditions":[7.3708748E-3,-4.2633668E-2,4.1990537E-2,4E0,2.3109145E-1,8.359331E-3,-3.6523093E-2,1.5344246E-2,-1.5503558E-2,-1.359829E-2,9.799913E-3,3.140435E-2,-3.8841832E-3,-5.5482923E-3,2.2149315E-2],"split_indices":[23,2,13,29,27,23,1,0,0,0,0,0,0,0,0],"split_type":[0,0,0,0,0,0,0,0,0,0,0,0,0,0,0],"sum_hessian":[1.5346268E3,1.0051159E3,5.295109E2,2.608985E2,7.442174E2,2.8205777E2,2.4745314E2,2.0006447E2,6.0834015E1,6.3879175E2,1.05425674E2,2.2199768E1,2.59858E2,3.0880287E1,2.1657285E2],"tree_param":{"num_deleted":"0","num_feature":"30","num_nodes":"15","size_leaf_vector":"1"}},{"base_weights":[1.0291474E-2,-5.564671E-2,2.938581E-1,-8.635474E-2,6.86138E-1,-3.886471E-2,3.294075E-1,1.6849978E-2,-6.9764205E-3,4.686803E-2,-5.1698983E-2,3.0823007E-2,6.4611584E-3],"categories":[],"categories_nodes":[],"categories_segments":[],"categories_sizes":[],"default_left":[0,0,0,0,0,0,0,0,0,0,0,0,0],"id":14,"left_children":[1,3,5,7,9,-1,11,-1,-1,-1,-1,-1,-1],"loss_changes":[2.9106274E1,2.8682377E1,1.148073E1,2.731518E1,2.3048677E1,0E0,1.6140835E1,0E0,0E0,0E0,0E0,0E0,0E0],"parents":[2147483647,0,0,1,1,2,2,3,3,4,4,6,6],"right_children":[2,4,6,8,10,-1,12,-1,-1,-1,-1,-1,-1],"split_conditions":[1.7121429E-2,8.397239E-2,-4.9022492E-2,-5.6119997E-2,1.1978022E-1,-3.886471E-2,2.1292321E-2,1.6849978E-2,-6.9764205E-3,4.686803E-2,-5.1698983E-2,3.0823007E-2,6.4611584E-3],"split_indices":[23,24,24,24,24,0,24,0,0,0,0,0,0],"split_type":[0,0,0,0,0,0,0,0,0,0,0,0,0],"sum_hessian":[1.5513027E3,1.2590372E3,2.922655E2,1.2105198E3,4.8517494E1,8.202069E0,2.8406345E2,1.3376347E2,1.0767562E3,4.30316E1,5.485891E0,1.1501721E2,1.6904623E2],"tree_param":{"num_deleted":"0","num_feature":"30","num_nodes":"13","size_leaf_vector":"1"}},{"base_weights":[-1.6454546E-2,4.2578804E-1,-4.7325976E-2,7.709308E-1,-9.215392E-1,-2.285024E-1,4.7636397E-2,1.5457168E-2,6.317224E-2,-6.971993E-2,-0E0,3.94138E-2,-1.7951293E-2,-3.135138E-2,3.6069364E-3],"categories":[],"categories_nodes":[],"categories_segments":[],"categories_sizes":[],"default_left":[0,0,0,0,0,0,0,0,0,0,0,0,0,0,0],"id":15,"left_children":[1,3,5,7,9,11,13,-1,-1,-1,-1,-1,-1,-1,-1],"loss_changes":[2.092896E1,4.7524803E1,2.4790043E1,1.741286E1,9.344309E0,6.609004E1,1.5559953E1,0E0,0E0,0E0,0E0,0E0,0E0,0E0,0E0],"parents":[2147483647,0,0,1,1,2,2,3,3,4,4,5,5,6,6],"right_children":[2,4,6,8,10,12,14,-1,-1,-1,-1,-1,-1,-1,-1],"split_conditions":[-2.8070001E-2,4E0,-4.175913E-3,-3.718927E-2,-3.2547213E-2,-5.6119997E-2,-5.5160023E-2,1.5457168E-2,6.317224E-2,-6.971993E-2,-0E0,3.94138E-2,-1.7951293E-2,-3.135138E-2,3.6069364E-3],"split_indices":[23,29,23,23,23,24,24,0,0,0,0,0,0,0,0],"split_type":[0,0,0,0,0,0,0,0,0,0,0,0,0,0,0],"sum_hessian":[1.5347885E3,9.847254E1,1.4363159E3,7.902021E1,1.9452333E1,4.9393878E2,9.4237714E2,4.2251892E1,3.6768314E1,1.2457255E1,6.9950786E0,5.515895E1,4.3877985E2,3.1446949E1,9.1093024E2],"tree_param":{"num_deleted":"0","num_feature":"30","num_nodes":"15","size_leaf_vector":"1"}},{"base_weights":[-1.0911019E-2,-1.1221466E-1,1.1508468E-1,1.7283715E-1,-1.9740632E-1,8.854465E-2,6.298115E-1,2.9406233E-2,5.861018E-4,-1.2262545E-2,2.0064002E-2,1.1673458E-2,-6.933031E-4,6.886162E-2,1.7818885E-2],"categories":[],"categories_nodes":[],"categories_segments":[],"categories_sizes":[],"default_left":[0,0,0,0,0,0,0,0,0,0,0,0,0,0,0],"id":16,"left_children":[1,3,5,7,9,11,13,-1,-1,-1,-1,-1,-1,-1,-1],"loss_changes":[1.9810606E1,2.096882E1,9.211596E0,1.3145258E1,1.9143398E1,9.832231E0,5.7153006E0,0E0,0E0,0E0,0E0,0E0,0E0,0E0,0E0],"parents":[2147483647,0,0,1,1,2,2,3,3,4,4,5,5,6,6],"right_children":[2,4,6,8,10,12,14,-1,-1,-1,-1,-1,-1,-1,-1],"split_conditions":[4.626121E-1,-3.9975002E-2,1.6126351E-1,1E0,5.9881724E-2,2E0,7.639019E1,2.9406233E-2,5.861018E-4,-1.2262545E-2,2.0064002E-2,1.1673458E-2,-6.933031E-4,6.886162E-2,1.7818885E-2],"split_indices":[21,5,6,29,1,29,9,0,0,0,0,0,0,0,0],"split_type":[0,0,0,0,0,0,0,0,0,0,0,0,0,0,0],"sum_hessian":[1.5491176E3,8.5967175E2,6.894458E2,1.9691203E2,6.627597E2,6.5768146E2,3.1764372E1,5.3582325E1,1.4332971E2,6.148435E2,4.791619E1,2.7233096E2,3.8535046E2,6.6902347E0,2.5074137E1],"tree_param":{"num_deleted":"0","num_feature":"30","num_nodes":"15","size_leaf_vector":"1"}},{"base_weights":[4.010635E-3,8.627929E-1,-1.0251207E-2,1.0848002E0,7.987556E-3,-9.9237606E-2,1.5553899E-1,6.2438793E-2,2.3776865E-2,8.97011E-3,-1.0360883E-2,-3.12648E-2,1.0830251E-2],"categories":[],"categories_nodes":[],"categories_segments":[],"categories_sizes":[],"default_left":[0,0,0,0,0,0,0,0,0,0,0,0,0],"id":17,"left_children":[1,3,5,7,-1,9,11,-1,-1,-1,-1,-1,-1],"loss_changes":[1.907056E1,3.4614086E0,2.240877E1,6.4829636E-1,0E0,2.9835373E1,2.5394812E1,0E0,0E0,0E0,0E0,0E0,0E0],"parents":[2147483647,0,0,1,1,2,2,3,3,5,5,6,6],"right_children":[2,4,6,8,-1,10,12,-1,-1,-1,-1,-1,-1],"split_conditions":[-4.3670774E-2,-4.0223864E-3,7.3708748E-3,1.2835219E0,7.987556E-3,-2.9998956E-2,-4.2253997E-2,6.2438793E-2,2.3776865E-2,8.97011E-3,-1.0360883E-2,-3.12648E-2,1.0830251E-2],"split_indices":[23,20,23,18,0,24,24,0,0,0,0,0,0],"split_type":[0,0,0,0,0,0,0,0,0,0,0,0,0],"sum_hessian":[1.5405532E3,2.3937313E1,1.516616E3,1.7357235E1,6.580079E0,9.880809E2,5.2853503E2,1.2177161E1,5.1800737E0,2.7516922E2,7.129117E2,3.709366E1,4.914414E2],"tree_param":{"num_deleted":"0","num_feature":"30","num_nodes":"13","size_leaf_vector":"1"}},{"base_weights":[9.748833E-3,-1.8738536E-2,5.0218093E-1,8.1958175E-1,-3.3344388E-2,1.1527547E0,9.4621256E-2,5.054456E-2,4.8571764E-3,-7.6201404E-3,2.3003712E-3,6.330133E-2,2.5574727E-2,4.240064E-2,-1.1206523E-2],"categories":[],"categories_nodes":[],"categories_segments":[],"categories_sizes":[],"default_left":[0,0,0,0,0,0,0,0,0,0,0,0,0,0,0],"id":18,"left_children":[1,3,5,7,9,11,13,-1,-1,-1,-1,-1,-1,-1,-1],"loss_changes":[2.1893364E1,1.786984E1,2.2218414E1,3.0833683E0,1.3687666E1,1.0376663E0,1.3450145E1,0E0,0E0,0E0,0E0,0E0,0E0,0E0,0E0],"parents":[2147483647,0,0,1,1,2,2,3,3,4,4,5,5,6,6],"right_children":[2,4,6,8,10,12,14,-1,-1,-1,-1,-1,-1,-1,-1],"split_conditions":[3.305564E-2,-4.3670774E-2,4.1595265E-2,-1.5095721E0,-4.175913E-3,8.765433E-1,9.781417E-2,5.054456E-2,4.8571764E-3,-7.6201404E-3,2.3003712E-3,6.330133E-2,2.5574727E-2,4.240064E-2,-1.1206523E-2],"split_indices":[23,23,23,12,23,21,27,0,0,0,0,0,0,0,0],"split_type":[0,0,0,0,0,0,0,0,0,0,0,0,0,0,0],"sum_hessian":[1.5512809E3,1.4674265E3,8.3854355E1,2.3478643E1,1.4439479E3,3.105267E1,5.280169E1,1.7870567E1,5.6080775E0,5.779455E2,8.660023E2,2.4883883E1,6.1687865E0,1.5144187E1,3.76575E1],"tree_param":{"num_deleted":"0","num_feature":"30","num_nodes":"15","size_leaf_vector":"1"}},{"base_weights":[-3.0266307E-2,9.7278655E-1,-4.5654066E-2,2.7692094E-2,5.732292E-2,-7.484526E-2,4.7865626E-1,-2.6510067E-3,-3.622162E-2,3.642809E-2,-1.5028621E-2],"categories":[],"categories_nodes":[],"categories_segments":[],"categories_sizes":[],"default_left":[0,0,0,0,0,0,0,0,0,0,0],"id":19,"left_children":[1,3,5,-1,-1,7,9,-1,-1,-1,-1],"loss_changes":[2.336447E1,3.7068367E-1,2.2932344E1,0E0,0E0,1.9956158E1,1.5789337E1,0E0,0E0,0E0,0E0],"parents":[2147483647,0,0,1,1,2,2,5,5,6,6],"right_children":[2,4,6,-1,-1,8,10,-1,-1,-1,-1],"split_conditions":[-4.3670774E-2,-6.6962436E-2,3.305564E-2,2.7692094E-2,5.732292E-2,2.835964E-2,5.4416236E-2,-2.6510067E-3,-3.622162E-2,3.642809E-2,-1.5028621E-2],"split_indices":[23,4,23,0,0,23,23,0,0,0,0],"split_type":[0,0,0,0,0,0,0,0,0,0,0],"sum_hessian":[1.5199568E3,2.1358759E1,1.498598E3,8.438316E0,1.2920442E1,1.4211426E3,7.7455376E1,1.3768141E3,4.4328514E1,5.8915012E1,1.8540367E1],"tree_param":{"num_deleted":"0","num_feature":"30","num_nodes":"11","size_leaf_vector":"1"}},{"base_weights":[1.9408658E-3,-4.5448665E-2,3.1609622E-1,-2.608986E-3,-7.5826377E-1,-7.121719E-1,3.877985E-1,-4.24653E-3,9.926754E-3,-5.3305984E-2,-2.072171E-2,-5.5461E-2,-3.6206965E-3,2.466512E-2,-6.789751E-3],"categories":[],"categories_nodes":[],"categories_segments":[],"categories_sizes":[],"default_left":[0,0,0,0,0,0,0,0,0,0,0,0,0,0,0],"id":20,"left_children":[1,3,5,7,9,11,13,-1,-1,-1,-1,-1,-1,-1,-1],"loss_changes":[2.2669497E1,4.013676E1,1.5070435E1,2.064146E1,6.930439E0,3.0373883E0,1.0546362E1,0E0,0E0,0E0,0E0,0E0,0E0,0E0,0E0],"parents":[2147483647,0,0,1,1,2,2,3,3,4,4,5,5,6,6],"right_children":[2,4,6,8,10,12,14,-1,-1,-1,-1,-1,-1,-1,-1],"split_conditions":[5.7838943E-2,4.190047E-2,-2.885454E-3,4.426533E-2,1.465057E-1,3.5867631E0,4E0,-4.24653E-3,9.926754E-3,-5.3305984E-2,-2.072171E-2,-5.5461E-2,-3.6206965E-3,2.466512E-2,-6.789751E-3],"split_indices":[24,24,11,22,27,12,29,0,0,0,0,0,0,0,0],"split_type":[0,0,0,0,0,0,0,0,0,0,0,0,0,0,0],"sum_hessian":[1.516119E3,1.3179552E3,1.981638E2,1.2449224E3,7.3032875E1,1.1862217E1,1.8630159E2,8.847034E2,3.6021893E2,3.656277E1,3.6470108E1,6.4474497E0,5.4147673E0,1.5544768E2,3.0853899E1],"tree_param":{"num_deleted":"0","num_feature":"30","num_nodes":"15","size_leaf_vector":"1"}},{"base_weights":[-6.4479467E-3,-6.438632E-2,2.3401591E-1,-9.01296E-2,5.529621E-1,1.6536991E-1,7.3966134E-1,6.7650313E-3,-8.485369E-3,4.8464704E-2,-1.3713307E-2,2.0976117E-2,-2.0715834E-3,4.6033245E-2,-4.73762E-5],"categories":[],"categories_nodes":[],"categories_segments":[],"categories_sizes":[],"default_left":[0,0,0,0,0,0,0,0,0,0,0,0,0,0,0],"id":21,"left_children":[1,3,5,7,9,11,13,-1,-1,-1,-1,-1,-1,-1,-1],"loss_changes":[2.1387783E1,1.968231E1,9.975031E0,2.1417006E1,1.759262E1,1.4006338E1,4.853735E0,0E0,0E0,0E0,0E0,0E0,0E0,0E0,0E0],"parents":[2147483647,0,0,1,1,2,2,3,3,4,4,5,5,6,6],"right_children":[2,4,6,8,10,12,14,-1,-1,-1,-1,-1,-1,-1,-1],"split_conditions":[1.7121429E-2,8.397239E-2,1.8887881E-2,-3.0107893E-2,1.0755161E-1,2.1292321E-2,6.748304E-2,6.7650313E-3,-8.485369E-3,4.8464704E-2,-1.3713307E-2,2.0976117E-2,-2.0715834E-3,4.6033245E-2,-4.73762E-5],"split_indices":[23,24,20,24,24,24,22,0,0,0,0,0,0,0,0],"split_type":[0,0,0,0,0,0,0,0,0,0,0,0,0,0,0],"sum_hessian":[1.5344587E3,1.2380804E3,2.9637823E2,1.1900603E3,4.8020237E1,2.6305252E2,3.3325695E1,3.0956165E2,8.804986E2,3.1932993E1,1.6087246E1,1.1775709E2,1.4529544E2,2.6704523E1,6.621171E0],"tree_param":{"num_deleted":"0","num_feature":"30","num_nodes":"15","size_leaf_vector":"1"}},{"base_weights":[1.8738955E-2,-8.903317E-2,1.3738503E-1,2.959275E-1,-2.3560444E-1,-3.0966023E-1,1.7432448E-1,2.869232E-2,-2.7329916E-2,-2.468202E-2,-5.550284E-4,1.9284712E-2,-4.891117E-2,2.0194104E-2,2.8793064E-3],"categories":[],"categories_nodes":[],"categories_segments":[],"categories_sizes":[],"default_left":[0,0,0,0,0,0,0,0,0,0,0,0,0,0,0],"id":22,"left_children":[1,3,5,7,9,11,13,-1,-1,-1,-1,-1,-1,-1,-1],"loss_changes":[1.9667933E1,4.5507748E1,1.2151279E1,5.2514053E1,3.373073E1,2.6736523E1,1.8042803E1,0E0,0E0,0E0,0E0,0E0,0E0,0E0,0E0],"parents":[2147483647,0,0,1,1,2,2,3,3,4,4,5,5,6,6],"right_children":[2,4,6,8,10,12,14,-1,-1,-1,-1,-1,-1,-1,-1],"split_conditions":[1.1168336E-3,-3.3760052E-2,-4.2253997E-2,4E0,-6.0581847E-4,2E0,-2.8067594E-4,2.869232E-2,-2.7329916E-2,-2.468202E-2,-5.550284E-4,1.9284712E-2,-4.891117E-2,2.0194104E-2,2.8793064E-3],"split_indices":[23,24,24,29,24,29,24,0,0,0,0,0,0,0,0],"split_type":[0,0,0,0,0,0,0,0,0,0,0,0,0,0,0],"sum_hessian":[1.5344596E3,8.0338965E2,7.3107E2,2.2073895E2,5.826507E2,5.4539417E1,6.765306E2,1.665243E2,5.4214645E1,2.6982977E2,3.128209E2,2.6898506E1,2.764091E1,2.2624103E2,4.5028955E2],"tree_param":{"num_deleted":"0","num_feature":"30","num_nodes":"15","size_leaf_vector":"1"}},{"base_weights":[1.594241E-2,8.0488765E-1,3.7861278E-3,9.9589443E-1,6.2331236E-3,-6.511603E-2,1.3164634E-1,5.9156723E-2,1.9302737E-2,1.0337349E-2,-8.519764E-3,-3.2334324E-2,9.751468E-3],"categories":[],"categories_nodes":[],"categories_segments":[],"categories_sizes":[],"default_left":[0,0,0,0,0,0,0,0,0,0,0,0,0],"id":23,"left_children":[1,3,5,7,-1,9,11,-1,-1,-1,-1,-1,-1],"loss_changes":[1.4502954E1,2.5719118E0,1.3312166E1,9.9664307E-1,0E0,2.8093876E1,2.6226322E1,0E0,0E0,0E0,0E0,0E0,0E0],"parents":[2147483647,0,0,1,1,2,2,3,3,5,5,6,6],"right_children":[2,4,6,8,-1,10,12,-1,-1,-1,-1,-1,-1],"split_conditions":[-4.3670774E-2,1E0,7.3708748E-3,1.2509195E0,6.2331236E-3,-2.9998956E-2,-4.2253997E-2,5.9156723E-2,1.9302737E-2,1.0337349E-2,-8.519764E-3,-3.2334324E-2,9.751468E-3],"split_indices":[23,29,23,18,0,24,24,0,0,0,0,0,0],"split_type":[0,0,0,0,0,0,0,0,0,0,0,0,0],"sum_hessian":[1.5280391E3,2.145318E1,1.5065858E3,1.59767885E1,5.476392E0,9.7847217E2,5.281137E2,1.089394E1,5.082849E0,2.7220657E2,7.0626556E2,3.8490997E1,4.8962268E2],"tree_param":{"num_deleted":"0","num_feature":"30","num_nodes":"13","size_leaf_vector":"1"}},{"base_weights":[-3.4443166E-3,3.0270448E-1,-3.88857E-2,9.279679E-1,1.8831423E-1,-6.3907646E-2,3.8106006E-1,5.7605733E-3,5.7356406E-2,-4.7946392E-4,3.5275605E-2,-2.1562993E-3,-3.0485779E-2,5.3812265E-2,5.4011284E-3],"categories":[],"categories_nodes":[],"categories_segments":[],"categories_sizes":[],"default_left":[0,0,0,0,0,0,0,0,0,0,0,0,0,0,0],"id":24,"left_children":[1,3,5,7,9,11,13,-1,-1,-1,-1,-1,-1,-1,-1],"loss_changes":[1.6709837E1,1.093739E1,1.4527111E1,3.83259E0,1.4188234E1,1.4676657E1,1.4328062E1,0E0,0E0,0E0,0E0,0E0,0E0,0E0,0E0],"parents":[2147483647,0,0,1,1,2,2,3,3,4,4,5,5,6,6],"right_children":[2,4,6,8,10,12,14,-1,-1,-1,-1,-1,-1,-1,-1],"split_conditions":[-6.572747E0,-7.132879E-2,3.305564E-2,-7.0514135E-2,2.1792439E-1,2.835964E-2,3.609297E-2,5.7605733E-3,5.7356406E-2,-4.7946392E-4,3.5275605E-2,-2.1562993E-3,-3.0485779E-2,5.3812265E-2,5.4011284E-3],"split_indices":[12,6,23,25,27,23,22,0,0,0,0,0,0,0,0],"split_type":[0,0,0,0,0,0,0,0,0,0,0,0,0,0,0],"sum_hessian":[1.5417649E3,1.5820534E2,1.3835596E3,2.2546743E1,1.3565858E2,1.3074072E3,7.615226E1,5.4683747E0,1.7078367E1,9.890031E1,3.6758286E1,1.2613656E3,4.604161E1,2.0023914E1,5.612834E1],"tree_param":{"num_deleted":"0","num_feature":"30","num_nodes":"15","size_leaf_vector":"1"}},{"base_weights":[3.833331E-5,-9.6031375E-2,1.1905496E-1,2.579934E-1,-1.4566328E-1,-7.110178E-2,2.1495365E-1,1.7306527E-2,-5.108858E-2,-9.702216E-3,1.4485577E-2,2.1857709E-2,-7.39332E-3,2.0746836E-2,3.7904147E-3],"categories":[],"categories_nodes":[],"categories_segments":[],"categories_sizes":[],"default_left":[0,0,0,0,0,0,0,0,0,0,0,0,0,0,0],"id":25,"left_children":[1,3,5,7,9,11,13,-1,-1,-1,-1,-1,-1,-1,-1],"loss_changes":[1.7549969E1,1.4937187E1,1.256739E1,1.2163734E1,1.5765043E1,9.032913E0,1.2580126E1,0E0,0E0,0E0,0E0,0E0,0E0,0E0,0E0],"parents":[2147483647,0,0,1,1,2,2,3,3,4,4,5,5,6,6],"right_children":[2,4,6,8,10,12,14,-1,-1,-1,-1,-1,-1,-1,-1],"split_conditions":[4.626121E-1,5.2871417E-2,2.0465499E-2,-3.520853E-2,5.9262604E-2,5.174014E-1,2E0,1.7306527E-2,-5.108858E-2,-9.702216E-3,1.4485577E-2,2.1857709E-2,-7.39332E-3,2.0746836E-2,3.7904147E-3],"split_indices":[21,16,14,3,24,21,29,0,0,0,0,0,0,0,0],"split_type":[0,0,0,0,0,0,0,0,0,0,0,0,0,0,0],"sum_hessian":[1.531505E3,8.466788E2,6.8482623E2,1.0283426E2,7.438445E2,2.2901552E2,4.5581073E2,9.737841E1,5.4558477E0,6.706134E2,7.323109E1,2.8784807E1,2.0023071E2,1.8521082E2,2.705999E2],"tree_param":{"num_deleted":"0","num_feature":"30","num_nodes":"15","size_leaf_vector":"1"}},{"base_weights":[5.42265E-3,-3.7800673E-2,2.4636205E-1,4.225586E-1,-5.9544854E-2,7.064774E-1,1.22030206E-1,3.8444545E-2,1.0087625E-3,-6.417238E-3,1.9484876E-3,4.9723934E-2,1.1194944E-2,9.8144375E-3,-1.9783542E-2],"categories":[],"categories_nodes":[],"categories_segments":[],"categories_sizes":[],"default_left":[0,0,0,0,0,0,0,0,0,0,0,0,0,0,0],"id":26,"left_children":[1,3,5,7,9,11,13,-1,-1,-1,-1,-1,-1,-1,-1],"loss_changes":[1.5848977E1,1.284256E1,1.2952799E1,7.872755E0,8.363056E0,6.178154E0,7.1682596E0,0E0,0E0,0E0,0E0,0E0,0E0,0E0,0E0],"parents":[2147483647,0,0,1,1,2,2,3,3,4,4,5,5,6,6],"right_children":[2,4,6,8,10,12,14,-1,-1,-1,-1,-1,-1,-1,-1],"split_conditions":[2.2500855E-1,-1.3883459E-2,1.5831225E-2,2E0,4.626121E-1,2.45E-1,3.7715578E-1,3.8444545E-2,1.0087625E-3,-6.417238E-3,1.9484876E-3,4.9723934E-2,1.1194944E-2,9.8144375E-3,-1.9783542E-2],"split_indices":[27,20,5,29,21,4,7,0,0,0,0,0,0,0,0],"split_type":[0,0,0,0,0,0,0,0,0,0,0,0,0,0,0],"sum_hessian":[1.5150153E3,1.2849382E3,2.3007692E2,5.6292286E1,1.228646E3,4.7108906E1,1.8296802E2,2.9251854E1,2.7040434E1,7.2435333E2,5.0429266E2,2.824613E1,1.8862778E1,1.6116785E2,2.1800169E1],"tree_param":{"num_deleted":"0","num_feature":"30","num_nodes":"15","size_leaf_vector":"1"}},{"base_weights":[-4.38789E-3,-4.5809835E-2,2.6834664E-1,-3.7332939E-3,-6.798513E-1,3.9326638E-1,-2.4460647E-1,-2.1777546E-3,1.7135795E-2,-4.4686243E-2,1.6092182E-3,-7.067407E-3,3.0242309E-2,3.8332928E-2,-2.73099E-2],"categories":[],"categories_nodes":[],"categories_segments":[],"categories_sizes":[],"default_left":[0,0,0,0,0,0,0,0,0,0,0,0,0,0,0],"id":27,"left_children":[1,3,5,7,9,11,13,-1,-1,-1,-1,-1,-1,-1,-1],"loss_changes":[1.7353483E1,3.5540966E1,1.3144788E1,1.7291224E1,1.284454E1,1.8734068E1,1.2860773E1,0E0,0E0,0E0,0E0,0E0,0E0,0E0,0E0],"parents":[2147483647,0,0,1,1,2,2,3,3,4,4,5,5,6,6],"right_children":[2,4,6,8,10,12,14,-1,-1,-1,-1,-1,-1,-1,-1],"split_conditions":[5.9262604E-2,4.190047E-2,4E0,2.9790062E-2,3.2460696E-1,1E0,1.230096E-1,-2.1777546E-3,1.7135795E-2,-4.4686243E-2,1.6092182E-3,-7.067407E-3,3.0242309E-2,3.8332928E-2,-2.73099E-2],"split_indices":[24,24,29,24,17,29,17,0,0,0,0,0,0,0,0],"split_type":[0,0,0,0,0,0,0,0,0,0,0,0,0,0,0],"sum_hessian":[1.5368953E3,1.3359738E3,2.0092154E2,1.2545435E3,8.14303E1,1.6216846E2,3.875308E1,1.126903E3,1.2764053E2,6.2542572E1,1.8887726E1,4.5855236E1,1.1631323E2,8.2187195E0,3.0534359E1],"tree_param":{"num_deleted":"0","num_feature":"30","num_nodes":"15","size_leaf_vector":"1"}},{"base_weights":[-8.533557E-3,6.5285116E-1,-2.2671923E-2,-1.5639335E-2,9.382385E-1,-1.4986815E-1,5.487908E-2,7.410965E-2,2.5693212E-2,-3.0274105E-3,-5.5930402E-2,3.9663292E-2,1.7583627E-3],"categories":[],"categories_nodes":[],"categories_segments":[],"categories_sizes":[],"default_left":[0,0,0,0,0,0,0,0,0,0,0,0,0],"id":28,"left_children":[1,3,5,-1,7,9,11,-1,-1,-1,-1,-1,-1],"loss_changes":[1.4235519E1,9.342298E0,1.4858443E1,0E0,4.2566833E0,4.9044765E1,1.3385553E1,0E0,0E0,0E0,0E0,0E0,0E0],"parents":[2147483647,0,0,1,1,2,2,4,4,5,5,6,6],"right_children":[2,4,6,-1,8,10,12,-1,-1,-1,-1,-1,-1],"split_conditions":[-9.482626E-2,-3.765176E-2,-4.175913E-3,-1.5639335E-2,-2.8070001E-2,-5.5691004E-3,-3.7543976E-3,7.410965E-2,2.5693212E-2,-3.0274105E-3,-5.5930402E-2,3.9663292E-2,1.7583627E-3],"split_indices":[16,23,23,0,23,23,23,0,0,0,0,0,0],"split_type":[0,0,0,0,0,0,0,0,0,0,0,0,0],"sum_hessian":[1.5319731E3,3.0349113E1,1.501624E3,6.730602E0,2.3618511E1,5.6920905E2,9.32415E2,8.505748E0,1.5112764E1,5.228055E2,4.64036E1,2.2449942E1,9.09965E2],"tree_param":{"num_deleted":"0","num_feature":"30","num_nodes":"13","size_leaf_vector":"1"}},{"base_weights":[8.918403E-3,-4.2690422E-2,1.9828574E-1,-8.7351836E-2,3.0478528E-1,-2.1252467E-1,2.681003E-1,-2.6589225E-3,-3.7168894E-2,-3.294505E-2,1.8866604E-2,-2.0256003E-3,-5.0802488E-2,1.6459359E-2,-1.2692111E-2],"categories":[],"categories_nodes":[],"categories_segments":[],"categories_sizes":[],"default_left":[0,0,0,0,0,0,0,0,0,0,0,0,0,0,0],"id":29,"left_children":[1,3,5,7,9,11,13,-1,-1,-1,-1,-1,-1,-1,-1],"loss_changes":[1.4929507E1,1.8577684E1,9.483726E0,2.3604515E1,9.838127E0,6.3562927E0,9.094563E0,0E0,0E0,0E0,0E0,0E0,0E0,0E0,0E0],"parents":[2147483647,0,0,1,1,2,2,3,3,4,4,5,5,6,6],"right_children":[2,4,6,8,10,12,14,-1,-1,-1,-1,-1,-1,-1,-1],"split_conditions":[2.4166393E-1,5.9262604E-2,4.5945194E-2,4.190047E-2,-2.885454E-3,-5.313658E-3,3.5510188E-1,-2.6589225E-3,-3.7168894E-2,-3.294505E-2,1.8866604E-2,-2.0256003E-3,-5.0802488E-2,1.6459359E-2,-1.2692111E-2],"split_indices":[17,24,27,24,11,24,7,0,0,0,0,0,0,0,0],"split_type":[0,0,0,0,0,0,0,0,0,0,0,0,0,0,0],"sum_hessian":[1.5216405E3,1.1958403E3,3.258001E2,1.0611483E3,1.3469202E2,4.646351E1,2.793366E2,1.0104395E3,5.0708862E1,8.38802E0,1.2630399E2,3.97736E1,6.689906E0,2.5090807E2,2.8428532E1],"tree_param":{"num_deleted":"0","num_feature":"30","num_nodes":"15","size_leaf_vector":"1"}},{"base_weights":[3.4259092E-3,-8.157912E-2,1.1016174E-1,2.8319442E-1,-1.3354525E-1,8.05233E-2,6.5813637E-1,-2.5407726E-2,2.2708094E-2,-1.0032532E-2,3.8154132E-3,7.4499846E-3,-5.453364E-3,4.4608533E-2,-7.9177035E-4],"categories":[],"categories_nodes":[],"categories_segments":[],"categories_sizes":[],"default_left":[0,0,0,0,0,0,0,0,0,0,0,0,0,0,0],"id":30,"left_children":[1,3,5,7,9,11,13,-1,-1,-1,-1,-1,-1,-1,-1],"loss_changes":[1.3829786E1,1.608525E1,1.0759892E1,1.4627614E1,1.051115E1,8.391045E0,5.584156E0,0E0,0E0,0E0,0E0,0E0,0E0,0E0,0E0],"parents":[2147483647,0,0,1,1,2,2,3,3,4,4,5,5,6,6],"right_children":[2,4,6,8,10,12,14,-1,-1,-1,-1,-1,-1,-1,-1],"split_conditions":[4.626121E-1,5.2871417E-2,2.051652E-1,-3.718927E-2,1.5231477E-1,4.757906E-2,3.230922E-1,-2.5407726E-2,2.2708094E-2,-1.0032532E-2,3.8154132E-3,7.4499846E-3,-5.453364E-3,4.4608533E-2,-7.9177035E-4],"split_indices":[21,16,3,23,27,2,3,0,0,0,0,0,0,0,0],"split_type":[0,0,0,0,0,0,0,0,0,0,0,0,0,0,0],"sum_hessian":[1.5206498E3,8.456494E2,6.7500037E2,1.0413765E2,7.415118E2,6.423432E2,3.265717E1,1.776793E1,8.636972E1,5.626202E2,1.7889162E2,4.729125E2,1.6943066E2,2.4099741E1,8.557426E0],"tree_param":{"num_deleted":"0","num_feature":"30","num_nodes":"15","size_leaf_vector":"1"}},{"base_weights":[2.3890743E-2,8.4055895E-1,1.1188189E-2,1.0732836E-2,1.0051316E0,6.6472E-1,-6.537201E-4,6.338343E-2,2.0365188E-2,-1.151964E-2,4.536077E-2,-6.1899736E-3,3.5770235E-3],"categories":[],"categories_nodes":[],"categories_segments":[],"categories_sizes":[],"default_left":[0,0,0,0,0,0,0,0,0,0,0,0,0],"id":31,"left_children":[1,3,5,-1,7,9,11,-1,-1,-1,-1,-1,-1],"loss_changes":[1.5685501E1,1.8189716E0,1.1805106E1,0E0,1.6662235E0,6.3405914E0,1.3203793E1,0E0,0E0,0E0,0E0,0E0,0E0],"parents":[2147483647,0,0,1,1,2,2,4,4,5,5,6,6],"right_children":[2,4,6,-1,8,10,12,-1,-1,-1,-1,-1,-1],"split_conditions":[-4.3670774E-2,3.4177216E1,-9.482626E-2,1.0732836E-2,2.2652524E-3,-3.367322E-2,-4.175913E-3,6.338343E-2,2.0365188E-2,-1.151964E-2,4.536077E-2,-6.1899736E-3,3.5770235E-3],"split_indices":[23,9,16,0,11,23,23,0,0,0,0,0,0],"split_type":[0,0,0,0,0,0,0,0,0,0,0,0,0],"sum_hessian":[1.5283153E3,2.166911E1,1.5066462E3,5.484028E0,1.6185081E1,2.5643106E1,1.481003E3,9.845975E0,6.339106E0,5.306299E0,2.0336807E1,5.4798016E2,9.3302295E2],"tree_param":{"num_deleted":"0","num_feature":"30","num_nodes":"13","size_leaf_vector":"1"}},{"base_weights":[5.9504635E-3,2.7446297E-1,-2.5354419E-2,7.830346E-2,5.8786553E-1,-6.460566E-2,2.2047135E-1,2.2713227E-2,-9.168057E-3,1.7389614E-2,4.5709353E-2,-1.1731084E-3,-3.3869635E-2,1.7881429E-2,-1.7301327E-2],"categories":[],"categories_nodes":[],"categories_segments":[],"categories_sizes":[],"default_left":[0,0,0,0,0,0,0,0,0,0,0,0,0,0,0],"id":32,"left_children":[1,3,5,7,9,11,13,-1,-1,-1,-1,-1,-1,-1,-1],"loss_changes":[1.2769823E1,9.552101E0,1.3063004E1,9.988192E0,4.0069637E0,2.9338264E1,1.4654116E1,0E0,0E0,0E0,0E0,0E0,0E0,0E0,0E0],"parents":[2147483647,0,0,1,1,2,2,3,3,4,4,5,5,6,6],"right_children":[2,4,6,8,10,12,14,-1,-1,-1,-1,-1,-1,-1,-1],"split_conditions":[-6.3456817E0,2.1255958E-1,5.9262604E-2,-4.961695E-2,-1.8148122E-2,4.190047E-2,4E0,2.2713227E-2,-9.168057E-3,1.7389614E-2,4.5709353E-2,-1.1731084E-3,-3.3869635E-2,1.7881429E-2,-1.7301327E-2],"split_indices":[12,17,24,1,1,24,29,0,0,0,0,0,0,0,0],"split_type":[0,0,0,0,0,0,0,0,0,0,0,0,0,0,0],"sum_hessian":[1.5105078E3,1.5716745E2,1.3533405E3,9.82103E1,5.8957153E1,1.1686588E3,1.8468155E2,4.0163467E1,5.804683E1,3.6105835E1,2.2851316E1,1.0968954E3,7.17635E1,1.494127E2,3.5268845E1],"tree_param":{"num_deleted":"0","num_feature":"30","num_nodes":"15","size_leaf_vector":"1"}},{"base_weights":[-9.098815E-3,6.3974416E-1,-2.2572951E-2,1.728442E-1,5.4864537E-2,-1.1262679E-1,7.879925E-2,3.486636E-2,-2.6985401E-2,1.7563235E-2,-7.3249512E-3,1.11783E-2,-1.2100327E-3],"categories":[],"categories_nodes":[],"categories_segments":[],"categories_sizes":[],"default_left":[0,0,0,0,0,0,0,0,0,0,0,0,0],"id":33,"left_children":[1,3,5,7,-1,9,11,-1,-1,-1,-1,-1,-1],"loss_changes":[1.3228201E1,6.034374E0,1.367195E1,7.0334373E0,0E0,1.2506048E1,1.0535629E1,0E0,0E0,0E0,0E0,0E0,0E0],"parents":[2147483647,0,0,1,1,2,2,3,3,5,5,6,6],"right_children":[2,4,6,8,-1,10,12,-1,-1,-1,-1,-1,-1],"split_conditions":[-9.482626E-2,2E0,4.4519547E-1,-6.1696522E-2,5.4864537E-2,-1.2831728E1,2E0,3.486636E-2,-2.6985401E-2,1.7563235E-2,-7.3249512E-3,1.11783E-2,-1.2100327E-3],"split_indices":[16,29,21,24,0,12,29,0,0,0,0,0,0],"split_type":[0,0,0,0,0,0,0,0,0,0,0,0,0],"sum_hessian":[1.5232152E3,2.9267859E1,1.4939474E3,1.57250805E1,1.3542779E1,7.9209625E2,7.018511E2,9.238038E0,6.487042E0,5.254297E1,7.395533E2,2.9184616E2,4.100049E2],"tree_param":{"num_deleted":"0","num_feature":"30","num_nodes":"13","size_leaf_vector":"1"}},{"base_weights":[-1.6749519E-3,-4.7770407E-2,1.6663928E-1,-8.823959E-2,2.6347128E-1,3.2812428E-1,-8.175326E-2,-2.748884E-3,-3.7814572E-2,-1.0358778E-2,2.0043753E-2,-6.3951886E-3,2.1889998E-2,6.527183E-3,-2.2427194E-2],"categories":[],"categories_nodes":[],"categories_segments":[],"categories_sizes":[],"default_left":[0,0,0,0,0,0,0,0,0,0,0,0,0,0,0],"id":34,"left_children":[1,3,5,7,9,11,13,-1,-1,-1,-1,-1,-1,-1,-1],"loss_changes":[1.1831238E1,1.5119556E1,1.3228956E1,2.3417282E1,9.082994E0,1.0114046E1,1.0256482E1,0E0,0E0,0E0,0E0,0E0,0E0,0E0,0E0],"parents":[2147483647,0,0,1,1,2,2,3,3,4,4,5,5,6,6],"right_children":[2,4,6,8,10,12,14,-1,-1,-1,-1,-1,-1,-1,-1],"split_conditions":[2.4166393E-1,5.9262604E-2,3E0,4.190047E-2,1E0,-1.2500376E-2,6.01424E-1,-2.748884E-3,-3.7814572E-2,-1.0358778E-2,2.0043753E-2,-6.3951886E-3,2.1889998E-2,6.527183E-3,-2.2427194E-2],"split_indices":[17,24,29,24,29,23,21,0,0,0,0,0,0,0,0],"split_type":[0,0,0,0,0,0,0,0,0,0,0,0,0,0,0],"sum_hessian":[1.52496E3,1.1988883E3,3.260716E2,1.0624595E3,1.3642891E2,1.978009E2,1.2827068E2,1.01390076E3,4.8558704E1,3.0328384E1,1.0610053E2,3.7946728E1,1.5985419E2,8.151246E1,4.675822E1],"tree_param":{"num_deleted":"0","num_feature":"30","num_nodes":"15","size_leaf_vector":"1"}},{"base_weights":[-1.1983257E-3,6.131672E-1,-1.1835756E-2,-6.489068E-3,9.028991E-1,-4.2010378E-2,1.7848188E-1,8.088214E-3,5.7505786E-2,-9.843465E-4,-4.029407E-2,1.2477811E-2,-2.3999443E-2],"categories":[],"categories_nodes":[],"categories_segments":[],"categories_sizes":[],"default_left":[0,0,0,0,0,0,0,0,0,0,0,0,0],"id":35,"left_children":[1,3,5,-1,7,9,11,-1,-1,-1,-1,-1,-1],"loss_changes":[9.872563E0,5.863414E0,8.616424E0,0E0,2.9168234E0,2.1972157E1,9.731983E0,0E0,0E0,0E0,0E0,0E0,0E0],"parents":[2147483647,0,0,1,1,2,2,4,4,5,5,6,6],"right_children":[2,4,6,-1,8,10,12,-1,-1,-1,-1,-1,-1],"split_conditions":[-2.411725E1,1.9150684E-2,5.7838943E-2,-6.489068E-3,-4.3823555E1,4.7978565E-2,7.813581E-2,8.088214E-3,5.7505786E-2,-9.843465E-4,-4.029407E-2,1.2477811E-2,-2.3999443E-2],"split_indices":[12,15,24,0,12,24,22,0,0,0,0,0,0],"split_type":[0,0,0,0,0,0,0,0,0,0,0,0,0],"sum_hessian":[1.5258956E3,2.4204388E1,1.5016913E3,6.8295174E0,1.737487E1,1.298099E3,2.0359221E2,5.1690407E0,1.220583E1,1.2629897E3,3.5109264E1,1.8487257E2,1.871963E1],"tree_param":{"num_deleted":"0","num_feature":"30","num_nodes":"13","size_leaf_vector":"1"}},{"base_weights":[-3.5128726E-3,-8.891588E-2,9.019314E-2,1.794821E-1,-2.1816924E-1,-3.5738885E-1,1.2784722E-1,2.3089753E-2,-3.1423822E-2,-2.7938087E-2,8.346419E-4,8.0138035E-3,-4.632947E-2,1.344874E-2,-2.5347671E-3],"categories":[],"categories_nodes":[],"categories_segments":[],"categories_sizes":[],"default_left":[0,0,0,0,0,0,0,0,0,0,0,0,0,0,0],"id":36,"left_children":[1,3,5,7,9,11,13,-1,-1,-1,-1,-1,-1,-1,-1],"loss_changes":[1.2216049E1,2.7809906E1,1.2271315E1,5.9767323E1,4.3394928E1,1.6988995E1,1.6994217E1,0E0,0E0,0E0,0E0,0E0,0E0,0E0,0E0],"parents":[2147483647,0,0,1,1,2,2,3,3,4,4,5,5,6,6],"right_children":[2,4,6,8,10,12,14,-1,-1,-1,-1,-1,-1,-1,-1],"split_conditions":[1.1168336E-3,-2.9998956E-2,-4.2253997E-2,4E0,-2.1599457E-3,2E0,2.5253346E-2,2.3089753E-2,-3.1423822E-2,-2.7938087E-2,8.346419E-4,8.0138035E-3,-4.632947E-2,1.344874E-2,-2.5347671E-3],"split_indices":[23,24,24,29,24,29,24,0,0,0,0,0,0,0,0],"split_type":[0,0,0,0,0,0,0,0,0,0,0,0,0,0,0],"sum_hessian":[1.5235054E3,7.982222E2,7.252832E2,2.5876328E2,5.39459E2,5.4881054E1,6.704021E2,1.9241927E2,6.6344E1,2.1967435E2,3.197846E2,2.9122013E1,2.575904E1,3.746351E2,2.9576703E2],"tree_param":{"num_deleted":"0","num_feature":"30","num_nodes":"15","size_leaf_vector":"1"}},{"base_weights":[3.6699912E-3,-6.0832392E-2,1.2736863E-1,1.6945381E-1,-1.5506615E-1,8.87255E-1,6.0898807E-2,1.941946E-2,-2.3674117E-2,-1.0294664E-2,1.8932326E-2,-9.637155E-3,5.41943E-2,-3.625184E-2,6.0806205E-3],"categories":[],"categories_nodes":[],"categories_segments":[],"categories_sizes":[],"default_left":[0,0,0,0,0,0,0,0,0,0,0,0,0,0,0],"id":37,"left_children":[1,3,5,7,9,11,13,-1,-1,-1,-1,-1,-1,-1,-1],"loss_changes":[1.2067306E1,2.156277E1,2.5935026E1,4.081845E1,1.9215519E1,9.279198E0,2.286546E1,0E0,0E0,0E0,0E0,0E0,0E0,0E0,0E0],"parents":[2147483647,0,0,1,1,2,2,3,3,4,4,5,5,6,6],"right_children":[2,4,6,8,10,12,14,-1,-1,-1,-1,-1,-1,-1,-1],"split_conditions":[7.3708748E-3,-2.9998956E-2,8.359331E-3,4E0,5.7838943E-2,2.9034587E-2,-4.2253997E-2,1.941946E-2,-2.3674117E-2,-1.0294664E-2,1.8932326E-2,-9.637155E-3,5.41943E-2,-3.625184E-2,6.0806205E-3],"split_indices":[23,24,23,29,24,13,24,0,0,0,0,0,0,0,0],"split_type":[0,0,0,0,0,0,0,0,0,0,0,0,0,0,0],"sum_hessian":[1.5077859E3,9.9045886E2,5.173271E2,2.8664438E2,7.0381445E2,3.9880455E1,4.774466E2,2.1450513E2,7.213926E1,6.4379944E2,6.0014984E1,5.9904366E0,3.389002E1,3.2824715E1,4.446219E2],"tree_param":{"num_deleted":"0","num_feature":"30","num_nodes":"15","size_leaf_vector":"1"}},{"base_weights":[1.9576663E-2,6.697076E-1,8.970933E-3,8.2374704E-1,1.5399534E-3,-6.1599857E-1,2.1342946E-2,3.613427E-3,5.3572662E-2,-1.512205E-3,-7.192001E-2,2.4152417E-2,-7.6310016E-4],"categories":[],"categories_nodes":[],"categories_segments":[],"categories_sizes":[],"default_left":[0,0,0,0,0,0,0,0,0,0,0,0,0],"id":38,"left_children":[1,3,5,7,-1,9,11,-1,-1,-1,-1,-1,-1],"loss_changes":[1.0408232E1,2.1770191E0,1.155897E1,3.2334833E0,0E0,1.3613404E1,2.512193E1,0E0,0E0,0E0,0E0,0E0,0E0],"parents":[2147483647,0,0,1,1,2,2,3,3,5,5,6,6],"right_children":[2,4,6,8,-1,10,12,-1,-1,-1,-1,-1,-1],"split_conditions":[-4.3670774E-2,1.441698E0,-3.718927E-2,-6.994787E-2,1.5399534E-3,-3.8763165E-2,-5.6119997E-2,3.613427E-3,5.3572662E-2,-1.512205E-3,-7.192001E-2,2.4152417E-2,-7.6310016E-4],"split_indices":[23,18,23,24,0,23,24,0,0,0,0,0,0],"split_type":[0,0,0,0,0,0,0,0,0,0,0,0,0],"sum_hessian":[1.5290012E3,2.274359E1,1.5062577E3,1.7723503E1,5.0200877E0,2.7504879E1,1.4787528E3,5.0743203E0,1.2649182E1,1.7113888E1,1.0390991E1,1.07683914E2,1.3710688E3],"tree_param":{"num_deleted":"0","num_feature":"30","num_nodes":"13","size_leaf_vector":"1"}},{"base_weights":[-4.9017803E-3,-2.7502043E-2,4.110042E-1,-8.223776E-3,-6.1373895E-1,7.73336E-1,5.0220035E-2,-2.8617932E-3,1.0632991E-2,6.4295502E-3,-4.537051E-2,-3.9807052E-4,5.012169E-2,2.3072641E-2,-1.5918044E-2],"categories":[],"categories_nodes":[],"categories_segments":[],"categories_sizes":[],"default_left":[0,0,0,0,0,0,0,0,0,0,0,0,0,0,0],"id":39,"left_children":[1,3,5,7,9,11,13,-1,-1,-1,-1,-1,-1,-1,-1],"loss_changes":[1.4320737E1,1.6288382E1,1.0037281E1,1.5235662E1,1.033857E1,7.152111E0,6.4951053E0,0E0,0E0,0E0,0E0,0E0,0E0,0E0,0E0],"parents":[2147483647,0,0,1,1,2,2,3,3,4,4,5,5,6,6],"right_children":[2,4,6,8,10,12,14,-1,-1,-1,-1,-1,-1,-1,-1],"split_conditions":[3.305564E-2,2.835964E-2,5.28622E-1,3.874162E-1,-2.3163127E-2,-6.2127106E-2,4.5337677E-2,-2.8617932E-3,1.0632991E-2,6.4295502E-3,-4.537051E-2,-3.9807052E-4,5.012169E-2,2.3072641E-2,-1.5918044E-2],"split_indices":[23,23,19,19,3,4,23,0,0,0,0,0,0,0,0],"split_type":[0,0,0,0,0,0,0,0,0,0,0,0,0,0,0],"sum_hessian":[1.528406E3,1.4514178E3,7.698812E1,1.4070109E3,4.4407032E1,3.7279316E1,3.970881E1,1.1531532E3,2.538576E2,1.2633857E1,3.1773176E1,8.58309E0,2.8696226E1,1.8846298E1,2.086251E1],"tree_param":{"num_deleted":"0","num_feature":"30","num_nodes":"15","size_leaf_vector":"1"}},{"base_weights":[-1.4545502E-2,-3.4796175E-2,3.624437E-1,-1.7901292E-2,-6.042096E-1,8.4936863E-1,-4.4473443E-2,3.3775803E-2,-1.490922E-3,-6.1061536E-3,-5.2858975E-2,-7.437117E-3,5.2023094E-2,-1.5202037E-2,3.412805E-2],"categories":[],"categories_nodes":[],"categories_segments":[],"categories_sizes":[],"default_left":[0,0,0,0,0,0,0,0,0,0,0,0,0,0,0],"id":40,"left_children":[1,3,5,7,9,11,13,-1,-1,-1,-1,-1,-1,-1,-1],"loss_changes":[1.1678033E1,1.3898728E1,1.5656564E1,1.16287365E1,8.669069E0,7.233185E0,8.472766E0,0E0,0E0,0E0,0E0,0E0,0E0,0E0,0E0],"parents":[2147483647,0,0,1,1,2,2,3,3,4,4,5,5,6,6],"right_children":[2,4,6,8,10,12,14,-1,-1,-1,-1,-1,-1,-1,-1],"split_conditions":[3.305564E-2,2.8760906E-2,4.3381962E-1,-4.3670774E-2,1.0198248E-2,-7.967343E-2,8.940315E-2,3.3775803E-2,-1.490922E-3,-6.1061536E-3,-5.2858975E-2,-7.437117E-3,5.2023094E-2,-1.5202037E-2,3.412805E-2],"split_indices":[23,23,19,23,6,4,24,0,0,0,0,0,0,0,0],"split_type":[0,0,0,0,0,0,0,0,0,0,0,0,0,0,0],"sum_hessian":[1.5342883E3,1.4578684E3,7.642002E1,1.4177025E3,4.01658E1,3.4271088E1,4.2148933E1,2.2258335E1,1.3954442E3,2.0593983E1,1.9571815E1,5.3922615E0,2.8878826E1,3.1905699E1,1.0243236E1],"tree_param":{"num_deleted":"0","num_feature":"30","num_nodes":"15","size_leaf_vector":"1"}},{"base_weights":[7.3386193E-4,4.7171786E-1,-1.9422559E-2,-3.0537686E-1,6.672847E-1,-1.0760431E-1,8.2986504E-2,1.6172243E-2,-4.3208033E-2,5.431379E-2,1.178565E-2,-6.908548E-3,1.677297E-2,2.6962731E-3,3.212795E-2],"categories":[],"categories_nodes":[],"categories_segments":[],"categories_sizes":[],"default_left":[0,0,0,0,0,0,0,0,0,0,0,0,0,0,0],"id":41,"left_children":[1,3,5,7,9,11,13,-1,-1,-1,-1,-1,-1,-1,-1],"loss_changes":[1.4480701E1,9.894128E0,1.3142132E1,5.240527E0,8.519922E0,1.0628446E1,1.0739639E1,0E0,0E0,0E0,0E0,0E0,0E0,0E0,0E0],"parents":[2147483647,0,0,1,1,2,2,3,3,4,4,5,5,6,6],"right_children":[2,4,6,8,10,12,14,-1,-1,-1,-1,-1,-1,-1,-1],"split_conditions":[-2.3587232E-2,-3.765176E-2,4.626121E-1,-4.145102E-2,-1.8116472E-2,5.8644287E-2,2.051652E-1,1.6172243E-2,-4.3208033E-2,5.431379E-2,1.178565E-2,-6.908548E-3,1.677297E-2,2.6962731E-3,3.212795E-2],"split_indices":[16,23,21,23,23,1,3,0,0,0,0,0,0,0,0],"split_type":[0,0,0,0,0,0,0,0,0,0,0,0,0,0,0],"sum_hessian":[1.5128755E3,6.1116558E1,1.4517589E3,1.1913351E1,4.920321E1,7.810737E2,6.706852E2,5.7342234E0,6.179127E0,2.3575752E1,2.5627457E1,7.3205347E2,4.902023E1,6.394763E2,3.1208822E1],"tree_param":{"num_deleted":"0","num_feature":"30","num_nodes":"15","size_leaf_vector":"1"}},{"base_weights":[-1.0942509E-5,2.4905413E-1,-2.4829505E-2,-5.339964E-2,8.8664246E-1,-6.4573474E-2,1.7562546E-1,1.2668765E-2,-3.385664E-2,6.677271E-3,5.446899E-2,-5.247096E-3,1.0034372E-2,1.2094061E-2,-2.151796E-2],"categories":[],"categories_nodes":[],"categories_segments":[],"categories_sizes":[],"default_left":[0,0,0,0,0,0,0,0,0,0,0,0,0,0,0],"id":42,"left_children":[1,3,5,7,9,11,13,-1,-1,-1,-1,-1,-1,-1,-1],"loss_changes":[9.430395E0,2.6883022E1,1.1106049E1,1.8504322E1,6.3703194E0,1.2496483E1,9.36652E0,0E0,0E0,0E0,0E0,0E0,0E0,0E0,0E0],"parents":[2147483647,0,0,1,1,2,2,3,3,4,4,5,5,6,6],"right_children":[2,4,6,8,10,12,14,-1,-1,-1,-1,-1,-1,-1,-1],"split_conditions":[-5.6119997E-2,-6.2563814E-2,2.693749E-1,3E0,-3.2868607E-3,5.9262604E-2,3.7715578E-1,1.2668765E-2,-3.385664E-2,6.677271E-3,5.446899E-2,-5.247096E-3,1.0034372E-2,1.2094061E-2,-2.151796E-2],"split_indices":[24,24,17,29,20,24,7,0,0,0,0,0,0,0,0],"split_type":[0,0,0,0,0,0,0,0,0,0,0,0,0,0,0],"sum_hessian":[1.5298533E3,1.3667267E2,1.3931807E3,9.341835E1,4.325432E1,1.1643424E3,2.2883826E2,6.3001774E1,3.0416576E1,9.911434E0,3.3342884E1,1.0119938E3,1.5234863E2,2.0739401E2,2.1444252E1],"tree_param":{"num_deleted":"0","num_feature":"30","num_nodes":"15","size_leaf_vector":"1"}},{"base_weights":[1.9379037E-2,2.4105385E-1,-1.443043E-2,4.6300274E-1,-1.8420364E-1,-5.409757E-2,2.0106643E-1,2.611127E-2,-1.7963853E-2,4.5858018E-2,-2.2027778E-2,-8.3609455E-4,-2.9697228E-2,1.3424138E-2,-1.928546E-2],"categories":[],"categories_nodes":[],"categories_segments":[],"categories_sizes":[],"default_left":[0,0,0,0,0,0,0,0,0,0,0,0,0,0,0],"id":43,"left_children":[1,3,5,7,9,11,13,-1,-1,-1,-1,-1,-1,-1,-1],"loss_changes":[1.1457487E1,1.9276083E1,1.1280891E1,6.822361E0,2.0311916E1,2.241681E1,8.238462E0,0E0,0E0,0E0,0E0,0E0,0E0,0E0,0E0],"parents":[2147483647,0,0,1,1,2,2,3,3,4,4,5,5,6,6],"right_children":[2,4,6,8,10,12,14,-1,-1,-1,-1,-1,-1,-1,-1],"split_conditions":[-4.4924885E-2,3E0,5.7838943E-2,2.2541288E-2,2.0058254E-2,4.190047E-2,7.681015E-2,2.611127E-2,-1.7963853E-2,4.5858018E-2,-2.2027778E-2,-8.3609455E-4,-2.9697228E-2,1.3424138E-2,-1.928546E-2],"split_indices":[5,29,24,0,15,24,22,0,0,0,0,0,0,0,0],"split_type":[0,0,0,0,0,0,0,0,0,0,0,0,0,0,0],"sum_hessian":[1.5205E3,2.0078116E2,1.3197189E3,1.3214807E2,6.863309E1,1.1162914E3,2.034275E2,1.2400734E2,8.14073E0,1.2081327E1,5.655176E1,1.0458033E3,7.0488045E1,1.8349927E2,1.9928242E1],"tree_param":{"num_deleted":"0","num_feature":"30","num_nodes":"15","size_leaf_vector":"1"}},{"base_weights":[5.6908815E-3,-1.0839866E-2,3.1235763E-1,8.658453E-3,-6.285055E-1,6.8411344E-1,-1.0402789E-1,-5.274216E-4,1.9928573E-2,2.6829138E-2,-4.254025E-2,-1.8786138E-2,4.42253E-2,2.4032889E-2,-3.496557E-2],"categories":[],"categories_nodes":[],"categories_segments":[],"categories_sizes":[],"default_left":[0,0,0,0,0,0,0,0,0,0,0,0,0,0,0],"id":44,"left_children":[1,3,5,7,9,11,13,-1,-1,-1,-1,-1,-1,-1,-1],"loss_changes":[7.7945857E0,1.7565216E1,1.2397627E1,1.0601377E1,1.2306936E1,9.521349E0,1.3825279E1,0E0,0E0,0E0,0E0,0E0,0E0,0E0,0E0],"parents":[2147483647,0,0,1,1,2,2,3,3,4,4,5,5,6,6],"right_children":[2,4,6,8,10,12,14,-1,-1,-1,-1,-1,-1,-1,-1],"split_conditions":[3.305564E-2,2.835964E-2,4.5337677E-2,2.102654E0,1.7965747E-2,-2.1820689E-2,1.1563507E0,-5.274216E-4,1.9928573E-2,2.6829138E-2,-4.254025E-2,-1.8786138E-2,4.42253E-2,2.4032889E-2,-3.496557E-2],"split_indices":[23,23,23,19,14,8,18,0,0,0,0,0,0,0,0],"split_type":[0,0,0,0,0,0,0,0,0,0,0,0,0,0,0],"sum_hessian":[1.5231688E3,1.4460167E3,7.715214E1,1.402886E3,4.3130787E1,4.050472E1,3.664742E1,1.3379269E3,6.495901E1,6.4268436E0,3.6703945E1,6.0733795E0,3.443134E1,1.8464502E1,1.8182917E1],"tree_param":{"num_deleted":"0","num_feature":"30","num_nodes":"15","size_leaf_vector":"1"}},{"base_weights":[1.2647364E-3,3.2300785E-1,-1.991055E-2,6.000656E-1,-7.2721165E-1,-1.6592924E-1,5.848327E-2,7.346898E-3,5.472001E-2,-6.431887E-2,1.3230388E-2,-3.7944776E-3,-5.029416E-2,3.7232045E-2,1.9929907E-3],"categories":[],"categories_nodes":[],"categories_segments":[],"categories_sizes":[],"default_left":[0,0,0,0,0,0,0,0,0,0,0,0,0,0,0],"id":45,"left_children":[1,3,5,7,9,11,13,-1,-1,-1,-1,-1,-1,-1,-1],"loss_changes":[1.0473436E1,2.825988E1,1.6445246E1,1.6559067E1,1.2000659E1,3.7638374E1,1.1720439E1,0E0,0E0,0E0,0E0,0E0,0E0,0E0,0E0],"parents":[2147483647,0,0,1,1,2,2,3,3,4,4,5,5,6,6],"right_children":[2,4,6,8,10,12,14,-1,-1,-1,-1,-1,-1,-1,-1],"split_conditions":[-2.8070001E-2,4E0,-4.175913E-3,-3.718927E-2,-3.2547213E-2,-5.5691004E-3,-3.7543976E-3,7.346898E-3,5.472001E-2,-6.431887E-2,1.3230388E-2,-3.7944776E-3,-5.029416E-2,3.7232045E-2,1.9929907E-3],"split_indices":[23,29,23,23,23,23,23,0,0,0,0,0,0,0,0],"split_type":[0,0,0,0,0,0,0,0,0,0,0,0,0,0,0],"sum_hessian":[1.5254583E3,9.346033E1,1.4319979E3,7.46107E1,1.8849627E1,5.0054462E2,9.314533E2,4.015417E1,3.445653E1,1.1897978E1,6.9516478E0,4.5377536E2,4.6769268E1,2.278417E1,9.086691E2],"tree_param":{"num_deleted":"0","num_feature":"30","num_nodes":"15","size_leaf_vector":"1"}},{"base_weights":[9.724336E-3,6.178583E-1,-7.9868536E-4,-7.232416E-3,8.660329E-1,-9.795893E-2,5.8706973E-2,3.4776386E-3,5.648564E-2,-1.0713249E-3,-5.0070554E-2,3.7350282E-2,1.9546081E-3],"categories":[],"categories_nodes":[],"categories_segments":[],"categories_sizes":[],"default_left":[0,0,0,0,0,0,0,0,0,0,0,0,0],"id":46,"left_children":[1,3,5,-1,7,9,11,-1,-1,-1,-1,-1,-1],"loss_changes":[9.854766E0,5.288043E0,8.66492E0,0E0,3.8784637E0,3.917527E1,1.2319075E1,0E0,0E0,0E0,0E0,0E0,0E0],"parents":[2147483647,0,0,1,1,2,2,4,4,5,5,6,6],"right_children":[2,4,6,-1,8,10,12,-1,-1,-1,-1,-1,-1],"split_conditions":[-2.411725E1,-4.3823555E1,-4.175913E-3,-7.232416E-3,1.9150684E-2,-5.5691004E-3,-3.7543976E-3,3.4776386E-3,5.648564E-2,-1.0713249E-3,-5.0070554E-2,3.7350282E-2,1.9546081E-3],"split_indices":[12,12,23,0,15,23,23,0,0,0,0,0,0],"split_type":[0,0,0,0,0,0,0,0,0,0,0,0,0],"sum_hessian":[1.5190496E3,2.4688946E1,1.4943606E3,6.018178E0,1.8670767E1,5.685043E2,9.258564E2,5.303874E0,1.3366894E1,5.257264E2,4.2777912E1,2.3829762E1,9.020266E2],"tree_param":{"num_deleted":"0","num_feature":"30","num_nodes":"13","size_leaf_vector":"1"}},{"base_weights":[-3.5565193E-3,6.345559E-1,-1.3248488E-2,-0E0,8.3640283E-1,-7.0011765E-1,-3.1870411E-4,4.9354035E-2,1.9391058E-2,-1.0782456E-2,-6.534323E-2,2.2989552E-2,-1.821906E-3],"categories":[],"categories_nodes":[],"categories_segments":[],"categories_sizes":[],"default_left":[0,0,0,0,0,0,0,0,0,0,0,0,0],"id":47,"left_children":[1,3,5,-1,7,9,11,-1,-1,-1,-1,-1,-1],"loss_changes":[9.185608E0,2.948842E0,1.302654E1,0E0,2.999115E-1,7.240692E0,2.415387E1,0E0,0E0,0E0,0E0,0E0,0E0],"parents":[2147483647,0,0,1,1,2,2,4,4,5,5,6,6],"right_children":[2,4,6,-1,8,10,12,-1,-1,-1,-1,-1,-1],"split_conditions":[-4.3670774E-2,3.4177216E1,-3.718927E-2,-0E0,-4.7901034E-2,-3.8763165E-2,-5.6119997E-2,4.9354035E-2,1.9391058E-2,-1.0782456E-2,-6.534323E-2,2.2989552E-2,-1.821906E-3],"split_indices":[23,9,23,0,23,23,24,0,0,0,0,0,0],"split_type":[0,0,0,0,0,0,0,0,0,0,0,0,0],"sum_hessian":[1.5018004E3,2.071321E1,1.4810872E3,5.2124157E0,1.55007925E1,2.5606434E1,1.4554808E3,9.921615E0,5.579178E0,1.5551666E1,1.0054768E1,1.0425749E2,1.3512233E3],"tree_param":{"num_deleted":"0","num_feature":"30","num_nodes":"13","size_leaf_vector":"1"}},{"base_weights":[4.636399E-3,6.4494E-1,-6.3824547E-3,1.9069158E-1,9.548085E-1,-2.039105E-2,5.209686E-1,-1.8177595E-2,3.4569938E-2,2.5933862E-2,6.276172E-2,-2.5672019E-3,9.805906E-3,4.9588617E-2,1.4894294E-3],"categories":[],"categories_nodes":[],"categories_segments":[],"categories_sizes":[],"default_left":[0,0,0,0,0,0,0,0,0,0,0,0,0,0,0],"id":48,"left_children":[1,3,5,7,9,11,13,-1,-1,-1,-1,-1,-1,-1,-1],"loss_changes":[1.0775428E1,3.1347237E0,1.08783655E1,3.943214E0,5.9786224E-1,9.685757E0,8.558867E0,0E0,0E0,0E0,0E0,0E0,0E0,0E0,0E0],"parents":[2147483647,0,0,1,1,2,2,3,3,4,4,5,5,6,6],"right_children":[2,4,6,8,10,12,14,-1,-1,-1,-1,-1,-1,-1,-1],"split_conditions":[-2.411725E1,-1.5578863E-2,2.6797645E-2,1.388067E-1,6.9790316E-4,1.7263E-1,8.772509E-3,-1.8177595E-2,3.4569938E-2,2.5933862E-2,6.276172E-2,-2.5672019E-3,9.805906E-3,4.9588617E-2,1.4894294E-3],"split_indices":[12,6,20,21,20,4,25,0,0,0,0,0,0,0,0],"split_type":[0,0,0,0,0,0,0,0,0,0,0,0,0,0,0],"sum_hessian":[1.5067806E3,2.433835E1,1.4824424E3,1.1114172E1,1.3224178E1,1.4458557E3,3.6586575E1,5.280511E0,5.833661E0,7.3334975E0,5.8906803E0,1.2668151E3,1.7904074E2,1.7692303E1,1.8894274E1],"tree_param":{"num_deleted":"0","num_feature":"30","num_nodes":"15","size_leaf_vector":"1"}},{"base_weights":[4.8858887E-3,-1.4049505E-1,4.8362933E-2,6.168212E-2,-2.8052208E-1,1.1836545E-1,-5.3808585E-2,-1.1082019E-2,2.0248597E-2,-2.0425288E-2,1.18578775E-2,2.9601317E-3,1.6838973E-2,7.593044E-3,-6.7907088E-3],"categories":[],"categories_nodes":[],"categories_segments":[],"categories_sizes":[],"default_left":[0,0,0,0,0,0,0,0,0,0,0,0,0,0,0],"id":49,"left_children":[1,3,5,7,9,11,13,-1,-1,-1,-1,-1,-1,-1,-1],"loss_changes":[9.638124E0,9.9969845E0,8.44058E0,1.41898365E1,1.396236E1,8.937289E0,8.096589E0,0E0,0E0,0E0,0E0,0E0,0E0,0E0,0E0],"parents":[2147483647,0,0,1,1,2,2,3,3,4,4,5,5,6,6],"right_children":[2,4,6,8,10,12,14,-1,-1,-1,-1,-1,-1,-1,-1],"split_conditions":[6.602477E-1,-2.5019942E-2,1.0931438E0,2.8840438E-1,2.2500855E-1,4.8126746E-2,4.5576313E1,-1.1082019E-2,2.0248597E-2,-2.0425288E-2,1.18578775E-2,2.9601317E-3,1.6838973E-2,7.593044E-3,-6.7907088E-3],"split_indices":[18,2,18,21,27,3,9,0,0,0,0,0,0,0,0],"split_type":[0,0,0,0,0,0,0,0,0,0,0,0,0,0,0],"sum_hessian":[1.5246456E3,3.4915952E2,1.1754861E3,1.4263205E2,2.0652747E2,6.9857745E2,4.769086E2,7.811306E1,6.451898E1,1.6615288E2,4.0374584E1,5.519032E2,1.4667432E2,1.3488966E2,3.4201895E2],"tree_param":{"num_deleted":"0","num_feature":"30","num_nodes":"15","size_leaf_vector":"1"}},{"base_weights":[1.1687085E-2,1.2267129E-1,-4.7289334E-2,1.0293708E-1,4.5520213E-2,-9.97512E-2,1.481731E-1,1.6253933E-2,1.2144592E-3,-6.356293E-3,1.3247094E-2,-2.788934E-2,1.03086E-2],"categories":[],"categories_nodes":[],"categories_segments":[],"categories_sizes":[],"default_left":[0,0,0,0,0,0,0,0,0,0,0,0,0],"id":50,"left_children":[1,3,5,7,-1,9,11,-1,-1,-1,-1,-1,-1],"loss_changes":[9.880005E0,7.8042336E0,1.009455E1,8.885115E0,0E0,7.7785673E0,8.61243E0,0E0,0E0,0E0,0E0,0E0,0E0],"parents":[2147483647,0,0,1,1,2,2,3,3,5,5,6,6],"right_children":[2,4,6,8,-1,10,12,-1,-1,-1,-1,-1,-1],"split_conditions":[-1.178302E0,8.571439E-1,4.931262E0,-4.317996E-2,4.5520213E-2,8.397239E-2,1.8285334E-2,1.6253933E-2,1.2144592E-3,-6.356293E-3,1.3247094E-2,-2.788934E-2,1.03086E-2],"split_indices":[12,21,12,24,0,24,22,0,0,0,0,0,0],"split_type":[0,0,0,0,0,0,0,0,0,0,0,0,0],"sum_hessian":[1.5043132E3,5.22612E2,9.817012E2,5.1174182E2,1.0870202E1,7.753547E2,2.063465E2,1.319121E2,3.798297E2,7.226375E2,5.271721E1,1.4422491E1,1.91924E2],"tree_param":{"num_deleted":"0","num_feature":"30","num_nodes":"13","size_leaf_vector":"1"}},{"base_weights":[2.2056436E-3,3.5581756E-1,-1.3872298E-2,-3.4694725E-1,5.405593E-1,-9.091969E-2,7.0426814E-2,3.006406E-2,-4.888625E-2,4.4031244E-2,-2.9489524E-3,-7.7179186E-3,6.4407885E-3,2.0526955E-3,2.9929314E-2],"categories":[],"categories_nodes":[],"categories_segments":[],"categories_sizes":[],"default_left":[0,0,0,0,0,0,0,0,0,0,0,0,0,0,0],"id":51,"left_children":[1,3,5,7,9,11,13,-1,-1,-1,-1,-1,-1,-1,-1],"loss_changes":[8.60343E0,8.866725E0,9.337973E0,9.564853E0,1.1035472E1,1.0517002E1,1.0464255E1,0E0,0E0,0E0,0E0,0E0,0E0,0E0,0E0],"parents":[2147483647,0,0,1,1,2,2,3,3,4,4,5,5,6,6],"right_children":[2,4,6,8,10,12,14,-1,-1,-1,-1,-1,-1,-1,-1],"split_conditions":[-2.3587232E-2,-3.718927E-2,4.4519547E-1,-4.3670774E-2,-1.0222282E-2,2.9790062E-2,2.051652E-1,3.006406E-2,-4.888625E-2,4.4031244E-2,-2.9489524E-3,-7.7179186E-3,6.4407885E-3,2.0526955E-3,2.9929314E-2],"split_indices":[16,23,21,23,23,24,3,0,0,0,0,0,0,0,0],"split_type":[0,0,0,0,0,0,0,0,0,0,0,0,0,0,0],"sum_hessian":[1.4984312E3,6.432982E1,1.4341013E3,1.2891278E1,5.143854E1,7.5045654E2,6.8364484E2,5.051137E0,7.8401413E0,3.25858E1,1.885274E1,5.8338654E2,1.6707E2,6.49518E2,3.4126835E1],"tree_param":{"num_deleted":"0","num_feature":"30","num_nodes":"15","size_leaf_vector":"1"}},{"base_weights":[-4.2772933E-4,-3.5819572E-1,1.768558E-2,4.2686157E-2,-4.7219843E-1,5.9427124E-1,7.6204566E-3,-3.6231548E-2,-4.5547905E-4,2.0514878E-3,6.80076E-2,-3.4917423E-3,4.1907257E-3],"categories":[],"categories_nodes":[],"categories_segments":[],"categories_sizes":[],"default_left":[0,0,0,0,0,0,0,0,0,0,0,0,0],"id":52,"left_children":[1,3,5,-1,7,9,11,-1,-1,-1,-1,-1,-1],"loss_changes":[9.866411E0,1.0668598E1,8.221842E0,0E0,7.8158293E0,9.941801E0,8.367215E0,0E0,0E0,0E0,0E0,0E0,0E0],"parents":[2147483647,0,0,1,1,2,2,4,4,5,5,6,6],"right_children":[2,4,6,-1,8,10,12,-1,-1,-1,-1,-1,-1],"split_conditions":[1.508908E-2,-3.942353E-2,-2.411725E1,4.2686157E-2,6.622689E-3,1.3127927E-1,3.2507314E-4,-3.6231548E-2,-4.5547905E-4,2.0514878E-3,6.80076E-2,-3.4917423E-3,4.1907257E-3],"split_indices":[22,2,12,0,6,27,23,0,0,0,0,0,0],"split_type":[0,0,0,0,0,0,0,0,0,0,0,0,0],"sum_hessian":[1.5090339E3,7.189364E1,1.4371403E3,5.1937375E0,6.66999E1,2.2822239E1,1.414318E3,4.2340687E1,2.4359211E1,1.4319734E1,8.502505E0,7.001146E2,7.1420337E2],"tree_param":{"num_deleted":"0","num_feature":"30","num_nodes":"13","size_leaf_vector":"1"}},{"base_weights":[3.249718E-3,-3.0040573E-2,2.2515322E-1,5.439167E-1,-4.3386877E-2,5.006621E-1,9.23674E-3,-1.0755858E-2,3.771015E-2,-2.8074167E-3,2.6863972E-2,-7.616208E-3,2.9012445E-2,-2.0179316E-2,8.967419E-3],"categories":[],"categories_nodes":[],"categories_segments":[],"categories_sizes":[],"default_left":[0,0,0,0,0,0,0,0,0,0,0,0,0,0,0],"id":53,"left_children":[1,3,5,7,9,11,13,-1,-1,-1,-1,-1,-1,-1,-1],"loss_changes":[1.1317886E1,1.0100214E1,1.1785753E1,5.1277113E0,9.571484E0,4.7612133E0,8.072023E0,0E0,0E0,0E0,0E0,0E0,0E0,0E0,0E0],"parents":[2147483647,0,0,1,1,2,2,3,3,4,4,5,5,6,6],"right_children":[2,4,6,8,10,12,14,-1,-1,-1,-1,-1,-1,-1,-1],"split_conditions":[1.7263E-1,-9.482626E-2,2.45E-1,-3.765176E-2,2.6797645E-2,1.5249566E-2,3.2651156E-1,-1.0755858E-2,3.771015E-2,-2.8074167E-3,2.6863972E-2,-7.616208E-3,2.9012445E-2,-2.0179316E-2,8.967419E-3],"split_indices":[4,16,4,23,20,14,27,0,0,0,0,0,0,0,0],"split_type":[0,0,0,0,0,0,0,0,0,0,0,0,0,0,0],"sum_hessian":[1.5239316E3,1.3254772E3,1.984544E2,2.8425447E1,1.2970518E3,8.591836E1,1.1253605E2,5.952867E0,2.247258E1,1.270822E3,2.62298E1,8.912234E0,7.700613E1,3.1896334E1,8.063972E1],"tree_param":{"num_deleted":"0","num_feature":"30","num_nodes":"15","size_leaf_vector":"1"}},{"base_weights":[1.4133247E-2,-3.7591746E-3,2.6982528E-1,-4.537284E-2,1.4968085E-1,5.524494E-1,-1.7753454E-1,-1.0645159E-4,-1.4811943E-2,1.0354308E-2,-2.408945E-2,3.5608698E-2,1.834929E-3,-4.330922E-2,4.855191E-3],"categories":[],"categories_nodes":[],"categories_segments":[],"categories_sizes":[],"default_left":[0,0,0,0,0,0,0,0,0,0,0,0,0,0,0],"id":54,"left_children":[1,3,5,7,9,11,13,-1,-1,-1,-1,-1,-1,-1,-1],"loss_changes":[6.938633E0,8.97353E0,1.2759186E1,1.1970566E1,1.0951763E1,4.869587E0,7.7036867E0,0E0,0E0,0E0,0E0,0E0,0E0,0E0,0E0],"parents":[2147483647,0,0,1,1,2,2,3,3,4,4,5,5,6,6],"right_children":[2,4,6,8,10,12,14,-1,-1,-1,-1,-1,-1,-1,-1],"split_conditions":[8.397239E-2,2.4166393E-1,4.426533E-2,1.7977592E-2,3.5510188E-1,9.107148E1,2.920396E-2,-1.0645159E-4,-1.4811943E-2,1.0354308E-2,-2.408945E-2,3.5608698E-2,1.834929E-3,-4.330922E-2,4.855191E-3],"split_indices":[24,17,22,8,7,10,7,0,0,0,0,0,0,0,0],"split_type":[0,0,0,0,0,0,0,0,0,0,0,0,0,0,0],"sum_hessian":[1.5031938E3,1.4055352E3,9.765861E1,1.1075282E3,2.9800702E2,5.9906666E1,3.775194E1,9.4665546E2,1.608727E2,2.743879E2,2.3619097E1,4.5008713E1,1.4897951E1,1.0049757E1,2.7702185E1],"tree_param":{"num_deleted":"0","num_feature":"30","num_nodes":"15","size_leaf_vector":"1"}},{"base_weights":[-6.104394E-3,7.0014495E-1,-1.6139973E-2,4.6430945E-2,-0E0,-4.0614877E-2,2.2647484E-1,-3.5341035E-3,5.5486313E-3,1.8592866E-2,-1.608579E-2],"categories":[],"categories_nodes":[],"categories_segments":[],"categories_sizes":[],"default_left":[0,0,0,0,0,0,0,0,0,0,0],"id":55,"left_children":[1,3,5,-1,-1,7,9,-1,-1,-1,-1],"loss_changes":[1.0591164E1,3.1758976E0,8.834901E0,0E0,0E0,6.189201E0,1.1042753E1,0E0,0E0,0E0,0E0],"parents":[2147483647,0,0,1,1,2,2,5,5,6,6],"right_children":[2,4,6,-1,-1,8,10,-1,-1,-1,-1],"split_conditions":[-4.3670774E-2,-3.551697E-3,1.19497245E-2,4.6430945E-2,-0E0,2.666801E-1,4.8539653E-2,-3.5341035E-3,5.5486313E-3,1.8592866E-2,-1.608579E-2],"split_indices":[23,20,20,0,0,17,25,0,0,0,0],"split_type":[0,0,0,0,0,0,0,0,0,0,0],"sum_hessian":[1.5097285E3,1.9427792E1,1.4903007E3,1.4079552E1,5.34824E0,1.3556195E3,1.3468121E2,1.1330085E3,2.2261089E2,1.071199E2,2.7561317E1],"tree_param":{"num_deleted":"0","num_feature":"30","num_nodes":"11","size_leaf_vector":"1"}},{"base_weights":[1.1441743E-2,-0E0,4.8073924E-1,2.7575698E-1,-1.4907914E-2,7.6477873E-1,-4.565814E-2,2.0866798E-2,-1.6312031E-2,2.860069E-2,-1.1973277E-3,4.4987556E-3,4.6741784E-2,2.1775922E-2,-2.8902685E-2],"categories":[],"categories_nodes":[],"categories_segments":[],"categories_sizes":[],"default_left":[0,0,0,0,0,0,0,0,0,0,0,0,0,0,0],"id":56,"left_children":[1,3,5,7,9,11,13,-1,-1,-1,-1,-1,-1,-1,-1],"loss_changes":[7.999832E0,6.0814E0,5.498994E0,6.6913514E0,7.307741E0,2.35038E0,3.8898084E0,0E0,0E0,0E0,0E0,0E0,0E0,0E0,0E0],"parents":[2147483647,0,0,1,1,2,2,3,3,4,4,5,5,6,6],"right_children":[2,4,6,8,10,12,14,-1,-1,-1,-1,-1,-1,-1,-1],"split_conditions":[2.6797645E-2,1.0750132E1,5.98604E-2,1.1739095E0,-2.411725E1,2.7493602E-2,3.9194074E-2,2.0866798E-2,-1.6312031E-2,2.860069E-2,-1.1973277E-3,4.4987556E-3,4.6741784E-2,2.1775922E-2,-2.8902685E-2],"split_indices":[20,10,22,18,12,14,20,0,0,0,0,0,0,0,0],"split_type":[0,0,0,0,0,0,0,0,0,0,0,0,0,0,0],"sum_hessian":[1.5011808E3,1.4672148E3,3.3965992E1,7.439919E1,1.3928156E3,2.1867264E1,1.2098729E1,6.0874866E1,1.35243225E1,1.937158E1,1.373444E3,5.0999274E0,1.6767336E1,6.3011055E0,5.797623E0],"tree_param":{"num_deleted":"0","num_feature":"30","num_nodes":"15","size_leaf_vector":"1"}},{"base_weights":[6.6174157E-3,-1.718219E-1,3.256463E-2,4.0489938E-2,-2.1592252E-1,1.7894723E-1,4.252425E-4,-1.6543178E-2,1.2043137E-2,2.668185E-2,3.8306718E-3,-2.1853732E-2,9.526901E-4],"categories":[],"categories_nodes":[],"categories_segments":[],"categories_sizes":[],"default_left":[0,0,0,0,0,0,0,0,0,0,0,0,0],"id":57,"left_children":[1,3,5,-1,7,9,11,-1,-1,-1,-1,-1,-1],"loss_changes":[6.966527E0,8.403758E0,6.1719785E0,0E0,9.797476E0,8.398386E0,8.76842E0,0E0,0E0,0E0,0E0,0E0,0E0],"parents":[2147483647,0,0,1,1,2,2,4,4,5,5,6,6],"right_children":[2,4,6,-1,8,10,12,-1,-1,-1,-1,-1,-1],"split_conditions":[1.9067489E-2,-4.8493337E-2,1.1036856E-1,4.0489938E-2,4.4165887E-3,-4.052711E-3,1.3530981E-2,-1.6543178E-2,1.2043137E-2,2.668185E-2,3.8306718E-3,-2.1853732E-2,9.526901E-4],"split_indices":[22,24,17,0,11,11,14,0,0,0,0,0,0],"split_type":[0,0,0,0,0,0,0,0,0,0,0,0,0],"sum_hessian":[1.5073513E3,1.8931165E2,1.3180396E3,6.8246756E0,1.8248697E2,2.3493338E2,1.0831062E3,1.464796E2,3.6007366E1,5.075158E1,1.841818E2,4.242016E1,1.040686E3],"tree_param":{"num_deleted":"0","num_feature":"30","num_nodes":"13","size_leaf_vector":"1"}},{"base_weights":[4.974526E-3,-8.942048E-2,6.0725644E-2,2.0907108E-1,-1.3447286E-1,-2.2919644E-2,1.9508673E-1,-3.6669254E-2,3.3272922E-2,4.191254E-2,-7.8054145E-3,-2.4072004E-2,-7.4948104E-5,1.2560034E-2,-9.561524E-3],"categories":[],"categories_nodes":[],"categories_segments":[],"categories_sizes":[],"default_left":[0,0,0,0,0,0,0,0,0,0,0,0,0,0,0],"id":58,"left_children":[1,3,5,7,9,11,13,-1,-1,-1,-1,-1,-1,-1,-1],"loss_changes":[7.861458E0,7.47437E0,1.0617728E1,3.1957563E1,1.0217446E1,5.6032495E0,7.934758E0,0E0,0E0,0E0,0E0,0E0,0E0,0E0,0E0],"parents":[2147483647,0,0,1,1,2,2,3,3,4,4,5,5,6,6],"right_children":[2,4,6,8,10,12,14,-1,-1,-1,-1,-1,-1,-1,-1],"split_conditions":[2.7226856E-1,-5.6119997E-2,4.2256534E-2,-3.718927E-2,-4.0635116E-2,1.3244576E-2,8.2120575E1,-3.6669254E-2,3.3272922E-2,4.191254E-2,-7.8054145E-3,-2.4072004E-2,-7.4948104E-5,1.2560034E-2,-9.561524E-3],"split_indices":[21,24,13,23,23,22,10,0,0,0,0,0,0,0,0],"split_type":[0,0,0,0,0,0,0,0,0,0,0,0,0,0,0],"sum_hessian":[1.4918704E3,5.5228156E2,9.395888E2,7.112793E1,4.8115366E2,5.7893414E2,3.6065466E2,2.2766228E1,4.8361702E1,9.036015E0,4.721176E2,2.3984472E1,5.549497E2,3.1582263E2,4.4832016E1],"tree_param":{"num_deleted":"0","num_feature":"30","num_nodes":"15","size_leaf_vector":"1"}},{"base_weights":[1.8236466E-2,3.4383646E-1,3.357396E-3,4.3118188E-1,-2.4596801E-2,-2.590364E-2,1.5188693E-1,2.6541967E-2,-2.0754037E-2,5.9828535E-3,-3.2445197E-3,1.6296191E-2,-1.5141802E-3],"categories":[],"categories_nodes":[],"categories_segments":[],"categories_sizes":[],"default_left":[0,0,0,0,0,0,0,0,0,0,0,0,0],"id":59,"left_children":[1,3,5,7,-1,9,11,-1,-1,-1,-1,-1,-1],"loss_changes":[7.194344E0,5.046374E0,6.2733145E0,5.397599E0,0E0,6.810869E0,7.610924E0,0E0,0E0,0E0,0E0,0E0,0E0],"parents":[2147483647,0,0,1,1,2,2,3,3,5,5,6,6],"right_children":[2,4,6,8,-1,10,12,-1,-1,-1,-1,-1,-1],"split_conditions":[-2.3587232E-2,3.0814905E1,9.107739E-2,6.269523E-2,-2.4596801E-2,4E0,3.735849E-3,2.6541967E-2,-2.0754037E-2,5.9828535E-3,-3.2445197E-3,1.6296191E-2,-1.5141802E-3],"split_indices":[16,10,3,13,0,28,20,0,0,0,0,0,0],"split_type":[0,0,0,0,0,0,0,0,0,0,0,0,0],"sum_hessian":[1.4982063E3,6.3435555E1,1.4347706E3,5.830737E1,5.128184E0,1.1985437E3,2.3622704E2,5.2876015E1,5.4313574E0,2.5146007E2,9.4708356E2,1.2076664E2,1.154604E2],"tree_param":{"num_deleted":"0","num_feature":"30","num_nodes":"13","size_leaf_vector":"1"}},{"base_weights":[-2.7423715E-3,3.0442283E-2,-1.3800636E-1,5.4008037E-1,-6.17527E-3,-1.0395812E0,-4.3476112E-2,8.411235E-4,5.412007E-2,-4.3547314E-2,4.8223865E-4,-2.357635E-2,-7.5784676E-2,6.7173295E-2,-5.2625383E-3],"categories":[],"categories_nodes":[],"categories_segments":[],"categories_sizes":[],"default_left":[0,0,0,0,0,0,0,0,0,0,0,0,0,0,0],"id":60,"left_children":[1,3,5,7,9,11,13,-1,-1,-1,-1,-1,-1,-1,-1],"loss_changes":[6.8665543E0,2.294343E1,2.5419792E1,2.3134516E1,1.5815814E1,6.199497E0,2.3503984E1,0E0,0E0,0E0,0E0,0E0,0E0,0E0,0E0],"parents":[2147483647,0,0,1,1,2,2,3,3,4,4,5,5,6,6],"right_children":[2,4,6,8,10,12,14,-1,-1,-1,-1,-1,-1,-1,-1],"split_conditions":[4E0,-2.799103E-2,-2.7808407E-2,-3.718927E-2,-2.450024E-2,-5.6119997E-2,-5.6119997E-2,8.411235E-4,5.412007E-2,-4.3547314E-2,4.8223865E-4,-2.357635E-2,-7.5784676E-2,6.7173295E-2,-5.2625383E-3],"split_indices":[29,23,23,23,23,24,24,0,0,0,0,0,0,0,0],"split_type":[0,0,0,0,0,0,0,0,0,0,0,0,0,0,0],"sum_hessian":[1.5220497E3,1.2219496E3,3.0010013E2,8.089547E1,1.1410541E3,2.6855562E1,2.7324457E2,4.214613E1,3.8749336E1,1.9269825E1,1.1217842E3,1.3798302E1,1.30572605E1,1.0186293E1,2.6305826E2],"tree_param":{"num_deleted":"0","num_feature":"30","num_nodes":"15","size_leaf_vector":"1"}},{"base_weights":[-1.948992E-2,-3.2436803E-2,3.1775674E-1,5.164781E-1,-4.0705893E-2,-7.8783184E-2,6.401777E-1,2.5824743E-4,3.6934905E-2,-2.8342085E-3,1.1988419E-2,1.0347568E-2,-4.5025285E-2,4.267552E-2,-1.8913735E-3],"categories":[],"categories_nodes":[],"categories_segments":[],"categories_sizes":[],"default_left":[0,0,0,0,0,0,0,0,0,0,0,0,0,0,0],"id":61,"left_children":[1,3,5,7,9,11,13,-1,-1,-1,-1,-1,-1,-1,-1],"loss_changes":[6.5692096E0,6.5634217E0,7.289318E0,2.279158E0,6.4375453E0,6.5149603E0,4.7066097E0,0E0,0E0,0E0,0E0,0E0,0E0,0E0,0E0],"parents":[2147483647,0,0,1,1,2,2,3,3,4,4,5,5,6,6],"right_children":[2,4,6,8,10,12,14,-1,-1,-1,-1,-1,-1,-1,-1],"split_conditions":[2.051652E-1,-4.3670774E-2,7.3708748E-3,5.2897085E-2,3.2589663E-2,1.250446E0,8.576562E1,2.5824743E-4,3.6934905E-2,-2.8342085E-3,1.1988419E-2,1.0347568E-2,-4.5025285E-2,4.267552E-2,-1.8913735E-3],"split_indices":[3,23,23,22,23,12,9,0,0,0,0,0,0,0,0],"split_type":[0,0,0,0,0,0,0,0,0,0,0,0,0,0,0],"sum_hessian":[1.5125563E3,1.4585128E3,5.4043465E1,1.991849E1,1.4385944E3,2.4466148E1,2.9577318E1,6.7718315E0,1.3146658E1,1.3628636E3,7.573074E1,1.8805733E1,5.6604156E0,2.2427317E1,7.15E0],"tree_param":{"num_deleted":"0","num_feature":"30","num_nodes":"15","size_leaf_vector":"1"}},{"base_weights":[-9.159669E-3,-1.12656005E-1,5.5128135E-2,-4.2060595E-2,-9.325677E-1,2.4799238E-1,-3.3394927E-3,1.44624235E-2,-7.5278278E-3,-5.3527195E-2,-0E0,-7.5010844E-3,1.9899806E-2,7.880532E-3,-5.262798E-3],"categories":[],"categories_nodes":[],"categories_segments":[],"categories_sizes":[],"default_left":[0,0,0,0,0,0,0,0,0,0,0,0,0,0,0],"id":62,"left_children":[1,3,5,7,9,11,13,-1,-1,-1,-1,-1,-1,-1,-1],"loss_changes":[1.0002201E1,3.3114174E1,1.0482746E1,1.9181417E1,5.908455E0,1.3037546E1,1.1671299E1,0E0,0E0,0E0,0E0,0E0,0E0,0E0,0E0],"parents":[2147483647,0,0,1,1,2,2,3,3,4,4,5,5,6,6],"right_children":[2,4,6,8,10,12,14,-1,-1,-1,-1,-1,-1,-1,-1],"split_conditions":[-4.175913E-3,-5.5691004E-3,-3.6526942E-3,1E0,1.1940389E-2,-5.225488E-3,1.6190553E-3,1.44624235E-2,-7.5278278E-3,-5.3527195E-2,-0E0,-7.5010844E-3,1.9899806E-2,7.880532E-3,-5.262798E-3],"split_indices":[23,23,0,29,0,11,20,0,0,0,0,0,0,0,0],"split_type":[0,0,0,0,0,0,0,0,0,0,0,0,0,0,0],"sum_hessian":[1.4986578E3,5.7498206E2,9.236758E2,5.310766E2,4.390547E1,2.1454042E2,7.091354E2,1.2994063E2,4.01136E2,3.8111046E1,5.7944274E0,5.835911E1,1.561813E2,2.7386148E2,4.352739E2],"tree_param":{"num_deleted":"0","num_feature":"30","num_nodes":"15","size_leaf_vector":"1"}},{"base_weights":[-6.8830694E-3,-8.1819034E-1,-0E0,-5.8689248E-2,-1.3772829E-2,2.4427292E-1,-1.585564E-2,1.754537E-2,-2.3727765E-2,-1.3036635E-3,1.991096E-2],"categories":[],"categories_nodes":[],"categories_segments":[],"categories_sizes":[],"default_left":[0,0,0,0,0,0,0,0,0,0,0],"id":63,"left_children":[1,3,5,-1,-1,7,9,-1,-1,-1,-1],"loss_changes":[8.260725E0,1.6270695E0,5.726552E0,0E0,0E0,7.131161E0,5.840294E0,0E0,0E0,0E0,0E0],"parents":[2147483647,0,0,1,1,2,2,5,5,6,6],"right_children":[2,4,6,-1,-1,8,10,-1,-1,-1,-1],"split_conditions":[4.6596885E-2,2.288E-1,1.8546036E-2,-5.8689248E-2,-1.3772829E-2,3.2909837E-2,2.6797645E-2,1.754537E-2,-2.3727765E-2,-1.3036635E-3,1.991096E-2],"split_indices":[17,21,16,0,0,15,20,0,0,0,0],"split_type":[0,0,0,0,0,0,0,0,0,0,0],"sum_hessian":[1.4923557E3,1.0945559E1,1.4814102E3,5.3365197E0,5.609039E0,8.8596985E1,1.3928132E3,7.806275E1,1.0534229E1,1.3611151E3,3.169806E1],"tree_param":{"num_deleted":"0","num_feature":"30","num_nodes":"11","size_leaf_vector":"1"}},{"base_weights":[-5.1911776E-3,6.039428E-1,-1.4496954E-2,8.071475E-1,2.751219E-4,-5.8917916E-1,-2.4962681E-3,1.2025175E-2,5.2034553E-2,-4.4626705E-3,-6.314291E-2,1.674412E-2,-1.4084912E-3],"categories":[],"categories_nodes":[],"categories_segments":[],"categories_sizes":[],"default_left":[0,0,0,0,0,0,0,0,0,0,0,0,0],"id":64,"left_children":[1,3,5,7,-1,9,11,-1,-1,-1,-1,-1,-1],"loss_changes":[8.536737E0,2.5853024E0,1.0247328E1,1.5716562E0,0E0,9.8001375E0,1.2723903E1,0E0,0E0,0E0,0E0,0E0,0E0],"parents":[2147483647,0,0,1,1,2,2,3,3,5,5,6,6],"right_children":[2,4,6,8,-1,10,12,-1,-1,-1,-1,-1,-1],"split_conditions":[-4.3670774E-2,-4.0223864E-3,-3.718927E-2,-8.1756294E-2,2.751219E-4,-3.8763165E-2,-5.6119997E-2,1.2025175E-2,5.2034553E-2,-4.4626705E-3,-6.314291E-2,1.674412E-2,-1.4084912E-3],"split_indices":[23,20,23,7,0,23,24,0,0,0,0,0,0],"split_type":[0,0,0,0,0,0,0,0,0,0,0,0,0],"sum_hessian":[1.5229858E3,2.1150986E1,1.5018348E3,1.5149526E1,6.00146E0,2.8903658E1,1.4729312E3,5.5601254E0,9.5894E0,1.7736965E1,1.1166693E1,1.023312E2,1.3706E3],"tree_param":{"num_deleted":"0","num_feature":"30","num_nodes":"13","size_leaf_vector":"1"}},{"base_weights":[3.7052731E-3,6.027585E-1,-5.503281E-3,-6.5830545E-3,8.605969E-1,-6.3977905E-2,6.0307797E-2,5.341549E-2,2.0028932E-2,5.017759E-3,-5.885361E-3,1.3771142E-2,1.7817851E-4],"categories":[],"categories_nodes":[],"categories_segments":[],"categories_sizes":[],"default_left":[0,0,0,0,0,0,0,0,0,0,0,0,0],"id":65,"left_children":[1,3,5,-1,7,9,11,-1,-1,-1,-1,-1,-1],"loss_changes":[8.431948E0,4.697831E0,5.7186074E0,0E0,7.3920345E-1,6.981551E0,8.456974E0,0E0,0E0,0E0,0E0,0E0,0E0],"parents":[2147483647,0,0,1,1,2,2,4,4,5,5,6,6],"right_children":[2,4,6,-1,8,10,12,-1,-1,-1,-1,-1,-1],"split_conditions":[-2.411725E1,1.8911796E-2,4.4519547E-1,-6.5830545E-3,2.9113349E-2,4E0,-2.2210978E-2,5.341549E-2,2.0028932E-2,5.017759E-3,-5.885361E-3,1.3771142E-2,1.7817851E-4],"split_indices":[12,15,21,0,15,28,25,0,0,0,0,0,0],"split_type":[0,0,0,0,0,0,0,0,0,0,0,0,0],"sum_hessian":[1.5044639E3,2.164136E1,1.4828225E3,5.612693E0,1.6028667E1,7.868073E2,6.960152E2,9.376593E0,6.652075E0,1.9262689E2,5.941804E2,1.4333456E2,5.5268066E2],"tree_param":{"num_deleted":"0","num_feature":"30","num_nodes":"13","size_leaf_vector":"1"}},{"base_weights":[-0E0,-7.785076E-2,8.993536E-2,-1.0568257E-1,4.0610492E-1,1.6637854E-1,-4.5335315E-2,-5.2969815E-4,-1.4108534E-2,3.5579063E-2,-3.6874883E-2,3.6146876E-3,3.126928E-2,7.052409E-3,-2.0920208E-2],"categories":[],"categories_nodes":[],"categories_segments":[],"categories_sizes":[],"default_left":[0,0,0,0,0,0,0,0,0,0,0,0,0,0,0],"id":66,"left_children":[1,3,5,7,9,11,13,-1,-1,-1,-1,-1,-1,-1,-1],"loss_changes":[1.0508677E1,1.0851013E1,7.2306423E0,1.2742922E1,1.6052437E1,1.9046764E1,1.7629814E1,0E0,0E0,0E0,0E0,0E0,0E0,0E0,0E0],"parents":[2147483647,0,0,1,1,2,2,3,3,4,4,5,5,6,6],"right_children":[2,4,6,8,10,12,14,-1,-1,-1,-1,-1,-1,-1,-1],"split_conditions":[4.4519547E-1,6.0854357E-2,2.3414306E-2,-6.898683E-3,1.6126351E-1,2.3106035E-2,2.2918532E-2,-5.2969815E-4,-1.4108534E-2,3.5579063E-2,-3.6874883E-2,3.6146876E-3,3.126928E-2,7.052409E-3,-2.0920208E-2],"split_indices":[21,1,24,0,6,23,23,0,0,0,0,0,0,0,0],"split_type":[0,0,0,0,0,0,0,0,0,0,0,0,0,0,0],"sum_hessian":[1.4981063E3,8.0378845E2,6.9431793E2,7.6157666E2,4.2211803E1,4.4434595E2,2.4997198E2,4.966915E2,2.6488513E2,3.389847E1,8.313333E0,3.705621E2,7.378385E1,1.6695755E2,8.301444E1],"tree_param":{"num_deleted":"0","num_feature":"30","num_nodes":"15","size_leaf_vector":"1"}},{"base_weights":[-2.2837617E-3,5.7948714E-1,-1.0335388E-2,8.256032E-1,-3.465838E-5,-2.5957458E-2,2.7034542E-1,1.6795022E-2,5.1073827E-2,-3.9341973E-4,-2.5862409E-2,3.0515546E-2,-5.8184387E-3],"categories":[],"categories_nodes":[],"categories_segments":[],"categories_sizes":[],"default_left":[0,0,0,0,0,0,0,0,0,0,0,0,0],"id":67,"left_children":[1,3,5,7,-1,9,11,-1,-1,-1,-1,-1,-1],"loss_changes":[6.946113E0,3.0552964E0,6.4798007E0,6.000385E-1,0E0,1.2421278E1,1.04377365E1,0E0,0E0,0E0,0E0,0E0,0E0],"parents":[2147483647,0,0,1,1,2,2,3,3,5,5,6,6],"right_children":[2,4,6,8,-1,10,12,-1,-1,-1,-1,-1,-1],"split_conditions":[-4.3670774E-2,-3.1775218E-2,3.305564E-2,1.5175156E-1,-3.465838E-5,2.7609566E-2,4.5337677E-2,1.6795022E-2,5.1073827E-2,-3.9341973E-4,-2.5862409E-2,3.0515546E-2,-5.8184387E-3],"split_indices":[23,24,23,17,0,23,23,0,0,0,0,0,0],"split_type":[0,0,0,0,0,0,0,0,0,0,0,0,0],"sum_hessian":[1.5037639E3,1.8735453E1,1.4850284E3,1.2951534E1,5.7839174E0,1.4086973E3,7.633113E1,5.1555495E0,7.795985E0,1.3605343E3,4.816304E1,4.043451E1,3.589662E1],"tree_param":{"num_deleted":"0","num_feature":"30","num_nodes":"13","size_leaf_vector":"1"}},{"base_weights":[5.2201E-4,1.789988E-1,-2.379238E-2,3.2554004E-1,-9.3924634E-2,-1.5197949E-1,4.34872E-2,-1.5162863E-2,2.0403087E-2,4.829498E-2,-1.9502878E-2,-4.193687E-3,-4.0786773E-2,1.1502223E-2,-4.7317293E-4],"categories":[],"categories_nodes":[],"categories_segments":[],"categories_sizes":[],"default_left":[0,0,0,0,0,0,0,0,0,0,0,0,0,0,0],"id":68,"left_children":[1,3,5,7,9,11,13,-1,-1,-1,-1,-1,-1,-1,-1],"loss_changes":[6.594765E0,7.3846526E0,1.1503974E1,6.404743E0,2.0657795E1,2.0476774E1,8.666277E0,0E0,0E0,0E0,0E0,0E0,0E0,0E0,0E0],"parents":[2147483647,0,0,1,1,2,2,3,3,4,4,5,5,6,6],"right_children":[2,4,6,8,10,12,14,-1,-1,-1,-1,-1,-1,-1,-1],"split_conditions":[-4.7194097E-2,3E0,-4.175913E-3,2.761675E-2,2.0058254E-2,-5.5691004E-3,-3.6526942E-3,-1.5162863E-2,2.0403087E-2,4.829498E-2,-1.9502878E-2,-4.193687E-3,-4.0786773E-2,1.1502223E-2,-4.7317293E-4],"split_indices":[5,29,23,22,15,23,0,0,0,0,0,0,0,0,0],"split_type":[0,0,0,0,0,0,0,0,0,0,0,0,0,0,0],"sum_hessian":[1.509562E3,1.8083653E2,1.3287255E3,1.17949394E2,6.2887135E1,4.5772015E2,8.710053E2,1.293693E1,1.0501247E2,1.284576E1,5.0041374E1,4.1693112E2,4.078903E1,1.9228868E2,6.787166E2],"tree_param":{"num_deleted":"0","num_feature":"30","num_nodes":"15","size_leaf_vector":"1"}},{"base_weights":[-3.5623314E-3,2.009814E-1,-2.789538E-2,7.4881082E-3,4.2074868E-1,-4.713732E-2,2.7743176E-1,4.38301E-3,-4.2527422E-2,9.307791E-4,3.045102E-2,-1.5384796E-3,-3.3409473E-2,3.4898352E-2,-8.26773E-3],"categories":[],"categories_nodes":[],"categories_segments":[],"categories_sizes":[],"default_left":[0,0,0,0,0,0,0,0,0,0,0,0,0,0,0],"id":69,"left_children":[1,3,5,7,9,11,13,-1,-1,-1,-1,-1,-1,-1,-1],"loss_changes":[7.487048E0,6.7047167E0,7.9122486E0,5.943279E0,5.4832897E0,1.27700615E1,1.5122174E1,0E0,0E0,0E0,0E0,0E0,0E0,0E0,0E0],"parents":[2147483647,0,0,1,1,2,2,3,3,4,4,5,5,6,6],"right_children":[2,4,6,8,10,12,14,-1,-1,-1,-1,-1,-1,-1,-1],"split_conditions":[-6.3456817E0,1.953526E-1,3.2589663E-2,1.3166096E-2,-1.8644433E-2,2.8760906E-2,5.28622E-1,4.38301E-3,-4.2527422E-2,9.307791E-4,3.045102E-2,-1.5384796E-3,-3.3409473E-2,3.4898352E-2,-8.26773E-3],"split_indices":[12,17,23,23,23,23,19,0,0,0,0,0,0,0,0],"split_type":[0,0,0,0,0,0,0,0,0,0,0,0,0,0,0],"sum_hessian":[1.5080428E3,1.5829613E2,1.3497467E3,8.548891E1,7.280723E1,1.271537E3,7.820973E1,7.9628525E1,5.8603806E0,2.4081566E1,4.872566E1,1.240734E3,3.0802992E1,3.990104E1,3.8308693E1],"tree_param":{"num_deleted":"0","num_feature":"30","num_nodes":"15","size_leaf_vector":"1"}},{"base_weights":[2.2729763E-3,4.199711E-2,-8.7834895E-2,5.6331274E-3,2.9481643E-1,-1.2214155E-1,3.1002527E-1,-2.0290136E-3,1.1048428E-2,7.329486E-3,3.5417296E-2,-4.680762E-3,-3.8193338E-2,-1.0532164E-2,2.495292E-2],"categories":[],"categories_nodes":[],"categories_segments":[],"categories_sizes":[],"default_left":[0,0,0,0,0,0,0,0,0,0,0,0,0,0,0],"id":70,"left_children":[1,3,5,7,9,11,13,-1,-1,-1,-1,-1,-1,-1,-1],"loss_changes":[5.365945E0,9.532538E0,6.269582E0,9.151695E0,7.6735888E0,7.466787E0,3.7893958E0,0E0,0E0,0E0,0E0,0E0,0E0,0E0,0E0],"parents":[2147483647,0,0,1,1,2,2,3,3,4,4,5,5,6,6],"right_children":[2,4,6,8,10,12,14,-1,-1,-1,-1,-1,-1,-1,-1],"split_conditions":[1.1054597E0,8.661497E-3,8E0,4.9424257E-2,2.4882281E-2,4.5337677E-2,1.3295729E0,-2.0290136E-3,1.1048428E-2,7.329486E-3,3.5417296E-2,-4.680762E-3,-3.8193338E-2,-1.0532164E-2,2.495292E-2],"split_indices":[18,20,28,3,23,23,18,0,0,0,0,0,0,0,0],"split_type":[0,0,0,0,0,0,0,0,0,0,0,0,0,0,0],"sum_hessian":[1.4986099E3,1.0421831E3,4.5642685E2,9.131637E2,1.2901936E2,4.2161414E2,3.481271E1,7.520532E2,1.611105E2,9.6827576E1,3.2191795E1,4.0561404E2,1.600009E1,8.945083E0,2.5867628E1],"tree_param":{"num_deleted":"0","num_feature":"30","num_nodes":"15","size_leaf_vector":"1"}},{"base_weights":[5.7197534E-3,-2.8957218E-1,2.0924687E-2,4.286655E-2,-3.9928013E-1,-4.6743367E-2,9.435635E-2,-3.302228E-2,-4.5153475E-4,-1.658231E-3,-6.917365E-2,-2.1086311E-2,6.860476E-3],"categories":[],"categories_nodes":[],"categories_segments":[],"categories_sizes":[],"default_left":[0,0,0,0,0,0,0,0,0,0,0,0,0],"id":71,"left_children":[1,3,5,-1,7,9,11,-1,-1,-1,-1,-1,-1],"loss_changes":[6.6883373E0,9.593348E0,7.1128016E0,0E0,6.7581367E0,1.3131437E1,1.5219935E1,0E0,0E0,0E0,0E0,0E0,0E0],"parents":[2147483647,0,0,1,1,2,2,4,4,5,5,6,6],"right_children":[2,4,6,-1,8,10,12,-1,-1,-1,-1,-1,-1],"split_conditions":[1.508908E-2,-4.334999E-2,1.1168336E-3,4.286655E-2,7.9891413E-1,8.276708E-4,-4.2253997E-2,-3.302228E-2,-4.5153475E-4,-1.658231E-3,-6.917365E-2,-2.1086311E-2,6.860476E-3],"split_indices":[22,2,23,0,18,23,24,0,0,0,0,0,0],"split_type":[0,0,0,0,0,0,0,0,0,0,0,0,0],"sum_hessian":[1.498085E3,7.139116E1,1.4266938E3,5.1811914E0,6.620997E1,7.413518E2,6.8534204E2,3.873585E1,2.747412E1,7.3556665E2,5.7851887E0,5.1170044E1,6.34172E2],"tree_param":{"num_deleted":"0","num_feature":"30","num_nodes":"13","size_leaf_vector":"1"}},{"base_weights":[8.60123E-3,-6.3632955E-3,2.726088E-1,8.80656E-3,-5.5364335E-1,5.74311E-1,-1.1787051E-1,-3.9952152E-4,2.1176193E-2,3.1025946E-2,-3.904494E-2,1.5707511E-2,6.2576905E-2,1.7630294E-2,-2.8405128E-2],"categories":[],"categories_nodes":[],"categories_segments":[],"categories_sizes":[],"default_left":[0,0,0,0,0,0,0,0,0,0,0,0,0,0,0],"id":72,"left_children":[1,3,5,7,9,11,13,-1,-1,-1,-1,-1,-1,-1,-1],"loss_changes":[5.9443073E0,1.1832821E1,9.700233E0,9.661713E0,1.10166645E1,7.214224E0,7.99706E0,0E0,0E0,0E0,0E0,0E0,0E0,0E0,0E0],"parents":[2147483647,0,0,1,1,2,2,3,3,4,4,5,5,6,6],"right_children":[2,4,6,8,10,12,14,-1,-1,-1,-1,-1,-1,-1,-1],"split_conditions":[3.2589663E-2,2.835964E-2,4.5337677E-2,2.4882281E-2,1.7965747E-2,8.940315E-2,1.1563507E0,-3.9952152E-4,2.1176193E-2,3.1025946E-2,-3.904494E-2,1.5707511E-2,6.2576905E-2,1.7630294E-2,-2.8405128E-2],"split_indices":[23,23,23,23,14,24,18,0,0,0,0,0,0,0,0],"split_type":[0,0,0,0,0,0,0,0,0,0,0,0,0,0,0],"sum_hessian":[1.4889663E3,1.4097642E3,7.920222E1,1.3728218E3,3.6942326E1,4.457079E1,3.4631424E1,1.3203341E3,5.248768E1,5.426967E0,3.1515358E1,3.4000454E1,1.0570337E1,1.6876804E1,1.775462E1],"tree_param":{"num_deleted":"0","num_feature":"30","num_nodes":"15","size_leaf_vector":"1"}},{"base_weights":[1.5561319E-2,6.8951654E-1,5.8569703E-3,4.4326615E-2,1.6716493E-2,-5.1666355E-1,1.6604697E-2,-7.952912E-5,-6.287834E-2,2.8934011E-2,-1.3141728E-4],"categories":[],"categories_nodes":[],"categories_segments":[],"categories_sizes":[],"default_left":[0,0,0,0,0,0,0,0,0,0,0],"id":73,"left_children":[1,3,5,-1,-1,7,9,-1,-1,-1,-1],"loss_changes":[9.602261E0,7.702522E-1,8.17391E0,0E0,0E0,1.0933879E1,1.571899E1,0E0,0E0,0E0,0E0],"parents":[2147483647,0,0,1,1,2,2,5,5,6,6],"right_children":[2,4,6,-1,-1,8,10,-1,-1,-1,-1],"split_conditions":[-4.3670774E-2,1.290072E-3,-3.718927E-2,4.4326615E-2,1.6716493E-2,-3.8763165E-2,-2.8070001E-2,-7.952912E-5,-6.287834E-2,2.8934011E-2,-1.3141728E-4],"split_indices":[23,8,23,0,0,23,23,0,0,0,0],"split_type":[0,0,0,0,0,0,0,0,0,0,0],"sum_hessian":[1.4888594E3,1.9349823E1,1.4695095E3,1.0640629E1,8.709195E0,2.7819042E1,1.4416904E3,1.7456509E1,1.03625345E1,4.6599903E1,1.3950906E3],"tree_param":{"num_deleted":"0","num_feature":"30","num_nodes":"11","size_leaf_vector":"1"}},{"base_weights":[4.8051355E-3,-2.913411E-2,1.531627E-1,-1.8583049E-4,-5.3034955E-1,4.34931E-1,3.0803738E-2,-7.658437E-4,5.7099283E-2,-3.1701036E-2,2.1995965E-2,5.0603896E-2,8.151829E-3,1.8251946E-2,-1.2199307E-2],"categories":[],"categories_nodes":[],"categories_segments":[],"categories_sizes":[],"default_left":[0,0,0,0,0,0,0,0,0,0,0,0,0,0,0],"id":74,"left_children":[1,3,5,7,9,11,13,-1,-1,-1,-1,-1,-1,-1,-1],"loss_changes":[7.521046E0,1.7460033E1,9.480459E0,1.9614323E1,7.068796E0,1.2642812E1,1.8170603E1,0E0,0E0,0E0,0E0,0E0,0E0,0E0,0E0],"parents":[2147483647,0,0,1,1,2,2,3,3,4,4,5,5,6,6],"right_children":[2,4,6,8,10,12,14,-1,-1,-1,-1,-1,-1,-1,-1],"split_conditions":[1.7121429E-2,1.3556261E-2,2.2074811E-2,1.2537613E-2,6.683312E-2,2E0,2.1292321E-2,-7.658437E-4,5.7099283E-2,-3.1701036E-2,2.1995965E-2,5.0603896E-2,8.151829E-3,1.8251946E-2,-1.2199307E-2],"split_indices":[23,23,23,23,1,29,24,0,0,0,0,0,0,0,0],"split_type":[0,0,0,0,0,0,0,0,0,0,0,0,0,0,0],"sum_hessian":[1.4859545E3,1.2091897E3,2.767648E2,1.1449608E3,6.422895E1,8.214193E1,1.9462286E2,1.1316244E3,1.3336332E1,5.8684586E1,5.544364E0,2.4761644E1,5.7380287E1,8.7919235E1,1.0670363E2],"tree_param":{"num_deleted":"0","num_feature":"30","num_nodes":"15","size_leaf_vector":"1"}},{"base_weights":[-1.0488134E-2,-1.9927807E-1,1.035188E-2,7.37455E-2,-3.492739E-1,5.2347094E-1,-2.7614087E-3,-1.35313785E-2,2.199596E-2,-5.5032708E-2,-7.541106E-3,-2.9399782E-2,3.771369E-2,5.7204086E-3,-1.9032924E-3],"categories":[],"categories_nodes":[],"categories_segments":[],"categories_sizes":[],"default_left":[0,0,0,0,0,0,0,0,0,0,0,0,0,0,0],"id":75,"left_children":[1,3,5,7,9,11,13,-1,-1,-1,-1,-1,-1,-1,-1],"loss_changes":[5.9627504E0,6.2636666E0,9.230378E0,7.0455184E0,1.4109763E1,9.466268E0,5.465313E0,0E0,0E0,0E0,0E0,0E0,0E0,0E0,0E0],"parents":[2147483647,0,0,1,1,2,2,3,3,4,4,5,5,6,6],"right_children":[2,4,6,8,10,12,14,-1,-1,-1,-1,-1,-1,-1,-1],"split_conditions":[1.3530981E-2,2.3464343E-2,7.4207845E0,-4.175913E-3,-1.2333623E-2,-3.718927E-2,1.216445E-1,-1.35313785E-2,2.199596E-2,-5.5032708E-2,-7.541106E-3,-2.9399782E-2,3.771369E-2,5.7204086E-3,-1.9032924E-3],"split_indices":[14,27,10,23,5,23,17,0,0,0,0,0,0,0,0],"split_type":[0,0,0,0,0,0,0,0,0,0,0,0,0,0,0],"sum_hessian":[1.5036578E3,1.491609E2,1.354497E3,5.2687626E1,9.647328E1,3.267829E1,1.3218187E3,2.707231E1,2.5615314E1,1.852116E1,7.7952126E1,5.070856E0,2.7607435E1,3.0396924E2,1.0178494E3],"tree_param":{"num_deleted":"0","num_feature":"30","num_nodes":"15","size_leaf_vector":"1"}},{"base_weights":[3.742444E-3,-2.2899548E-2,1.5036668E-1,-4.0553156E-2,2.4731752E-1,-3.3680776E-1,2.4291833E-1,-2.9270907E-3,1.9840231E-2,1.80154E-2,-3.354905E-2,-2.2947376E-3,-4.7250744E-2,-1.04348585E-2,1.6640564E-2],"categories":[],"categories_nodes":[],"categories_segments":[],"categories_sizes":[],"default_left":[0,0,0,0,0,0,0,0,0,0,0,0,0,0,0],"id":76,"left_children":[1,3,5,7,9,11,13,-1,-1,-1,-1,-1,-1,-1,-1],"loss_changes":[5.904881E0,6.0447774E0,1.0590493E1,9.381565E0,8.34842E0,6.356542E0,8.112893E0,0E0,0E0,0E0,0E0,0E0,0E0,0E0,0E0],"parents":[2147483647,0,0,1,1,2,2,3,3,4,4,5,5,6,6],"right_children":[2,4,6,8,10,12,14,-1,-1,-1,-1,-1,-1,-1,-1],"split_conditions":[3.5952576E-2,2.102654E0,-1.7209128E-2,3.2589663E-2,9.0111464E-1,1.04728695E-2,3.93082E1,-2.9270907E-3,1.9840231E-2,1.80154E-2,-3.354905E-2,-2.2947376E-3,-4.7250744E-2,-1.04348585E-2,1.6640564E-2],"split_indices":[15,19,23,23,21,1,9,0,0,0,0,0,0,0,0],"split_type":[0,0,0,0,0,0,0,0,0,0,0,0,0,0,0],"sum_hessian":[1.5022579E3,1.2711826E3,2.3107538E2,1.195119E3,7.606355E1,3.5913555E1,1.9516182E2,1.1495925E3,4.552656E1,6.8735374E1,7.3281775E0,2.5607292E1,1.0306263E1,3.169934E1,1.6346248E2],"tree_param":{"num_deleted":"0","num_feature":"30","num_nodes":"15","size_leaf_vector":"1"}},{"base_weights":[1.6364823E-3,-2.9719567E-2,1.5597364E-1,-5.0900955E-2,2.835738E-1,5.024549E-1,5.9132744E-2,-5.7969574E-4,-1.2858743E-2,2.6039127E-2,-4.958049E-3,-3.7700476E-3,3.474347E-2,-3.667131E-2,4.5899157E-3],"categories":[],"categories_nodes":[],"categories_segments":[],"categories_sizes":[],"default_left":[0,0,0,0,0,0,0,0,0,0,0,0,0,0,0],"id":77,"left_children":[1,3,5,7,9,11,13,-1,-1,-1,-1,-1,-1,-1,-1],"loss_changes":[7.3366027E0,8.301108E0,8.439089E0,9.485618E0,7.3417907E0,6.3524113E0,5.212044E0,0E0,0E0,0E0,0E0,0E0,0E0,0E0,0E0],"parents":[2147483647,0,0,1,1,2,2,3,3,4,4,5,5,6,6],"right_children":[2,4,6,8,10,12,14,-1,-1,-1,-1,-1,-1,-1,-1],"split_conditions":[2.666801E-1,8.397239E-2,-6.0447174E-1,1.7977592E-2,1.9925045E-2,-1.3269085E-2,1.5609109E-2,-5.7969574E-4,-1.2858743E-2,2.6039127E-2,-4.958049E-3,-3.7700476E-3,3.474347E-2,-3.667131E-2,4.5899157E-3],"split_indices":[17,24,19,8,23,5,14,0,0,0,0,0,0,0,0],"split_type":[0,0,0,0,0,0,0,0,0,0,0,0,0,0,0],"sum_hessian":[1.5078594E3,1.2531726E3,2.5468668E2,1.1755873E3,7.7585365E1,5.381113E1,2.0087553E2,9.89571E2,1.8601628E2,4.78875E1,2.9697865E1,1.3410308E1,4.040082E1,6.435306E0,1.9444023E2],"tree_param":{"num_deleted":"0","num_feature":"30","num_nodes":"15","size_leaf_vector":"1"}},{"base_weights":[-9.964391E-3,-1.9942718E-2,3.9571187E-1,-3.3840172E-2,2.486139E-1,6.367343E-1,-1.2238738E-2,-2.6371863E-4,-1.0043825E-2,-2.1115048E-2,2.0420073E-2,-1.5998846E-2,4.445452E-2],"categories":[],"categories_nodes":[],"categories_segments":[],"categories_sizes":[],"default_left":[0,0,0,0,0,0,0,0,0,0,0,0,0],"id":78,"left_children":[1,3,5,7,9,11,-1,-1,-1,-1,-1,-1,-1],"loss_changes":[6.0663705E0,5.4927254E0,5.8606963E0,6.680436E0,8.004879E0,7.000929E0,0E0,0E0,0E0,0E0,0E0,0E0,0E0],"parents":[2147483647,0,0,1,1,2,2,3,3,4,4,5,5],"right_children":[2,4,6,8,10,12,-1,-1,-1,-1,-1,-1,-1],"split_conditions":[2.6797645E-2,8E0,6.748304E-2,-3.0051947E-2,1.5937956E-2,2.4797227E-2,-1.2238738E-2,-2.6371863E-4,-1.0043825E-2,-2.1115048E-2,2.0420073E-2,-1.5998846E-2,4.445452E-2],"split_indices":[20,28,22,26,14,14,0,0,0,0,0,0,0],"split_type":[0,0,0,0,0,0,0,0,0,0,0,0,0],"sum_hessian":[1.5127618E3,1.4783192E3,3.444261E1,1.4075367E3,7.078248E1,2.5258574E1,9.184039E0,1.2043235E3,2.0321327E2,1.2900393E1,5.7882088E1,5.022651E0,2.0235924E1],"tree_param":{"num_deleted":"0","num_feature":"30","num_nodes":"13","size_leaf_vector":"1"}},{"base_weights":[1.5992464E-2,7.3111576E-1,8.97261E-3,7.5670183E-3,4.9933787E-2,-4.7986522E-2,7.511927E-2,6.929101E-4,-1.0307676E-2,1.163927E-2,-6.539104E-4],"categories":[],"categories_nodes":[],"categories_segments":[],"categories_sizes":[],"default_left":[0,0,0,0,0,0,0,0,0,0,0],"id":79,"left_children":[1,3,5,-1,-1,7,9,-1,-1,-1,-1],"loss_changes":[7.397946E0,1.7670741E0,5.6332555E0,0E0,0E0,7.8791285E0,9.680565E0,0E0,0E0,0E0,0E0],"parents":[2147483647,0,0,1,1,2,2,5,5,6,6],"right_children":[2,4,6,-1,-1,8,10,-1,-1,-1,-1],"split_conditions":[-4.7901034E-2,1.6001068E-1,4.4519547E-1,7.5670183E-3,4.9933787E-2,-3.6526942E-3,6.367713E-1,6.929101E-4,-1.0307676E-2,1.163927E-2,-6.539104E-4],"split_indices":[23,17,21,0,0,0,21,0,0,0,0],"split_type":[0,0,0,0,0,0,0,0,0,0,0],"sum_hessian":[1.5036217E3,1.2835489E1,1.4907863E3,5.0306096E0,7.80488E0,7.996193E2,6.9116693E2,5.749233E2,2.2469609E2,2.4787033E2,4.4329657E2],"tree_param":{"num_deleted":"0","num_feature":"30","num_nodes":"11","size_leaf_vector":"1"}},{"base_weights":[-1.2775417E-3,9.7207814E-2,-5.3089853E-2,1.4038023E-1,-2.710405E-1,-3.266112E-1,-1.0247975E-2,4.996353E-3,2.3668071E-2,-4.4571977E-2,-2.7951647E-3,1.083636E-2,-2.3093529E-2,-3.0550813E-2,3.3586044E-4],"categories":[],"categories_nodes":[],"categories_segments":[],"categories_sizes":[],"default_left":[0,0,0,0,0,0,0,0,0,0,0,0,0,0,0],"id":80,"left_children":[1,3,5,7,9,11,13,-1,-1,-1,-1,-1,-1,-1,-1],"loss_changes":[7.640884E0,8.22604E0,1.1454088E1,6.0491476E0,6.9588223E0,9.938576E0,8.817022E0,0E0,0E0,0E0,0E0,0E0,0E0,0E0,0E0],"parents":[2147483647,0,0,1,1,2,2,3,3,4,4,5,5,6,6],"right_children":[2,4,6,8,10,12,14,-1,-1,-1,-1,-1,-1,-1,-1],"split_conditions":[-1.178302E0,1.3556261E-2,-1.2500376E-2,2.0526809E-1,-4.961695E-2,-9.063197E-3,-6.2563814E-2,4.996353E-3,2.3668071E-2,-4.4571977E-2,-2.7951647E-3,1.083636E-2,-2.3093529E-2,-3.0550813E-2,3.3586044E-4],"split_indices":[12,23,23,7,1,11,24,0,0,0,0,0,0,0,0],"split_type":[0,0,0,0,0,0,0,0,0,0,0,0,0,0,0],"sum_hessian":[1.4961161E3,5.1397437E2,9.821418E2,4.6135736E2,5.2616978E1,1.3102391E2,8.511179E2,4.1365417E2,4.7703194E1,1.2094526E1,4.052245E1,2.5641127E1,1.0538278E2,2.2256027E1,8.288619E2],"tree_param":{"num_deleted":"0","num_feature":"30","num_nodes":"15","size_leaf_vector":"1"}},{"base_weights":[-1.1560007E-3,2.0761696E-1,-1.5587583E-2,2.9108977E-1,-4.495088E-2,-1.3804047E-1,2.343973E-2,5.993827E-3,5.1213678E-2,-9.376086E-3,2.1377169E-2,2.634736E-2,1.0842071E-4],"categories":[],"categories_nodes":[],"categories_segments":[],"categories_sizes":[],"default_left":[0,0,0,0,0,0,0,0,0,0,0,0,0],"id":81,"left_children":[1,3,5,7,-1,9,11,-1,-1,-1,-1,-1,-1],"loss_changes":[4.4626517E0,9.110739E0,6.7093496E0,1.0920515E1,0E0,9.569462E0,1.1248037E1,0E0,0E0,0E0,0E0,0E0,0E0],"parents":[2147483647,0,0,1,1,2,2,3,3,5,5,6,6],"right_children":[2,4,6,8,-1,10,12,-1,-1,-1,-1,-1,-1],"split_conditions":[2.6065487E-2,-3.5926376E-2,2.5898033E-1,-5.6611132E-2,-4.495088E-2,2.3106035E-2,2.8824162E-1,5.993827E-3,5.1213678E-2,-9.376086E-3,2.1377169E-2,2.634736E-2,1.0842071E-4],